-2.674823924576090306e+00,1.093093588175607644e+00,6.679089819968011543e-01,1.004544692071358103e+00,2.577695796800991257e+00,-1.916079896329741183e+00,-4.094927929882151929e+00,7.758834076089839549e+00,-1.253293056301473474e+00,-4.930651080687021293e-01,1.739139748472717573e+00,5.648184924486574054e+00,-3.722522578509306901e-01,-1.301480921069203101e+00,1.048156883349568691e+00,3.368654627194988205e+00,2.012254582786756174e+00,-3.007796586941725803e+00,-1.282578586189287995e+00,-3.114135118237263411e-01,-1.811602460858718455e+00,-6.218402631097922351e-01,6.319775727430303469e+00,-2.314177017754378340e+00,-1.552563751075888066e+00,-6.870545201894117104e-01,-2.864993517676302837e+00,-2.637879258355125156e+00,-2.558527241898763904e+00,-2.677105764798455301e+00,-3.231514468754572267e+00,2.783558200621932155e+00,-2.100517095913892796e+00,-3.531865235180367546e-01,4.802333966528185560e-01,2.862881569893250155e+00,-6.976227424890102391e+00,1.144083134659959367e+00,3.360476265409721108e+00,-1.386005092312249110e-01,1.656340323402061498e+00,9.184515844625585901e-01,-2.040126474764506703e+00,-1.723116970271603376e+00,-2.279525376370494794e+00,6.292124044213277534e-01,-1.092672581682279986e+00,2.737576924137262058e+00,1.321986606391734709e+00,-3.669745750126411632e-02,1.207663028031536578e+00,-1.987296139850851961e+00,1.657778317528616263e+00,-6.056533381929776194e-01,9.087759395832394560e+00,-5.625771574680034526e+00,1.155620381208161129e-01,4.926188137725369676e-01,-5.351907656688674741e+00,6.461948945479248363e-02,-1.064471824491229457e+00,2.387592510870358620e+00,-7.945329635360651288e+00,-1.958498225479053723e+00,-4.660159914595664588e-01,-2.220612680220055868e+00,-1.850602382048823991e+00,-3.775873974510045028e-01,1.464539656912605459e+00,4.222555668751689084e-01,6.021789088596704032e-01,7.615875196236600031e-01,2.855690644016978919e+00,6.301026142786359863e+00,-1.100554838361203602e+00,3.616392259128498932e+00,9.094364275171935574e-01,-4.823205888808449693e+00,2.365830570952134781e+00,-1.357643864361661512e+00,-8.590599590003905606e-02,1.751218415393537731e+00,1.892942154829209134e+00,-1.627357092646870340e+00,-7.572251240647944748e+00,-6.726766631009619690e-01,-7.395638343806961723e-01,-3.720207771917854789e+00,1.960696827076264137e+00,-8.444929324522697511e-01,-2.124876564214032815e+00,1.703441400148349549e+00,2.245042066964376970e-02,2.764584012837925098e+00,1.016182644253584844e+00,-4.597336795020332545e+00,9.538073308689685170e-01,-1.453565851445372870e+00,2.353149803405077400e-01,-4.940444247796606625e+00,
