-2.579570222823422299e+00,5.651437898000731819e-01,1.865627957663629877e+00,9.902071600625662606e-01,2.487661456407535887e+00,-1.813981686043166563e+00,-3.984092702807966013e+00,7.343616685854530424e+00,-1.410825494671671176e+00,-6.889920756372457378e-01,-9.632291409121173098e-01,9.185300642190966647e-01,-5.287791434238930943e-01,-1.241193463925124307e+00,1.074522285045459435e+00,1.090469294219585938e+00,1.612806661497635963e+00,1.091622051051805320e+00,-1.335183452154636630e+00,-3.314119860914948035e-01,-1.745446725910586361e+00,2.366909607652984082e+00,5.451631186430110354e+00,-1.958546913391755462e+00,-2.215932799869007042e-01,-7.126349443966977226e-01,-2.769595239537555820e+00,-2.546915441147643566e+00,-5.977963594179606766e+00,-2.588307549921643247e+00,-3.083044500880436356e+00,-1.200581121027838760e+00,8.872039700268486984e-01,-2.047638663673058801e+00,5.436571433632493289e-01,1.384240796092892412e+00,-4.705486905638243122e+00,2.215977237777580822e+00,3.258156293878592180e+00,2.060089556803969213e+00,6.082997283197218996e-01,-1.347308306272197553e+00,2.357926968437614956e+00,7.794423521328073257e-01,-2.427952997198778551e+00,1.521616538224023207e+00,-1.241727164364727853e+00,2.646749665304076071e+00,1.102982808778505630e+00,1.307146200170861416e-01,-1.186487287625700882e+00,-1.884796908704845064e+00,1.598788103440909492e+00,1.902639827645007942e-01,9.091764163190156012e+00,-5.770227088381262526e+00,8.937313338376478428e-03,6.519816378170640858e-01,-5.309428978164123514e-01,4.058448398819636260e-01,5.492988367708413477e-01,2.243542703385018822e+00,-8.093753594196805068e+00,-1.371073570101807082e+00,-1.372144051786150509e+00,-2.369076660714845239e+00,-2.003322800844155704e+00,-5.211903204035396309e-01,1.612885016999091370e+00,2.795278511222099582e-01,8.584295007094899788e-02,1.459848301594300013e+00,2.760955241051541886e+00,6.450087558169498081e+00,-7.210115936773094925e-01,3.510261312115692700e+00,5.008610059354158262e-01,-1.106715866569200957e+00,1.498559403581393612e+00,-1.303822913262391525e+00,-2.607266531272874888e-01,1.866254028361964634e+00,2.041398860590273756e+00,-7.849670062853699726e-01,-5.744533436229574797e+00,-9.666154110259328469e-02,1.837788384722182089e+00,-3.131888732362373862e+00,1.724670641582019881e+00,1.478097556384679434e+00,-1.377145598010228067e+00,2.476025540603848663e-01,-1.458889813310845773e-01,-4.012143929857801439e+00,1.002896431862869253e+00,-4.482416132849100343e+00,-1.072038099175050441e+00,3.622085817492269877e-01,-1.060851407267137780e+00,-5.088881059736652723e+00,
