-2.596197724382593996e+00,1.188165549468177540e+00,2.513303679638128507e+00,9.641538484838786394e-01,2.501658849320225642e+00,-1.834173360688403420e+00,-4.009386920632145745e+00,7.527972573348665541e+00,-1.360358812217819402e+00,-6.224487060964027929e-01,-1.497142719641038511e+00,-6.859237615867378457e-01,-4.794495845180278271e-01,-1.238739026729259285e+00,3.535481417296177931e-01,1.973979951077970751e+00,1.299216829630776449e+00,1.448136624380163273e-01,-1.239223318398813944e+00,-2.853731875461757994e-01,-1.746855702073732974e+00,1.534570309881219341e+00,6.485842474288211257e+00,-1.727893514593852764e+00,6.420268727792334262e-01,-6.668255708527307535e-01,-2.786587216661881250e+00,-2.561638682895352126e+00,-2.733730499215812682e+00,-2.601874634523827279e+00,-3.128390876924528108e+00,2.186056127463802845e+00,-1.287126047335890977e+00,1.246828852952760913e+00,4.803033475142419184e-01,3.609101459521881772e+00,-1.595338811641230148e+00,6.165769804047540603e-01,3.278942214877415218e+00,1.292187775833073093e+00,3.414731283543555040e-01,2.479141338392586214e+00,1.460412320346477166e+00,-7.062410454707027441e+00,-2.382630225032050575e+00,5.699787127867022019e-01,-1.195909803397827709e+00,2.661268921258357789e+00,5.715209930337187272e-01,7.678119176894095121e-02,-2.417711896499355195e-01,-1.904972174912517691e+00,1.596345509823439590e+00,5.931661335313798133e-01,9.187376610117402365e+00,-5.726790060434490570e+00,3.376451388187439590e-02,6.008167684570612233e-01,1.612850888782826786e+00,-7.914190054515747585e-02,-3.246196417494049413e-01,2.288267902031632328e+00,-8.048433175728678890e+00,-1.048259833093442950e+00,-1.187620574244497185e+00,-2.323736993770605608e+00,-1.955571293053540050e+00,-4.774151781113422643e-01,1.567602653612408581e+00,3.221561778270498611e-01,3.085986426486831413e-01,1.777967191669101776e+00,2.777724220251451381e+00,6.404270277405590406e+00,-6.723353402649024924e-01,3.532973850269800042e+00,1.274870721407227903e+00,-3.318146869554721573e-02,-1.126727801894692238e+00,-1.298162219151309138e+00,1.112744807401021774e+00,7.680706188231390952e-01,1.996062533965288877e+00,-1.442473430920584887e+00,-7.515191987201407464e+00,-3.303431598679954645e-02,-3.343385625539016637e+00,-3.867197538630922082e+00,1.428900477883481956e+00,-7.839311544669752552e-01,1.007629322300820585e+00,-1.991770983988569443e-01,-9.155746729737014589e-02,-2.295080072170276431e+00,9.767326730810412805e-01,-4.509784477040020612e+00,3.195780471039660897e-01,-6.936176340192476975e-01,-7.102762627337961820e-01,-5.043554432754614680e+00,
