-2.577007220490288297e+00,1.411501513144296061e+00,5.722415254933379547e-01,8.743137034036846389e-01,2.477820976492218996e+00,-1.820741860787643329e+00,-4.002940212735817127e+00,7.915958890252107416e+00,-1.327931049437257593e+00,-5.433239550646817850e-01,2.779702061106255062e+00,6.217756793542054794e+00,-4.467177890991017586e-01,-1.190322882605321819e+00,1.065716015989496501e+00,2.113931597967185994e+00,1.480932419822934776e+00,-2.318402104927189455e+00,-4.388491349936602948e-01,-1.665520993775153613e-01,-1.702392457891147792e+00,-1.322371191052388095e+00,6.734067312303839259e+00,-2.464498909755476141e+00,-1.497468837009994225e+00,-5.385826473360955102e-01,-2.767090898566750390e+00,-2.538190566421033800e+00,-7.719745457415786660e+00,-2.576812709352092057e+00,-3.153994666714863282e+00,-5.274447009041386553e-02,1.956425731825066072e-01,-5.975764375759505809e-01,3.121643302732039493e-01,2.791764337381848371e+00,-6.253994023169216376e+00,-9.248406815605372255e-01,3.265219440384132366e+00,-4.605642385823018881e-01,1.696374441212047168e+00,-7.714647397813272356e-01,3.416146663392177762e-01,-2.260010471086550954e+00,-2.357063286571344563e+00,4.251563469411335228e-01,-1.170215156128661560e+00,2.638091892230846724e+00,1.210258932613522687e+00,3.180378940497680107e-02,8.971232027766193884e-01,-1.892567255223486455e+00,1.545788467780437214e+00,1.699898031121324760e+00,9.174287107659671037e+00,-5.705495262020818359e+00,1.685552842766090478e-02,5.667172741431829586e-01,-5.488107116227501692e+00,-2.388500411233403398e+00,3.554703443728263412e+00,2.305673391083757018e+00,-8.022868690602411590e+00,1.024534960006297846e+00,-1.370146882067402316e+00,-2.298132603035759836e+00,-1.926951506493769450e+00,-4.589253736930440364e-01,1.542119115941913865e+00,3.416841182021771450e-01,7.653779862834986236e-01,5.023785861046287771e+00,2.757479695209933634e+00,6.378547239912961686e+00,-4.974874237546278444e-01,3.522644379247445112e+00,-6.483632063334798801e-01,-9.075972107569976188e-01,-1.379719949196640982e+00,-1.243890500737815374e+00,-5.040068316207458876e-01,-4.289106957483688198e+00,1.970464167420303170e+00,8.350055059668394231e-01,-7.172893354304919811e+00,-7.417459038326388310e-01,2.739533469014217459e+00,-4.221120184276408338e+00,3.110734755373699478e+00,-2.880375840569569412e+00,-1.171402513726244710e+00,2.725689774623051953e+00,-4.577101669006548162e-02,2.758560861048523272e+00,8.853438003309487270e-01,-4.506989995324547138e+00,2.550132307636360784e-01,2.318314664209081832e-01,1.432560609005570695e+00,-5.017976590031665296e+00,
