-2.384189258763209640e+00,-2.324668738522981115e-01,-7.740778225528225365e-01,9.220052154750195683e-01,2.299659542363335252e+00,-1.604718254414882361e+00,-3.759834807008934021e+00,6.787543162356890036e+00,-1.711488458364071041e+00,-1.051123522714324521e+00,-3.620214586506018302e-03,8.355758710976995962e-01,-8.221322995075474038e-01,-1.109979722883093878e+00,1.626946410669603549e-01,2.385563896193013900e+00,1.143925543717765558e+00,-1.098967303040004007e+00,1.100281711297145026e+00,-3.319200240710200034e-01,-1.596116567005373188e+00,-1.269285427338194550e-01,3.355331480733708016e+00,-8.646084958390276576e-01,9.193786244486749082e-01,-6.948248342826675028e-01,-2.571065571316143661e+00,-2.354464709935518485e+00,-5.384369493748245361e+00,-2.403122375259560961e+00,-2.798337513578341706e+00,2.472479347308823794e+00,3.847282400282044795e-02,4.887184935820026305e-02,5.617988804657298996e-01,1.830432258877057183e+00,-7.161913994517253856e-01,-1.646892801200152412e-01,3.046769048399603275e+00,1.522534737075064371e+00,-2.793548011875063519e+00,2.048150321294434917e-01,5.994739266943380773e-01,1.997220480308710133e+00,-2.712616333424619608e+00,-1.570726755387901186e+00,-1.527599018716444990e+00,2.457747777089745345e+00,9.683953937371213572e-01,4.313370498817747367e-01,-1.190704557965088117e+00,-1.679991906301102844e+00,1.461398066580347654e+00,1.632731706206947131e-01,8.502935520425161542e+00,-6.051492274571246277e+00,-2.357992355478595314e-01,9.743820535455229859e-01,-1.295515520898519624e+00,-8.249329040864749052e-01,3.005710669885970909e-01,2.824355447466206037e+00,-4.311646610472505969e+00,9.168741146386649721e-01,-3.280985404421177254e-01,-2.653771187044027702e+00,-9.568052511414284686e-03,-8.040521243318424771e-01,1.897470827348919364e+00,1.911235540020444004e-05,-1.831615267352077470e-01,1.521693309015593076e+00,2.563099865773932340e+00,6.735756799388198601e+00,1.518100528697098606e-01,3.294760139612050498e+00,4.895177621706095494e-01,5.680291129377501136e+00,-8.318456634459090449e-01,-1.182193073057923760e+00,-1.721553910647466656e+00,-1.557180096889423382e+00,2.326087439352349850e+00,-6.432730141139554325e-01,-4.042844334562071928e+00,2.339676119988546577e-01,-1.058969136221382890e+00,-3.127992024581173869e+00,5.509172853418625726e-01,2.735673577580213789e-01,-7.417354913072891076e-01,5.560807152126100439e-01,-4.467033744119500160e-01,-6.111793448612414803e-01,9.344505082751558556e-01,-4.252553534077455843e+00,5.646139664820111204e-01,-9.761534899070614113e-01,9.448353127078615854e-01,-5.373551377573745569e+00,
