-2.554840980318825672e+00,8.025134037090876360e-01,-9.675069060394755338e-01,8.409962785214607495e-01,2.454962716869094397e+00,-1.799355696345523059e+00,-3.982743322784296769e+00,7.943722469309738798e+00,-1.342030757235572969e+00,-5.551511805222530960e-01,1.882740108990829553e+00,9.123013892431394156e-01,-4.608805912356153667e-01,-1.163629222271169050e+00,1.192793022795372027e+00,2.639072589069605623e+00,2.496479883730167604e+00,-2.743006281395081181e-01,-6.442838866833054956e-01,-1.275132649427996590e-01,-1.676378425979057729e+00,-2.933541622627451328e-01,5.078267272754116490e+00,-2.416116416574047410e+00,-1.644151379158636184e+00,-4.986998224769164101e-01,-2.744896591699764077e+00,-2.515392082451652911e+00,-7.291195463942822030e+00,-2.553855385339367512e+00,-3.138669586979147663e+00,2.228606397915826320e-01,-4.683409254578752012e+00,-1.033688825597713690e+00,2.648700558361323787e-01,2.526058684167773016e+00,-6.250970447312141687e+00,-4.391938007700147972e-01,3.243924273847436091e+00,1.463051880719118680e-01,9.899517483267592510e-01,-2.230034433811046157e-01,-1.711380820049610563e-01,-2.728650422256398311e+00,-2.372395095848383928e+00,-1.145075939262795606e+00,-1.185496251213142616e+00,2.615385767326420474e+00,8.000579133103634666e-01,4.336142217590862463e-02,1.837673455700901792e+00,-1.871445546490201339e+00,1.518824046917412351e+00,1.225451163892467665e+00,9.217713068382007435e+00,-5.721676829803350017e+00,-6.436652069224091909e-03,5.808283136437346617e-01,7.712517374048435848e+00,1.072216751269251089e+00,1.816280325119868477e+00,2.288528767975361866e+00,-8.038200662534690011e+00,1.228432357108584005e+00,-1.446850979027162198e+00,-2.313457737950787685e+00,-1.941877066725025580e+00,-4.758135247520839384e-01,1.557466229034112137e+00,3.252046436932096163e-01,5.771735218455403826e-01,1.889295882922356951e+00,2.735193377904832523e+00,6.393872009648849719e+00,-6.392912599311381117e-01,3.501856252495313182e+00,-1.408716084280668523e+00,1.342673688749849381e+00,1.431338566597536444e+00,-1.216344534718631243e+00,4.428703144854071461e-01,-1.002757337327828457e+00,1.985789659234977522e+00,-1.057159805536812547e+00,-5.589128885901343047e+00,1.010022077007038721e+00,1.089572237704111712e+00,-3.341352619416456005e+00,1.846648549931816818e+00,-8.162059557381592945e-02,-6.596402015983905409e-01,-1.316384860723010641e+00,-5.729657217222716009e-02,2.835972660272075618e+00,8.518454405332703816e-01,-4.487344662648156124e+00,1.138913443843921458e+00,8.952251093810503768e-01,1.072586353643116164e+00,-5.033305992639484749e+00,
