-2.530582175652551058e+00,1.133676272690436582e+00,2.323001904924141492e+00,8.615922682875548633e-01,2.433539681230077800e+00,-1.771752147283402135e+00,-3.950456131800108572e+00,7.613480248989135113e+00,-1.398473477745422189e+00,-6.382623029219687272e-01,8.873541916152484221e-01,6.758572486832854054e+00,-5.174536992938547630e-01,-1.157791731351243136e+00,5.419652634668084001e-01,3.082045550404115541e+00,9.553413587699145504e-01,-2.370418913905186553e+00,-5.477360463996485684e-01,-1.690487510494129708e-01,-1.667821119819696829e+00,-2.514391016577583460e-01,6.447568059147958053e+00,-2.467450857665176134e+00,-1.778424889899129058e+00,-5.448010486809035102e-01,-2.720759004114264190e+00,-2.493717186966124544e+00,-3.551877077630216650e+00,-2.532970344644879468e+00,-3.086457218173044748e+00,2.361304537386636149e+00,-1.480197029685618615e+00,1.079340533212805209e+00,3.387059761742626240e-01,2.787840116186171446e+00,-6.929210085961732268e+00,-5.898476702856780829e-01,3.216138589898252853e+00,-2.978874819958635123e-01,9.727560057744768507e-01,-9.576916528707194454e-01,-2.358524748087733158e+00,-2.032588386187670793e+00,-2.424581792097094013e+00,-1.646880282668260632e-03,-1.237726755633189901e+00,2.593409775657836036e+00,5.094432573257809960e-01,1.087730555630038037e-01,-6.920952501345796204e-01,-1.842944640701857262e+00,1.514108761573346618e+00,-1.466509050910572987e-01,9.232688801130528589e+00,-5.770749852872002705e+00,-2.869288664951131357e-02,6.378416327950882092e-01,-5.802834171195515367e+00,-1.639757421632606293e+00,-1.651317588951732418e+00,2.242676894687635869e+00,-8.090386065813428118e+00,-1.169241761650238853e+00,-1.320115462606625156e+00,-2.365669757588891198e+00,-1.995716088946812183e+00,-5.225174287048973687e-01,1.609594590836591177e+00,2.773106980246074493e-01,7.270246200650944957e-01,1.070149693030978399e+00,2.711468777880373437e+00,6.446083256732859645e+00,-6.319582043963792861e-01,3.471990192862508096e+00,-1.374510650601447947e+00,-4.768418426576197966e+00,2.252813526522754017e+00,-1.214047251123203663e+00,-1.580984581143241696e+00,1.246297417504078409e+00,2.037999203077069055e+00,-2.163698795919193785e+00,-7.678435415608286796e+00,3.219963594468473467e-01,-5.554935774643682267e-01,-3.554135627171702172e+00,1.918878426207008880e+00,-1.977559336824634251e+00,-2.993280109016346557e+00,3.246296177250570736e+00,-1.230245513793460088e-01,2.611325312673550503e+00,8.732564802436099116e-01,-4.452798199674562696e+00,7.160134884249879095e-01,-1.069110421555564960e-01,-1.661491959314245065e-02,-5.085500920331567976e+00,
