-2.673780076220982682e+00,7.569053130567293675e-01,1.510582575779963577e+00,1.086895877425728907e+00,2.581956900499623675e+00,-1.908004898754357415e+00,-4.077633610506486761e+00,7.433215574722276564e+00,-1.318768909089572006e+00,-5.981150617609340969e-01,-1.092570313165488471e+00,-7.642173856207933325e-01,-4.367457667252639397e-01,-1.336686374093709828e+00,2.002050425510062404e+00,1.249181963226398295e+00,1.145374251698219048e+00,8.558699009263318613e-01,-1.770070836698017125e+00,-4.299203398711387569e-01,-1.840450296273894004e+00,6.802320037808057274e-01,4.941714706598895113e+00,-2.593710745302945320e+00,1.843344999028670328e+00,-8.102178525350883787e-01,-2.863662758308771483e+00,-2.641085868575034468e+00,-5.885246312972861382e+00,-2.682510525589651529e+00,-3.175396071718077806e+00,-1.358527094431097648e+00,1.545688415637188869e-03,-4.001005887913771653e-01,6.417530384534466670e-01,1.482307142529128097e+00,-5.707865858469881815e+00,9.116037650004942261e-01,3.351938006568168760e+00,-1.018427027845750121e+00,9.664764962771040802e-01,-2.045626966697534355e-01,2.018929385168427793e+00,7.674116867829077204e-01,-2.335599821933292297e+00,1.980109230065457471e+00,-1.149420987746670342e+00,2.740935974282108667e+00,1.922035908877693711e+00,3.900483734362544808e-02,-1.229676998101262519e+00,-1.978844073581789376e+00,1.694028316646350119e+00,9.382861562131461497e-01,8.999245807577146650e+00,-5.677766020670368619e+00,1.024775850635085694e-01,5.601640804442797883e-01,1.662084270480710946e-01,5.975656801016208108e-01,-4.334174373336407426e-01,2.335651723314006389e+00,-8.001400406970688550e+00,-2.007622395223478406e+00,-5.805790828967188899e-01,-2.276724673623076622e+00,-1.911219609769404970e+00,-4.288867373183202214e-01,1.520529629983968345e+00,3.720227957931996343e-01,-1.950860469342354311e-02,5.462507176433908374e-01,2.854992043297520432e+00,6.357777888275195188e+00,3.895110249538457636e-01,3.603988478695986597e+00,3.307855565314134494e-01,-9.790649461784463048e-01,1.784342215742747317e+00,-1.399457036335772786e+00,2.447564361483924866e-01,9.198234313608643076e-01,1.949046622070696566e+00,-1.450473694077209164e+00,-5.982868401442876127e+00,-1.861866462099783237e-01,2.449583971915096470e+00,-3.683733504910811973e+00,2.077578524383532077e+00,1.844595202921085697e+00,-6.269153763675424651e-01,1.159492379244625671e+00,-5.420606969781255335e-02,-3.867672903557125785e+00,1.099423767322897483e+00,-4.575869125622168632e+00,-6.251257103338495602e-01,1.029089528238997520e-01,5.172579290147577558e-01,-4.996528244699834254e+00,
