-2.103654643111834144e+00,-1.287355009678398665e-01,-1.019533563240788698e+00,7.577144241662538970e-01,2.029135285323062199e+00,-1.303471360547489466e+00,-3.457030634339061770e+00,4.268223728096788072e+00,-2.086778978036290866e+00,5.477985388324515093e+00,-3.841926569301520322e-01,-1.717137208895857414e+00,-1.191543850673389526e+00,-8.870028138174955723e-01,7.463458698064355801e-01,1.354580243636299253e+00,1.650985207611363470e-01,1.768578819794904694e-02,7.475692691775746024e-01,-2.337194915742152879e-01,-1.362145913833564537e+00,-7.938349875121768484e-01,2.425497469238256265e+00,3.733318639886476498e-01,-4.185831200474479652e-01,-5.722008191298212365e-01,-2.290720126461680550e+00,-2.079257041392426952e+00,-5.286445275411304046e+00,-2.144916105942852536e+00,-2.438361560500037051e+00,1.021710205768193269e+00,-3.472719687895688412e-01,4.295424845672691783e-01,4.690949331158577040e-01,1.773589970380446301e+00,-1.168937167408175215e+00,-3.142493170287838367e-01,2.755999894001666117e+00,1.318469385558272533e+00,-1.070237789306017318e+00,-1.089824089712533722e-01,5.157949992734793820e-01,1.850227306436198704e+00,-3.072576445876936901e+00,-7.279391378314183092e-02,-1.888419847459809953e+00,2.194607268695638602e+00,4.724747900501161113e-01,8.076863302769263786e-01,7.756057699352341128e-01,-1.392451349496860669e+00,1.239397217482437696e+00,4.470805153554342493e-01,8.405956192723117226e+00,-1.530045076230007295e+00,-5.795926785259797320e-01,3.591074444369658503e-01,-1.234403633801823386e+00,-1.217141027198788278e-01,1.459545003488067261e+00,2.461687587162613600e+00,-4.253180983293790796e+00,5.128457197027130876e-01,-1.086435430959956427e+00,-3.446279042806067672e+00,-4.572327984816540458e-01,-1.162633581323530452e+00,2.257400067455149539e+00,-3.582768729010550324e-01,-2.083611811875874520e-01,4.396038744702699397e-01,2.284167839607226025e+00,7.099106109008332943e+00,2.832368348598867658e-01,2.999601930076023049e+00,2.510719896161349787e-02,-6.778457216693788145e-02,2.281476288174579814e-01,-9.691523147885291456e-01,-1.407197287154019705e+00,-2.602457606883106678e+00,2.686059093939886289e+00,-2.171079439792478194e+00,-2.574190668363282697e+00,-7.054960820340070438e-01,-1.687277931148515098e+00,-2.073075247352955230e+00,9.638709754980302469e-01,4.224574095354538539e-01,-7.469999623644679732e-01,-1.827044391902795661e+00,-8.230366397149742053e-01,1.108852772250465746e+00,7.754648117522358053e-01,-3.944569236599516859e+00,-1.180457439502883565e-01,-1.250454438913447319e+00,7.455349388000023225e-01,-5.733515440973942390e+00,
