-2.595941754814427238e+00,1.347823682151035429e+00,7.117941539186023459e-01,9.230988848412389203e-01,2.498632861019898233e+00,-1.837389405959499289e+00,-4.016477304259559844e+00,7.682796887115714846e+00,-1.330348190065717917e+00,-5.697863616161957800e-01,-6.032084283404435254e-01,4.356066607304451388e+00,-4.491836666577637693e-01,-1.221586097084149669e+00,8.696085979358374463e-01,2.578841810212537222e+00,6.521081843554821234e-01,-3.297914979517300171e+00,-1.298939642679411755e+00,-2.287996742052580412e-01,-1.731799727817003420e+00,-1.215144214746748386e+00,6.448320801866085361e+00,-2.153526269974369800e+00,2.514736777688155733e-01,-6.042016889866526075e-01,-2.786078133411909352e+00,-2.558817938927996583e+00,-6.500843608195782330e+00,-2.597997927476740632e+00,-3.154221007485490613e+00,1.729961022948275362e+00,1.343941266209885299e+00,8.576115863147866225e-01,3.958680442513343167e-01,3.156921645604158666e+00,-6.882787084839948832e+00,7.143536331920670168e-01,3.281752596280079093e+00,6.703699613295297510e-01,1.761048783020008113e+00,-1.882426191724590470e-01,-2.075267268692413847e+00,-1.789976005949335480e+00,-2.356820354113869254e+00,-3.632662974854922178e-01,-1.169972416293564077e+00,2.658523599106876301e+00,1.187844076089758394e+00,3.958246919152917653e-02,-6.752046430923468456e-01,-1.908628007587068076e+00,1.577752690309374151e+00,-1.041184764159520881e+00,9.165309750113438625e+00,-5.703219542522751873e+00,3.675128564473852111e-02,5.694751860150908396e-01,-5.143044809493548364e+00,-1.695194356976194694e+00,5.173905703099208608e-01,2.309982161559485103e+00,-8.022624597494846910e+00,-2.062092382168908417e-02,-7.769130006427107382e-01,-2.297906149377001217e+00,-1.927739509650055139e+00,-4.551577393172676067e-01,1.541837543593518323e+00,3.447459743081700001e-01,7.234582025058307053e-01,-8.938900132914220364e-01,2.776751990983728380e+00,6.378319819735595253e+00,-1.449288921505696770e+00,3.537809866792858582e+00,-1.114084395417049400e+00,-4.434770119889019035e+00,2.785661387555097068e+00,-1.277539901618671703e+00,1.386792930278291924e-01,6.418624695464947294e-01,1.970235917433971418e+00,7.546486654684516626e-01,-7.741687213428898318e+00,-3.009293313650462931e+00,-3.722926475063399465e-01,-3.923166088748080593e+00,1.255596875435055271e+00,1.566807073944080031e+00,-2.783555509001236938e+00,-5.876544775699408252e-01,-5.377901355178764387e-02,2.695809838196497221e+00,9.346767028020606105e-01,-4.519020738565385109e+00,4.797214005249630375e-01,-2.914473123405552091e-01,-2.524517455791433496e-01,-5.017738744252739025e+00,
