-2.543216218988557653e+00,4.246565645999565985e-01,-1.696876715092037635e+00,9.143171490056346551e-01,2.448856472998274025e+00,-1.780921570715523039e+00,-3.955749021012104460e+00,7.456202064262498652e+00,-1.415864853712829774e+00,-6.820795939597532609e-01,-1.196541811102499686e+00,1.493382513790419086e+00,-5.349152707869359036e-01,-1.187160508526980296e+00,1.986329262924778405e+00,2.574900113058887108e+00,1.615180571244517749e+00,-2.970367402449749714e-02,-8.866648866797151030e-01,-2.369758857068351710e-01,-1.694983854162777970e+00,1.130499408491478786e+00,6.497881290357414130e+00,-1.515326763965243018e+00,1.648416363161117892e-01,-6.185096074940790167e-01,-2.733561074631949417e+00,-2.508779205210644125e+00,-2.950429275760730885e+00,-2.549101081583975414e+00,-3.073288384275711493e+00,2.775616395181288887e+00,1.263135473581492363e+00,1.250434344316317059e+00,4.333546492013469198e-01,3.384110812542621360e+00,-1.483536014756873245e+00,-3.867454970828577143e-01,3.225620810089768753e+00,1.082410136478849427e+00,1.366048675361431375e+00,2.553916586791189935e+00,5.920989830322886949e-01,-5.500986613376673162e+00,-2.437731181759003274e+00,-8.270877761455482091e-02,-1.251077948946977880e+00,2.608408454624289607e+00,8.222094805823496610e-01,1.327172775326626031e-01,1.930476543057254302e-01,-1.851699277435098878e+00,1.544751706554551296e+00,-3.819198397135651901e-01,9.242214526363820681e+00,-5.781731408466935562e+00,-1.966012344150590285e-02,6.564010186150373016e-01,-3.051972845644939536e+00,-1.141034347719162678e+00,-8.848229931428321926e-01,2.233262203830968406e+00,-8.103534083362470497e+00,-1.219525993275017761e+00,-1.043528297551881590e+00,-2.378839373877683627e+00,-2.010858830705027689e+00,-5.323893660133262040e-01,1.622700407600286443e+00,2.672797720268380584e-01,3.402984651726071452e-01,1.563248646281890863e+00,2.724722215337967768e+00,6.459432760817856334e+00,-1.590723933768660447e-01,3.479531064066376356e+00,1.350292934032311098e+00,1.406217314590420308e-03,-1.789933626585793913e+00,-1.246838042846338590e+00,8.824513784694651974e-01,8.177431349096435653e-01,2.051164773913830341e+00,-9.641101494265906791e-01,-7.463866243971200021e+00,-1.716707895814178764e-01,-2.550327275867495302e+00,-4.052476753329726122e+00,1.855812704699074445e+00,-1.463709050976292225e+00,1.928089874443137189e-02,-8.326248241504510261e-01,-1.475309017799189271e-01,-2.796562741182825995e+00,9.269098046567887383e-01,-4.455993303859380639e+00,3.694881416124634610e-01,-2.109974778025951458e+00,1.329968839493287369e+00,-5.098655864107813684e+00,
