-2.463335794673717327e+00,1.649966745464495510e+00,1.281578666625974527e+00,8.402929885974881330e-01,2.369362086269243051e+00,-1.700530992208460601e+00,-3.874757945925686897e+00,7.341787605495720292e+00,-1.500201479311983555e+00,-7.675988852080001257e-01,-1.189495156833601630e+00,5.249540828878982435e-01,-6.191158972623532764e-01,-1.109796552524331403e+00,1.370589262092098526e+00,2.060579070522740253e+00,1.185402580057913546e+00,-2.186168863210374180e+00,-4.048345986142658504e-01,-1.652791970253824350e-01,-1.617228222288956019e+00,8.056921801255888527e-01,5.885319328469960531e+00,-2.354805324079847662e+00,2.710112142406003066e+00,-5.473950095908503011e-01,-2.653683517876221920e+00,-2.429226206287419032e+00,-1.636371848334159385e+00,-2.469722290234645623e+00,-2.989579744272695017e+00,1.052907839839297921e+00,1.428587199503576599e+00,-2.043906040782723088e-01,3.650100325273715751e-01,2.472326402598523654e+00,-8.887954696622237805e-01,1.397975438020740313e+00,3.145245117987749861e+00,7.561088754197067274e-01,9.734689531014248942e-01,1.754618780278822121e-01,-2.300448534130551170e+00,-5.660450861060877692e+00,-2.521436644665776328e+00,6.603800266657556817e-01,-1.334818743811563735e+00,2.528866441493877737e+00,1.063680698001131297e+00,2.175437045088349231e-01,-1.055779446322733933e-01,-1.771269611483742734e+00,1.467511110286449760e+00,-3.267711763698117333e-01,9.325456436601776034e+00,-5.865160918819474212e+00,-1.004187903001659971e-01,7.407741540891848997e-01,-1.219412435149088925e+00,-1.582385398394349441e+00,-2.493032980502720153e-01,2.149861327043354198e+00,-8.187239426369043116e+00,-7.307314314143296963e-03,-5.828960341181486093e-01,-2.462547476995450957e+00,-2.094828071553037407e+00,-6.157645987544237975e-01,1.706400266485415429e+00,1.839747673764603464e-01,3.819892537009789146e-01,1.201977980235900301e+00,2.644903495224943502e+00,6.543187577612008532e+00,-2.096236058153297388e-01,3.398878749564759882e+00,-7.078924683638802839e-02,-3.001776257245463708e-01,-1.234907080647757449e-01,-1.169952955425336061e+00,-1.247781920827887081e+00,6.466092608523789087e-01,2.134872416502668457e+00,-1.217382610031864321e+00,-7.055184350063565368e+00,-6.214444802354476827e-02,-1.991309989544757020e+00,-3.940541077382354818e+00,2.467747484869779573e+00,-8.544354698680989291e-01,1.140646122115471339e+00,1.196916359686529319e+00,-2.323935257290937195e-01,2.976483226035727903e+00,8.529924766358332189e-01,-4.374701697005860979e+00,1.546731496882677859e-01,-1.897451284427933871e+00,8.644515761576585522e-01,-5.182362112047756320e+00,
