-2.701686378429788871e+00,4.371268563050768607e-01,2.154072253561329475e+00,1.050543770540955935e+00,2.605882413983594326e+00,-1.941237398449954910e+00,-4.118430923902707264e+00,7.733797711972187905e+00,-1.240348510959790485e+00,-4.945692974855676605e-01,-2.319535178836121592e+00,1.274040763560231604e-01,-3.595254019474814489e-01,-1.336048734667774074e+00,-5.973767159044642699e-02,2.586689765710505462e+00,1.954741356710061995e+00,-9.516971090068192529e-01,-1.262223817479059429e+00,-3.641717791306561813e-01,-1.845417953731203209e+00,-1.398428636339224207e+00,6.005150140726319918e+00,-2.092270223357452164e+00,6.910992617713279662e-01,-7.434016603372436416e-01,-2.892029902856738222e+00,-2.666009975993842041e+00,-7.232048733692308495e+00,-2.705716727833357815e+00,-3.246264631672143963e+00,2.622107531270278624e+00,3.945961533031629997e-01,-4.899254694874477511e-01,5.473064686655837452e-01,3.351312757039553780e+00,-7.588358302356225771e+00,-1.340255979060337443e+00,3.385986862471257464e+00,4.435745766118739941e-02,1.281752041639368178e+00,-2.234965205885426354e+00,2.236849333019902630e+00,-2.217683976545332225e+00,-2.264765192175869579e+00,6.330689567931965245e-01,-1.077925024119263941e+00,2.765652526993034765e+00,1.095651726722124630e+00,-4.607576892951591868e-02,-7.370351548046892853e-01,-2.012225434452733719e+00,1.693244098432679090e+00,1.386130973120003052e-01,9.071226909024463936e+00,-5.609916564141501638e+00,1.412636403397039553e-01,4.803186653377149451e-01,2.568498656235189692e+00,-1.270787893875518382e+00,1.248707516866830458e+00,2.404665189794534808e+00,-7.930568593067727434e+00,1.337041581347025165e-01,-1.764462182792623457e+00,-2.205862665163445868e+00,-1.836721761712425627e+00,-3.608949907856826012e-01,1.449757633620454511e+00,4.385895188096605168e-01,3.535835620912722299e-01,3.298073807043537364e+00,2.882957355063297644e+00,6.286292291865248849e+00,-4.751257237556916202e-01,3.640931651730941354e+00,-2.164180029413904083e-01,-1.701179063157463256e+00,-3.425468574754826356e-01,-1.393902669274592609e+00,-9.575411736025728482e-01,1.851818442904831441e+00,1.878189874409737614e+00,1.630095202482479744e+00,-6.960299421018531163e+00,1.573757770054952099e+00,-1.587154577161798086e+00,-4.179995454249628040e+00,1.940625310017105365e+00,1.936433404504107392e+00,2.338517007094397027e+00,-7.234811633946987008e-01,3.152880243586447806e-02,-3.572649282462863063e-01,1.062713326196984998e+00,-4.619822957163171928e+00,5.346257459938666967e-01,5.709117554191442956e-01,-7.875630869974156179e-01,-4.925686665418821164e+00,
