-2.649642006211141876e+00,1.427803485308675624e+00,1.631838841617977431e+00,1.070353113972124293e+00,2.558173518546558167e+00,-1.883301328667217112e+00,-4.051661324054081526e+00,7.393819272966129397e+00,-1.349176155746530048e+00,-6.290227309169484915e-01,1.336020526053179225e+00,-7.092661961191890629e-01,-4.671912275454581653e-01,-1.316562476858964992e+00,1.097292357253693673e+00,2.705082757068080657e+00,2.031986022695229543e+00,1.877456646362902104e+00,-2.930994083270314743e+00,-4.178432366774188500e-01,-1.818932197124878192e+00,2.618571675863937687e-01,5.138804129298347512e+00,-2.882496505425100164e+00,1.195248691128626639e+00,-7.968058531850398252e-01,-2.839247119580714518e+00,-2.617031290493533113e+00,-5.913905402505262643e+00,-2.658700004285447616e+00,-3.145820870539302927e+00,4.564919592643684187e-01,-2.392114187196493713e+00,-3.440869182529668335e-01,6.305318508054904569e-01,2.208263508592221758e+00,-5.733400535866691961e+00,6.066973216104760702e-01,3.326717888085555686e+00,8.916775601646058647e-01,-1.971973020991178438e-01,7.646758587520798012e-02,1.585490158845871411e+00,9.670843077622843786e-01,-2.365169812727745846e+00,-2.417692866990735823e+00,-1.179081931219835955e+00,2.716939907152219558e+00,7.676865077373422608e-01,7.032620515909367154e-02,-8.504290432436587555e-01,-1.954153841419729476e+00,1.673204082018750594e+00,4.462397798811755245e-01,9.028408770802171190e+00,-5.707037606314381506e+00,7.636500693397539619e-02,5.912356428518843465e-01,1.419845270225968514e+00,4.569329368824400633e-02,-6.887270861915621989e-01,2.305718783541466532e+00,-8.030970308679208358e+00,1.711687835704223781e+00,-1.287308495135752295e+00,-2.306297868505684523e+00,-1.941520509313843013e+00,-4.584282988126534009e-01,1.550093267665781926e+00,3.428869065276514139e-01,-2.986719497750046567e-02,-1.501787903637159305e+00,2.830588073347243938e+00,6.387457147589942430e+00,-3.337576055430549471e-01,3.578550461951670592e+00,6.352771565320933789e-01,9.728619828385591528e-02,-5.909796029487859315e-01,-1.379797606659576958e+00,-3.318415882493855329e-01,2.232286610367458568e+00,1.978619084056352229e+00,-8.846393386787160251e-01,-5.722653060391032831e+00,-1.499307365204613773e-01,2.523924099953755995e+00,-2.296514849356939614e+00,1.810446822488952723e+00,2.204691361452370657e+00,-4.930163035097007151e-01,-4.335095012150483873e-01,-8.555698317538233677e-02,-3.629616317149609639e+00,1.082714743421384629e+00,-4.549570663088082334e+00,9.147374638068261898e-01,4.288262040813428100e-01,-1.108260778508710853e+00,-5.026099145985901906e+00,
