-5.528123520837006311e+00,-1.826872387450231061e+00,-2.941888390850132318e+00,2.357383338368428394e-01,-2.486696874310207583e+00,-1.167149873164995855e+00,
-1.386141105478577273e+01,-5.733911532453099813e-01,-1.931736279960789204e+01,-1.610927323480485285e+01,-1.940500889162354170e+01,4.896175095491003759e+01,
3.054886997852541697e+00,1.461855831101053216e+00,3.294848206038774041e+00,2.635658937035085803e+00,8.550770139914867229e+00,-1.642210159141977499e+01,
3.628178990925944092e+00,2.295353133679497670e+00,5.707533812473953860e-01,3.434842700775088797e+00,1.344493481798221923e+00,1.283269175825396236e+00,
2.530443885281091543e+00,4.060403095388119610e+00,2.306222590436638686e+00,1.307202046307770260e+00,1.721659128314359632e+00,1.607790717911795175e+00,
-6.147033840072186894e-01,-1.880243267660191009e+00,1.564653433377478919e-01,-5.795001763578888632e-01,-8.236515784295455944e+00,-4.297180157314747895e+00,
-3.675590973278446860e+00,-2.628276626790274850e+00,-9.352859506008438517e-01,-3.013105918482303913e+00,-1.529638133358599994e+00,-2.438303110287969755e+00,
1.792474468276682487e+01,3.044214325892857342e+00,-2.406722262289629377e+00,-1.498019282285085474e+01,5.268482141528221696e+00,5.155611261374883725e+01,
5.644371677503526641e+00,5.444578630278652298e+00,7.239876628266968872e+00,3.043693292951541896e+00,-9.899546855120998634e-01,3.248296480118224583e+00,
1.506618549386553951e+01,-5.714983833169593019e+00,-2.449574031989726119e+00,-6.313663982998545698e+00,7.130959171511447536e+00,4.007766357580207028e+01,
4.779304477862701184e+00,2.874281428887441425e+00,4.330854210251787961e+00,5.517266035599799778e+00,5.572055966993956666e+00,-2.303957378535334222e+00,
2.005401168697577319e+01,2.057381731375052780e+01,2.746737832743313490e+01,2.464322966555231886e+01,7.120197763626464393e+00,-5.175005712414922243e+01,
9.565445426575776011e+00,4.850394707516062276e+00,1.228228193140436275e+01,1.236882593871862035e+01,3.315378124949125205e+00,-4.078807255358282369e+00,
-1.000112739113421245e+00,2.775081995276107785e-02,-1.374605762162561362e+00,-1.023003169709591598e+00,-5.776729232096925237e+00,-4.228798337721070055e+00,
2.744557376292262418e+01,9.361924257188916632e-02,-2.741974756687238557e+00,-4.189861143068587701e+00,-4.601943851193298940e+01,4.700381846649811735e+01,
2.063497777795700472e+01,2.040188043726159606e+01,2.342190585524853930e+01,1.924222598630076675e+01,-6.524135187290759141e+00,-2.641650194376106242e+01,
-3.783664026831076654e+01,-8.533599190043172911e+00,-3.385919701528321468e+01,-1.234109431828546377e+01,5.195907221977562074e+01,6.678867448555570263e+01,
1.897613908197955368e+01,2.493104510563989962e+01,1.403700985848825944e+01,1.673368815845083901e+01,2.600436360430831151e+00,-5.591328877730104097e+01,
1.110072879626711995e+01,1.807472120460065668e+01,1.021691364880779851e+01,9.860051075802180875e+00,2.123438320329081463e+01,-4.315635609255987504e+01,
-9.864191370643876633e-01,-1.009688773099454373e+00,-3.911938196997780670e-01,-1.135257659421906595e+00,-9.251547493300874336e+00,-2.315936900936887088e+00,
-1.246423641664010873e+00,-1.876659693581079758e+00,-3.581368818683841049e+00,-2.098439207796291228e+00,-1.919014214618921077e+00,-2.309783867518671485e+00,
1.593855540672739757e+01,1.851250300908252910e+01,1.701758767290824181e+01,2.524573623372724640e+01,7.451265288466052183e+00,-1.487120604919684652e+01,
-2.145578325090385619e+01,-1.372523876837596646e+01,-1.461658774841311015e+01,-1.247887512207323724e+01,7.285799670213565449e+00,3.927841274995867771e+00,
1.839260423710989301e+01,5.006878300784681102e+01,7.239608007181883131e+00,1.443208270446524466e+01,6.757202141954107510e+00,-6.128251678719672668e+01,
2.283926368915984639e+01,3.609647570099722458e+01,1.894923560825478503e+01,5.748958567085188598e+00,-3.436320825375390076e+00,-5.143984120729766119e+01,
-2.434730724236630284e+00,-1.696497833203997274e+00,-3.280360825582455231e+00,-1.198895279161091842e+00,-1.493378556447019223e+00,-2.155807887527108946e+00,
-1.968132365662942806e+00,-1.723088740486431236e+00,-3.023252702915630419e+00,-3.536948732541885132e+00,-1.528444528417514325e+00,-1.961773183281363409e+00,
-3.090098748414226382e+00,-1.935472284678853683e+00,-2.372956962189941787e+00,-2.426455631412157476e+00,-1.561631436244242499e+00,-2.271982760276310742e+00,
5.684127457152668761e+00,-2.159887858491505164e-01,5.072657348787780407e+00,7.108668916153778383e+00,1.653192396209618886e+00,-1.145270970967708912e+00,
-1.987795596351954464e+00,-2.605808699654752925e+00,-1.468833078822063598e+00,-1.577962158641857515e+00,-2.234203801769834907e+00,-3.357528687395608280e+00,
-1.474017854848281628e+00,-2.707460016369106270e+00,5.514156962153488273e+00,-1.079474958899367998e+01,-1.344681732266927732e+01,-2.505961576134335900e+01,
8.170243619172028460e+00,3.516953371138797024e+01,2.224991495406337094e+01,3.531707164450864411e+01,-2.996990286049182384e+00,-5.240581680512421769e+01,
6.858274929055287572e+00,3.535320181427849207e+00,7.631227496677972510e+00,8.774360780593376319e+00,2.180902426940408922e+00,-2.583245659026199181e+00,
-5.249970786015442314e+00,-4.168380984614237228e+00,-5.723196526831811681e+00,-6.740303618448029610e+00,-2.206295668031466484e+00,2.036429006239369510e+00,
1.372136952251371778e+00,2.312667444129441918e+00,1.180209163460943733e+00,3.473805524144205847e+00,1.201675801237494179e+00,2.669838123103577043e+00,
-2.549716701471485791e+01,-2.627096395888317915e+01,-2.964814415622168653e+01,-2.849632176425807728e+01,2.953578047287783548e+01,1.466097351242352298e+00,
1.572488310823355029e+01,1.009361779231939771e+01,9.925400776788672275e+00,6.139966211833335130e+00,1.827482139829040619e+01,-4.340106871957269163e+01,
1.498456836290922745e+01,1.624652514806590631e+01,7.513585690481447088e+00,9.783437070688542292e+00,1.095479686957598986e+01,-4.485555209613048788e+01,
2.459373029557222701e+00,2.735422505353000133e+00,2.920354412590202564e+00,2.842642030091597771e+00,1.005413126649945532e+00,2.149700799967883658e+00,
2.864513121200339896e+01,7.924721644670368548e+00,1.856326413969067346e+01,2.639428063728663432e+01,2.734769026590863739e+00,-1.352049380918846744e+01,
1.674985829980428775e+01,1.415793929901297155e+01,1.922223997876444557e+01,2.099227418571067005e+01,-8.483703214912766910e+00,-4.552385747524244408e+00,
6.167125177711287876e+00,6.765870786139747572e+00,6.862487322535087308e+00,7.662408059921464343e+00,7.226072416918796648e+00,-3.842729936431475313e+00,
5.974481454277097647e+00,-3.973040255899693562e+01,-4.277012795177236626e+01,-2.294934758740010849e+01,-2.195812347609067849e+00,7.460536055985024007e+01,
2.402497523730792039e+01,2.283004936217242786e+01,1.995550441051270241e+01,1.997811525872032590e+01,2.064617978691190814e+01,-5.755884090022184552e+01,
3.983882928960694958e+00,1.560382557262566650e+01,3.754571630455765252e+00,6.557647325999562682e+00,5.418116304146503026e+00,-2.354214459363511036e+00,
1.197482589658834229e+01,-1.137929839010044963e+00,1.152933669290491991e+01,-2.440861514810766764e+01,1.255314033858499378e+01,-6.875703438479054341e+01,
-1.218252220037765454e+00,3.463679263685101262e+00,1.733536862682528490e+00,5.037943137351266198e-01,5.891826321549802792e+00,1.177524077941407654e+01,
3.064432278308331092e+00,2.483358021295249962e+00,1.990652891019053294e+00,2.473187669739553840e+00,1.354859742206516504e+00,2.132665337637293046e+00,
-1.605162254872819005e+01,-1.364216120667983390e+01,-1.523618594737622978e+01,-9.439368511964321584e+00,3.391655679646006405e+01,-1.514915164477832832e+01,
-6.684026803583869913e+00,-1.436534558218806934e+00,-5.693688968694112340e+00,-7.272461178503449197e+00,-1.547581469594842440e+00,1.761639762018541555e+00,
2.426144225467521665e+01,7.975422379925507954e+00,1.729583576215170737e+01,2.677391613365188761e+01,5.393643303279671564e+00,-1.366910888621574571e+01,
-2.027770773641852209e+00,-1.888258108707213667e+00,6.497217939668530340e-01,-9.575973169507526750e-01,-8.607767826284600687e+00,-2.896472403042973376e+00,
2.392516195145482527e+00,3.625160174622012121e+00,2.393928678173673497e+00,8.061643683136214822e-01,1.719460148420635992e+00,1.998951924265968572e+00,
6.802920432731201394e+00,-7.872075023694299345e-01,1.391077480028633317e+01,1.333315019922240729e+01,1.421541684571956843e+01,-4.360945547782806386e+01,
-3.276281825033922956e+00,6.803466442960470761e-01,-4.346613957633313596e+00,-8.124290365853434892e+00,-6.030009058672295197e+00,3.557625382827395155e-01,
-5.237979640202612419e-01,1.934749754677331790e+00,1.782884053730063201e+00,4.487706289495466017e+00,3.131226646068626440e+00,1.299982000678547855e+00,
2.889369274858515357e+00,1.250269884789976693e+00,-4.752104422612157264e-01,-2.343220644579781797e-01,7.242556304557475677e+00,5.610751471343127683e+00,
-1.235390168498808627e+01,-5.790415507139945461e+00,-1.165948740370879300e+01,-1.599926340043920803e+01,-6.808345635800269191e-01,1.465877914301748852e+01,
1.975622765695192484e+01,1.727487875850757248e+01,1.995302809114158649e+01,2.167682246181348305e+01,1.848779906423019703e+00,-1.279043028427663842e+01,
-7.421875598045948763e+00,3.001126991339149086e+01,2.101081165703078213e+01,1.907673788851957752e+01,3.910339155265466715e+00,-5.781110671257717826e+01,
-2.356300954908572365e+01,-1.017623188791088040e+01,-1.902507656281706261e+01,-2.181992863368706637e+01,-4.590781395859111491e+00,1.357567179819762160e+01,
1.064441031724760345e+00,-1.224721244813350013e-01,-6.523495037563715737e-01,3.845184114293951794e+00,2.909087031677037416e+00,1.131105543973636784e+01,
2.049477869114076256e+00,9.018452234581852522e+00,6.701759032472783817e-01,3.423296034277854560e-01,2.047803123042638340e+00,1.209855419010490846e-01,
-2.292174809679089975e+01,-1.888222331822754541e+01,-1.635003523883673537e+01,-1.866079536324518173e+01,-2.405922300652937995e+00,3.692775624319041583e+01,
7.715734264467410064e+00,3.640806038392782540e+01,4.217807172029120011e+01,4.071448128747073980e+01,-4.000938888809037763e+01,-9.920427333659896263e+00,
-2.651754460498410904e+00,1.402253159568842733e+01,8.129942396238513780e+00,7.313515933965626381e+00,3.566046183519673285e+00,3.724020297223460840e+00,
1.513975624963798872e+01,1.764871473652728895e+01,1.937620460879323758e+01,2.245792034174733232e+01,1.479161820972852048e+01,-1.776419386418177382e+01,
-7.332589416496260171e-01,2.776327936370506233e+00,2.707853849685980308e+00,1.140238908238594195e+00,3.065882681769765750e+00,1.099891869442840253e+01,
-2.331007260979453211e+00,-7.813331201032462481e+00,1.142360576657263760e+00,-2.260830926947209607e-01,-1.032261229813754611e+01,-5.092820841044226832e+00,
3.177056675523636020e+00,2.812883633364882563e+00,8.499290286593812471e-01,-1.551392611130405053e+00,5.683758968140677936e+00,7.380423454362172286e+00,
-2.227452400958972678e+00,-4.119717592725017141e+00,-2.270489753179452563e+00,-2.148151710000210102e-01,-1.134044776010947553e+00,-1.752461541853625793e+00,
-1.940832993318075950e+01,-1.076163902688121610e+01,-2.701196353331873823e+01,-1.611844885770100788e+01,-1.446203768405862178e+01,7.213964377890491164e+01,
2.157059293466935035e+00,2.246625144669186280e+00,2.020937286654159948e+00,2.115114102375422078e+00,2.077816708243567234e+00,2.988190706701437271e+00,
2.081013811277268921e+00,-6.457278938995526296e+00,-3.064904686389724464e+00,-1.624555131893366422e+01,-5.404012301938543317e+00,-7.918493997737040324e+00,
-1.335843882197716503e+01,-6.947879738214848722e+00,-1.373502800534635249e+01,-1.328532224186067978e+01,-1.110337615385254395e+01,3.959980168199392381e+01,
2.019194573347968813e+00,2.515236181673468074e+00,2.680658752048826976e+00,2.625837285738410909e+00,1.826027240625617498e+00,2.288746822700193029e+00,
3.471458097554567246e+00,3.066151574299624372e+00,4.494604436205186460e+00,3.694245906213693864e+00,-2.703749322314712988e-01,6.972117373762762860e-01,
-5.189234383969203002e+00,-2.466462762775707862e+00,-3.966057251172738329e+00,-3.348666941820076737e+00,-1.077700459865543259e+01,4.504143035635422621e+00,
-2.968148158698084416e+01,-1.228116975746327455e+01,-2.456783585101826972e+01,-2.832201410527818197e+01,-7.504446079520323387e+00,6.208867856888513614e+01,
-3.115988954573830627e-01,-1.690378772867753954e+00,-1.424846180665119144e+00,-1.705140709121311327e+00,-4.308492576566918864e+00,-3.499318945864180019e+00,
-1.817299788334763733e+01,-1.829793275356251359e+00,-1.803492989526904466e+01,-1.597818835569309570e+01,-1.461216537906816271e+01,4.758311844925981404e+01,
-2.474806713072513986e+01,-6.617024805332352155e-01,-1.584118155244143544e+01,-2.411576542410812962e+01,-1.089617306200112523e+01,2.341822808824249336e+01,
-3.243043999975859126e+00,-9.888555569666570122e+00,6.964723590023924604e-01,4.844387877722912683e-01,-1.563836922382115802e+01,-4.591803206035447893e+00,
2.018731478633923260e+01,1.284674290273833641e+01,9.553331661037491429e+00,4.766444801809374354e+00,1.670189999195597963e+01,-1.424366290858270929e+02,
2.412717735864645263e+01,1.318143383647325528e+01,1.595430651763207131e+01,1.697016279362698654e+01,-8.294948773623305627e+00,-4.414103884241000308e+00,
-5.733378411137841191e+00,-4.749531314875477861e+00,-4.421380706996039578e+00,-7.551717483051763935e+00,-5.018616087653337665e+00,2.849319056899491276e+00,
1.138328344536997072e+01,8.599675897088328469e+00,2.074298173339298756e+01,1.090265684271512292e+01,1.794692238091300496e+01,-5.054815060222082934e+01,
2.865865047281904410e+01,2.492614331902854374e+01,2.782038929637629465e+01,3.079898811890313937e+01,-2.060648220888685245e+01,-4.915450105544541870e+00,
-7.320298942089705996e+00,6.230249085289138122e+00,2.796416662986425905e+01,3.323359374203921135e+01,7.708734129049834571e+00,-5.274237514873998833e+01,
2.916282680605558397e+01,3.788414025970417764e+00,2.733695838172971548e+01,-2.058292812545001382e+01,3.311644311597308654e+00,-3.070971693342608688e+01,
1.459046203631957361e+01,1.384707748992111576e+01,1.790202756397035699e+01,1.410786177200904135e+01,2.667508786788744590e+00,-4.376987846149386741e+01,
2.017367617391496726e+00,7.685288110998002020e-01,3.072630663146810104e+00,-4.939149956747713732e-01,4.444448961128849573e-01,-1.652198831191235284e-01,
1.261752472957881110e+01,6.194256023157179492e+00,1.616714499758142054e+01,2.045470351312670942e+01,4.151024816787315608e+00,-6.084032228837973122e+00,
-1.966495300021301418e+01,-1.005373558445904614e+01,-6.176195276258980016e+00,-1.287132329597903535e+01,7.938601764048186737e+00,9.968478526634415005e+01,
1.874541154420242162e+00,3.181424618231821988e+00,1.771740698113293044e+00,1.715766355132452681e+00,1.632731124182376758e+00,2.270128667306478221e+00,
-2.848796902432461753e+00,-2.217144304010512990e+00,-3.063531577190104382e+00,-3.340694096217464715e+00,-1.295579563421181968e+00,-1.605266086156823535e+00,
4.946615662347922715e+00,4.514694345311313306e+00,3.549287464246034141e+00,5.883819218515342619e+00,1.160294432703763334e+01,-3.848629735672366436e+00,
-3.452703912740630598e-01,3.367996244722741839e+00,1.088159514887201640e+00,6.496613552812586789e+00,1.793966562003222576e+00,1.498222022640690820e+00,
1.385533895735433729e+00,1.262416284771252606e+01,2.102528262666224279e+01,1.845940848442997506e+01,1.128849342606776496e+01,-4.672815551165713543e+01,
2.685485432748542234e+00,1.473643446542679669e+01,7.781961513405952768e-01,3.134578317180443552e+00,6.663100732990064223e+00,-5.364502869066214430e-01,
