-5.845569909101491213e+00,-2.144210889754678995e+00,-3.259095900786985744e+00,-7.965593989058956936e-02,-2.781672693570108379e+00,-1.525732689844270240e+00,
-2.199060675289628364e+01,-3.703371363548647821e+01,-1.662185200516466566e+01,-2.490356181359225474e+01,-1.848678114771321646e+01,1.494536336966045553e+02,
3.020728183933618638e+01,2.183562888781928635e+01,2.885676858871109829e+01,5.938911541051934506e+01,7.731749498876172133e+00,-2.797042429146867093e+01,
3.937790313886311733e+00,2.605381357337746007e+00,8.807639194504325308e-01,3.743280185994255049e+00,1.705368944933286279e+00,1.599310409192107763e+00,
2.855264855525056600e+00,4.385528854726315373e+00,2.631297320439665022e+00,1.630684894223071391e+00,2.090063737037770153e+00,1.942530422960363934e+00,
-8.507737529265196885e-01,-2.113918732063809980e+00,-7.783487626601787168e-02,-8.129889713693950748e-01,-8.355245186499592691e+00,-4.573629371997014026e+00,
-3.994566535012811670e+00,-2.947979387556628250e+00,-1.255030000240753951e+00,-3.331573775726757614e+00,-1.947502718741777272e+00,-2.743205083659830734e+00,
2.021797556928737194e+01,4.249180580151430853e+00,-1.581290839400184334e+00,-1.421854885051476103e+01,7.006374261190808639e+00,5.106808204223390391e+01,
5.682596480237691594e+00,5.476134410917220308e+00,7.271236578536730555e+00,3.075040953184102754e+00,-7.435954812413592130e-01,3.267074902403635850e+00,
1.682436563841170241e+01,-5.629853895098516636e-01,8.424146263347270791e-01,-5.561347065835589021e+00,4.779915702520453280e+00,4.114400281038709295e+01,
1.443388231218535012e+01,7.150377627623612398e+00,1.489742807852396211e+01,4.393498800318212716e+01,-6.807320391534543713e-01,-1.995323606182260789e+01,
3.444718660418059386e+01,3.439810678708013114e+01,4.178869339177428088e+01,4.474062317327205562e+01,2.145790578185217612e+01,-3.015653410295139736e+01,
9.579528877269680720e+00,4.864770213068687177e+00,1.229560584801896894e+01,1.238353534101232789e+01,3.344083303599711954e+00,-3.948639357662381499e+00,
-1.305901916938043694e+00,-2.762550265652644055e-01,-1.677924964097731175e+00,-1.324939607115552587e+00,-5.973528560197592263e+00,-4.584166359685574399e+00,
5.655391407865393205e+01,3.987889406209529586e+00,-1.893784525894189441e+00,-4.172676600007649839e+00,-8.272253071342755959e+01,7.920019308685421322e+01,
3.628211918964606042e+01,3.627809447632517248e+01,4.043488894619886764e+01,2.247438765227237667e+01,-4.531131382644164596e+00,-6.777899446074695788e+01,
-6.663673716137162728e+01,-1.948207434564909235e+01,-5.495621413729625715e+01,-1.512684061132345015e+01,9.337154763545491676e+01,1.005152272251374796e+02,
3.501749388584281064e+01,2.606243108118560059e+01,3.387680437036114256e+01,3.634878037384243044e+01,8.726386204693135085e+00,-7.455108079248572039e+01,
2.005452494079936798e+01,6.660060539654406853e+01,-1.343240662282009446e+01,1.232325910968040361e+01,4.584937656965880848e+01,-5.442868686720988336e+01,
-1.231346766655824432e+00,-1.254186677198467326e+00,-6.353856591644110319e-01,-1.378966577500873480e+00,-9.342146520385218977e+00,-2.635653105025168585e+00,
-1.570423986411011663e+00,-2.200844515407243573e+00,-3.905450404815333787e+00,-2.421018177212622913e+00,-2.286827190313529545e+00,-2.641201939304656410e+00,
2.399955856456201531e+01,2.664076319293209139e+01,2.670252175831051744e+01,3.544241821090420785e+01,1.278644480002983386e+01,-3.458582493219553555e+01,
-3.960264341870575322e+01,-2.623582452753170813e+01,-2.760987799357294747e+01,-2.403545917045904901e+01,1.392798921003566015e+01,5.703629905231037966e+00,
5.169260632629779906e+01,6.897662291646582844e+01,1.671934222847415796e+01,4.034065312832299099e+01,-1.399612756847221107e+01,-9.344675641117754594e+01,
4.132981292277896301e+01,5.155026151766494991e+01,2.958553804786001251e+01,5.341564106352563179e+00,6.896706978022869583e-01,-9.982746146718311309e+01,
-2.727817500822245833e+00,-1.989994140851978788e+00,-3.573829909540706229e+00,-1.491232444857619077e+00,-1.853724318118950665e+00,-2.445349830829321114e+00,
-2.286220235608686924e+00,-2.041755709494422089e+00,-3.341918133240893596e+00,-3.854174075836009905e+00,-1.919214392464393848e+00,-2.276277313789077272e+00,
-3.402363424571103412e+00,-2.248305542885643327e+00,-2.685795074040498331e+00,-2.737994456655364228e+00,-1.955639051375201110e+00,-2.576551626471575762e+00,
5.696728869887377478e+00,-2.794505333575055595e+00,4.780500900218749294e+00,6.755929887870414596e+00,1.459305068546903783e+00,-9.329540416548575132e-01,
-2.340122169110917305e+00,-2.958237856410083300e+00,-1.821089491695117912e+00,-1.928675230078720437e+00,-2.644915460486181757e+00,-3.716147465375148951e+00,
-1.473061493357794349e+00,-2.706502422099835492e+00,5.515114572746717236e+00,-1.079474612875823070e+01,-1.344668153568196622e+01,-2.505958509934951195e+01,
5.578190028341391660e+00,4.808376961389011228e+01,2.371600851550324052e+01,5.338764121430308762e+01,5.056744632101700665e-01,-1.039907561439562187e+02,
1.863386288302632110e+01,9.016857979373327225e+00,1.802649030375545536e+01,4.084294181758202313e+01,8.121588312548540856e+00,-1.726866324881285308e+01,
-1.198796676008758588e+01,-1.058949898445583315e+01,-1.579113575386908330e+01,-1.919732703464367063e+01,-1.813023568175329725e+00,3.534652378108457782e+01,
1.644652525491579587e+00,2.586139541374675055e+00,1.453735236193598901e+00,3.746564987955588233e+00,1.580801844363765474e+00,2.922555267297694659e+00,
-4.049986975004290457e+01,-4.472113510026001393e+01,-4.499363535681721515e+01,-4.672602964380683943e+01,4.719442007253461213e+01,2.538824877066757413e+00,
4.076066334784989920e+00,8.162680353189847082e+00,-1.698384686714165426e+01,-1.364822090318509851e+01,3.484372691764104246e+01,-1.633367329248272029e+02,
2.623919329840932946e+01,3.497183215637071640e+01,2.355442412912988814e+01,1.081033042447073100e+01,2.321965411670782231e+01,-8.093442454579356138e+01,
2.773345734085578052e+00,3.050870002203006859e+00,3.235957182351416161e+00,3.157214872178809806e+00,1.442675638422857398e+00,2.434737223872241341e+00,
1.537214114438532775e+01,1.535196059013535930e+01,1.162786149019227366e+01,3.973722248403010582e+01,7.394682610516138510e+00,-6.917892862923906705e+01,
3.445018058063574529e+01,2.864614171539580667e+01,3.303644086491566867e+01,3.198849214056815526e+01,-1.911899755305002557e+01,-3.267039411063247911e+01,
1.129016322057643862e+01,2.751322002576583614e+01,2.671077258749448191e+01,3.211993580010478411e+01,2.732445249279825106e+01,-7.676685199832893147e+01,
6.664361702848931479e+00,-5.680949638396872814e+01,-5.088641561105355038e+01,-5.025206933481722871e+01,-3.588219576867231808e+01,1.010768517410968883e+02,
6.577012345389448456e+00,-9.558674011503580203e+00,7.946870221234716425e+00,-3.195622571362622288e+00,2.601215304164095699e+01,-1.125850150567079879e+02,
3.983700555024185519e+00,1.560382013939435986e+01,3.754383765315132404e+00,6.557459479392520052e+00,5.417764811511673884e+00,-2.355340835820617595e+00,
2.278343658127130666e+01,2.024757655756166841e+01,2.934490275071355114e+01,3.546163379423741446e+01,1.679728310170473549e+01,-9.971781242993216665e+01,
-1.178877310188777727e+00,3.467595804691530503e+00,1.745966395703143492e+00,5.122483610665837794e-01,5.897157144303393217e+00,1.177609969298177894e+01,
3.407012183507139635e+00,2.826720255113067015e+00,2.334058039312920219e+00,2.815242393929491271e+00,1.799552479387847015e+00,2.461556307364747731e+00,
-3.133721186177718820e+01,-4.082179490211801465e+01,-4.052675395629700006e+01,-1.591395994511882428e+01,8.198228624268880083e+01,-3.702292513771622140e+01,
-6.696124753262699514e+00,-1.449024934252788777e+00,-5.706127452633777963e+00,-7.281403192117528178e+00,-1.573661006261774853e+00,1.659644306705492456e+00,
4.624315341885307618e+01,1.528810275123923113e+01,3.589570126740902367e+01,4.781183773111472135e+01,-8.002332172919869313e-01,-2.569776955383518313e+01,
-2.296830150517997993e+00,-2.156691836223327385e+00,3.816365359284744074e-01,-1.224918678377294734e+00,-8.731645475734818973e+00,-3.239068599093909206e+00,
2.717064904043536622e+00,3.950009838527110961e+00,2.718713279071643285e+00,1.129484564723219009e+00,2.096150518712303068e+00,2.328677380165149913e+00,
-3.332263715857414432e+00,-6.831624098673819701e-01,2.379377295001802750e+01,2.504123542643215217e+01,6.524004177062482768e+01,-9.240973108227848343e+01,
-3.214832081743395076e+00,9.298492914763312189e-01,-4.282984952592678418e+00,-8.073781890125967919e+00,-5.983435546142782613e+00,5.230282658895353265e-01,
3.596240097538311975e+00,2.666509844265059215e+00,1.850537818194976980e+00,3.756070893577910130e+00,5.157951209680129878e+00,2.336983322498982663e+00,
2.890935066916922480e+00,1.251878103772684714e+00,-4.727757252174270008e-01,-2.318774843468648095e-01,7.243280711448394804e+00,5.611464729302794829e+00,
-1.729758077768529745e+01,-8.496595878376853150e+00,-1.743586830955182165e+01,-2.340117858323094424e+01,-4.827799340728937239e+00,7.270555852845030032e+00,
3.144162581623200836e+01,1.596341672194820838e+01,3.571821092825143751e+01,3.997154556776236944e+01,3.372618282712883886e+00,-3.844329042625308546e+01,
-1.673655779982368941e+01,5.311369021375991650e+01,3.385148810005537001e+01,3.957278490049528585e+01,2.655539392071251470e+01,-1.065351890368122838e+02,
-4.254248620591033614e+01,-1.812186205631200409e+01,-3.690708072014886199e+01,-4.657486004178030470e+01,-3.617605480841480370e-01,2.641696248211489007e+01,
1.319879579079391796e+00,5.263053904173554259e-02,-4.535779865790655063e-01,3.779054500917913284e+00,3.205068374974719969e+00,1.158708990568391783e+01,
3.043462143897043948e+00,1.546746032097604662e+01,-3.165248058526605179e-01,1.526960530175809350e+00,5.258348576428029553e+00,1.189990139323066076e+00,
-2.900057605773401903e+01,-2.177547865748239886e+01,-2.707481201744150923e+01,-2.413206419289447169e+01,-7.989476698722768333e+00,8.083947785782333995e+01,
1.072015170726526301e-01,6.498606145926106592e+01,7.066037270504676826e+01,7.598058011920183219e+01,-6.712822922040528795e+01,-1.725900270244987311e+01,
-2.651535940208591846e+00,1.402253220603739692e+01,8.129968655412694645e+00,7.313542192872367842e+00,3.566177369659049745e+00,3.724038401461044590e+00,
2.451846649861247940e+01,2.445292829248559840e+01,2.384982611752821313e+01,2.965427773516430321e+01,3.981082601620197448e+00,-1.084510040356112270e+01,
-7.298458196473502912e-01,2.777374532018852094e+00,2.708906721550698560e+00,1.140679929463469744e+00,3.065116241324259860e+00,1.099811525004615298e+01,
-2.330738897828757761e+00,-7.813109774059759260e+00,1.142617997458593049e+00,-2.258291933702336884e-01,-1.032243766478280733e+01,-5.092558179144468511e+00,
3.178805297173032063e+00,2.814625176952691987e+00,8.520000984662629007e-01,-1.549330845493682940e+00,5.685398933403452482e+00,7.382271580919677056e+00,
-2.365631134094587917e+00,-4.258274166588494225e+00,-2.409105706520790591e+00,-3.531113556766320438e-01,-1.325783197334462482e+00,-1.875181157684299604e+00,
-3.397312892002612728e+01,-2.655214078147510293e+01,-3.556814410653088032e+01,-3.500015753256862894e+01,-1.815886838410845527e+01,8.312580001983306488e+01,
2.478234895473180988e+00,2.568042006492866847e+00,2.342255577575948156e+00,2.435012287135767117e+00,2.458798152545960125e+00,3.310789128586642427e+00,
1.899822279325456220e+00,-6.492967142152891391e+00,-3.100592889529839802e+00,-1.624619835721978944e+01,-5.429424274001822148e+00,-7.924213639293325784e+00,
-1.681987565866182877e+01,-1.593316052365444513e+01,-2.832124388112202951e+01,-2.096302786839274646e+01,-4.674142919777533933e+01,7.912416359730609372e+01,
2.344329938067085006e+00,2.840757597780145804e+00,3.006137756779900361e+00,2.949808411257344609e+00,2.213509383088595683e+00,2.614347978528675842e+00,
4.948623827966086575e-01,1.115128605437883635e+01,-1.842151674009465268e+01,1.372596972169358587e+01,-2.273738628045952481e+01,7.911175892158212264e+01,
-4.034338921602785177e+01,-4.917159430704990797e+01,-3.056326037413154495e+01,-3.933564676901744406e+01,-7.687678785260977143e+00,1.027068340903246479e+02,
-4.475977627656815372e+01,-2.232686035399411395e+01,-3.622089187826834689e+01,-6.751323435215581981e+01,8.343367613578136499e+00,4.331927365311923950e+01,
-6.312646607498989537e-01,-2.008851250014444645e+00,-1.742772897957898248e+00,-2.021423572626775300e+00,-4.551860353055239727e+00,-3.862398698433281208e+00,
-1.080422125701123015e+01,-2.779212028991580397e+01,-3.165223805997888462e+01,-2.957874534236384889e+01,-3.612163974494720264e+01,9.233833240583186353e+01,
-5.807304890470399528e+01,9.189346184116059746e+00,-4.151356195802758720e+01,-6.199679343025150757e+01,7.169138880274279479e-01,2.709381572569149199e+01,
-3.243041243650425454e+00,-9.888552955931585231e+00,6.964750977381228836e-01,4.844415048222218134e-01,-1.563836750856607871e+01,-4.591799747490633798e+00,
4.711922489115079316e+01,7.854518103733107637e+01,1.590080435802312486e+01,5.702240471084520124e+01,9.630087512125632188e+00,-1.657654428064572016e+02,
4.410867009847045495e+01,2.659958146515703703e+01,2.990816295431518768e+01,2.938354921678815046e+01,-1.528124098638005890e+01,-8.276924072441220304e+00,
-5.734544802227172333e+00,-4.750721033359462275e+00,-4.422602585704453304e+00,-7.552875317762835827e+00,-5.020985135596405691e+00,2.838630931284981784e+00,
1.089838746277499482e+01,3.980813117173509141e+01,4.384685547020321650e+01,5.398198052599594376e+01,4.970020931338290815e+00,-1.060526972751583514e+02,
4.923087856642347049e+01,5.190264196627995830e+01,5.620538099213317906e+01,6.833690131059329076e+01,-4.080183612866697729e+01,-1.062197210134139880e+01,
4.221496927815324263e+00,3.841905033286766269e+01,5.333551374087623032e+01,6.053314541214387390e+01,-9.436617985013919352e+00,-9.197483833504146844e+01,
4.924325929328080065e+01,-3.601594083357539500e+00,6.931995378363910731e+01,-3.090596687913226859e+01,2.498786707343460378e+01,-7.351511027129301112e+01,
1.784653434045413434e+01,2.101442011374957985e+01,3.627412957286588124e+01,2.826285985990744010e+01,1.603548286500046061e+01,-6.756272021509309411e+01,
4.183099231042434241e+01,5.708235463125540754e+00,1.869285977027337253e+01,-4.006669858595827094e+01,6.566728821310708497e+01,-8.959401435953459725e+01,
1.262892434165291888e+01,6.205845344331640590e+00,1.617896974107533481e+01,2.046534015605593027e+01,4.174255785820397691e+00,-5.979694089003698920e+00,
-1.050550384378539626e+01,2.756126929250210189e+00,1.447996324129162637e+01,7.773263092480880765e+00,-1.088060237460962032e+00,1.164807647327628644e+02,
2.188833745332628311e+00,3.496073273288822225e+00,2.086325796023552837e+00,2.029065877366143411e+00,2.010145173107540817e+00,2.584468826816985754e+00,
-3.175522714562613924e+00,-2.544659451689289309e+00,-3.391108848242297302e+00,-3.666815952481475627e+00,-1.709573315023457329e+00,-1.923334659385547152e+00,
-1.403014105271687129e+01,-3.319722321948185595e+01,-3.098323588173815324e+01,-4.067279954178244594e+01,4.950183198983140187e+01,-1.027081854155344232e+01,
-1.683648495909079168e+00,2.166380595168891077e+01,-1.630022791849416208e+01,3.512712636582653403e+01,-6.363886664611523969e+01,6.445377466295707336e+01,
-9.558117144508196938e-01,1.098026239703158602e+01,6.065296570854462743e+01,2.554681274708260119e+01,1.843374077767946773e+01,-8.834746560437314145e+01,
2.685361181424230193e+00,1.473631019370047568e+01,7.780718927374445926e-01,3.134455073096550137e+00,6.663003317311176232e+00,-5.366155341004109625e-01,
