-5.885663963193787929e+00,-2.184300373836850717e+00,-3.299175234745026497e+00,-1.195055583849541636e-01,-2.821125214329563313e+00,-1.569747645221019727e+00,
-2.017111153217473785e+01,-3.235449750182693407e+01,-1.504593148643645506e+01,-3.753756399291106760e+01,-2.144619236016100672e+01,1.618623022442044714e+02,
3.755601467274770044e+01,2.457860267364384299e+01,3.227094291738015386e+01,6.311337976411067530e+01,1.012135390465087958e+01,-2.705812058502847250e+01,
3.978069067936337966e+00,2.645725288534343189e+00,9.211152643912069449e-01,3.783449207316243346e+00,1.754739424655135105e+00,1.638938010106395726e+00,
2.896898470447146767e+00,4.427213078889449704e+00,2.672984948432722163e+00,1.672173685901190421e+00,2.139472842993288104e+00,1.984101173002608132e+00,
-8.824695910160529344e-01,-2.145451708556767478e+00,-1.093135223103358367e-01,-8.443534550903804003e-01,-8.372674294991526267e+00,-4.610973657103839329e+00,
-4.036093965162296016e+00,-2.989608370223104217e+00,-1.296675764503962824e+00,-3.373059661971416823e+00,-2.003658150123891701e+00,-2.781589564184671737e+00,
2.024017312081041098e+01,4.213124930145156988e+00,-1.572000253694426863e+00,-1.420957781040072021e+01,7.092768881157908822e+00,5.105794976607704427e+01,
5.686328605366409938e+00,5.478908326330230061e+00,7.273991161861406596e+00,3.077796010512865887e+00,-7.202594118099332476e-01,3.268866607137250746e+00,
1.682754171543972177e+01,-5.497279769119493009e-01,8.470879046321203587e-01,-5.535982982144625808e+00,4.791462465574384488e+00,4.114510565470593662e+01,
1.519290674232563099e+01,7.635689253626663842e+00,1.638414735057045135e+01,5.156944264162996205e+01,1.868153212892056159e+00,-2.838516247887577748e+01,
3.258738452185746581e+01,3.171890522175063865e+01,3.891964096738165324e+01,4.366852699768332968e+01,1.350276521045897127e+01,-5.042477154167121256e+01,
9.581031517676175113e+00,4.866301679163119509e+00,1.229703956055744030e+01,1.238510402897012064e+01,3.347145101140582391e+00,-3.934724793000212273e+00,
-1.343493849398437856e+00,-3.136566498897032651e-01,-1.715247410903571357e+00,-1.362076326083614619e+00,-6.000044349925373943e+00,-4.627122680100840491e+00,
6.312785518169755505e+01,4.935037417484848254e-01,-2.755831185645074122e+00,-1.596487948889318353e+01,-8.689441641865575150e+01,8.220024195081070673e+01,
3.644885816515552790e+01,4.039551697458735191e+01,4.902420183870789572e+01,3.617121360604912184e+01,-6.123486460084749616e+00,-8.138136970665500769e+01,
-7.294635576869937665e+01,-2.041738658030215348e+01,-5.799080648420218154e+01,-1.371615950606583567e+01,9.896409669953226285e+01,1.070496578290923111e+02,
3.677072347392741136e+01,2.865591776410159852e+01,3.702126979727784573e+01,3.928906094491776457e+01,9.819172936028410348e+00,-7.567620185589208859e+01,
2.051595459163629087e+01,6.907427445715495651e+01,-1.278277524581870139e+01,1.271442311302749317e+01,4.690280972247959568e+01,-5.656200149843264313e+01,
-1.258813716312249253e+00,-1.281605253477675843e+00,-6.627737068155172828e-01,-1.406294388417009378e+00,-9.353069443862560561e+00,-2.671617445310897399e+00,
-1.612709282968969537e+00,-2.243170385225619956e+00,-3.947775896413452390e+00,-2.463154737924581728e+00,-2.337380233596338730e+00,-2.682795392651081912e+00,
2.727529669122341005e+01,2.991816575682765134e+01,3.005997019372690104e+01,3.882160515978483772e+01,-2.297927190341299220e+00,-3.625470210971865725e+01,
-4.066724278925647695e+01,-2.660494236181903815e+01,-2.800261221987883431e+01,-2.435685626050761599e+01,1.407440200646913731e+01,7.733762011229218913e+00,
6.128698068862356507e+01,7.230997423262549262e+01,2.205524504089709481e+01,4.673554347657572094e+01,-1.973076123728919740e+01,-9.072703535924652840e+01,
4.414545132195191712e+01,5.436231418701445506e+01,2.917762713286451515e+01,8.026541911912914884e+00,1.151499743122062114e+01,-1.069937857088746540e+02,
-2.766418056469109654e+00,-2.028662737913858205e+00,-3.612507374315875541e+00,-1.529768285041618991e+00,-1.903536778904544757e+00,-2.481784641973307615e+00,
-2.327822920317764499e+00,-2.083440016410169182e+00,-3.383612800069866644e+00,-3.895689655444514621e+00,-1.972373196626811875e+00,-2.316076304402054920e+00,
-3.444025501356119179e+00,-2.290053624863493731e+00,-2.727555740665149386e+00,-2.779588928309304485e+00,-2.010258420033381732e+00,-2.615727382811013690e+00,
5.609146492863633426e+00,-2.847326957411828730e+00,4.708573256426215714e+00,6.653942475853689587e+00,1.482491876747174864e+00,-6.524129494795162243e-01,
-2.384489779410862820e+00,-3.002643932365624213e+00,-1.865493767559103677e+00,-1.972895055070561954e+00,-2.699601550300841257e+00,-3.758963665461048542e+00,
-1.472981117806434925e+00,-2.706421938851992337e+00,5.515195058909293735e+00,-1.079474583774692498e+01,-1.344667013246301224e+01,-2.505958250730247272e+01,
7.065295044860995688e+00,5.271333920654512184e+01,3.161796787465154779e+01,5.880279599156215653e+01,2.070664775119203771e+00,-1.131034793684296176e+02,
2.159675203844730262e+01,1.027228717287799320e+01,2.078232606546144012e+01,4.602749089749686817e+01,9.982640993497396309e+00,-3.031432773569565953e+01,
-1.264185010059655134e+01,-1.450371570107231101e+01,-1.639892578909749687e+01,-2.052592141729390107e+01,-9.940019254068458210e+00,5.257561523869395614e+01,
1.680947351538315093e+00,2.622556061635070268e+00,1.490172350740077034e+00,3.782907908430864108e+00,1.633398542102390882e+00,2.954344463486779038e+00,
-4.316340227288241493e+01,-4.821465648828926476e+01,-4.781640026854370973e+01,-5.093364390919226281e+01,5.091546223916008529e+01,1.539325142911304845e+00,
-3.572271361215340502e+00,2.084462048499636211e+01,-1.912382710958742749e+01,-1.077554271055377555e+01,3.837620779184227615e+01,-1.736096732019245508e+02,
2.856824693841177165e+01,3.404437952699237968e+01,2.907486068126159395e+01,1.210746192647329700e+01,2.331421140923745483e+01,-8.995175889241737366e+01,
2.815007071448638598e+00,3.092698913709501340e+00,3.277815706783608452e+00,3.198942732194113070e+00,1.503477282114475511e+00,2.471284106602676722e+00,
8.981768438700665769e+00,2.129688796284253982e+01,1.097418857693501337e+01,3.941213969936208628e+01,2.741514972377378712e+01,-7.772375715288352183e+01,
3.573522649853595823e+01,3.933644917853872158e+01,3.670954382414333850e+01,2.071251879592415435e+01,-1.725742668907951227e+01,-4.989455905580797435e+01,
8.855799612966853473e+00,3.247145443884151206e+01,2.658619093567168790e+01,3.800060041839559943e+01,2.970121460220792287e+01,-8.256794892371642902e+01,
1.442662800275528490e+01,-5.665231285002396078e+01,-4.619854135772226300e+01,-5.774880664331151081e+01,-3.825775422637543954e+01,1.028668356610338606e+02,
7.472086939852652376e-01,-4.218083172610121778e+00,8.651180406034820081e+00,-4.640146817605880436e+00,3.216402253359591867e+01,-1.236577745871689444e+02,
3.983655279310308384e+00,1.560381885649135647e+01,3.754337124961493188e+00,6.557412843861064822e+00,5.417677512791874150e+00,-2.355620562025735776e+00,
2.226199385186787794e+01,2.062263727922747236e+01,2.787151488678109956e+01,3.789642098495391309e+01,2.652469774771239486e+01,-1.061994169425128689e+02,
-1.174653628661505245e+00,3.468197380314100187e+00,1.746980106135001209e+00,5.126079403173323668e-01,5.897664119579755670e+00,1.177614878364466300e+01,
3.450063807859210741e+00,2.869876920440443069e+00,2.377231850406228197e+00,2.858252339190909375e+00,1.857502247794702521e+00,2.501455968058436508e+00,
-3.407533911351678313e+01,-4.414406484361752092e+01,-4.519697745940138134e+01,-1.818954897250240421e+01,8.793060404285596121e+01,-3.674383481881458380e+01,
-6.696239731199095324e+00,-1.449143885012987631e+00,-5.706244694777861781e+00,-7.281495891342762761e+00,-1.573882467560361098e+00,1.658921405991979681e+00,
4.905770753842760001e+01,1.606668273174576456e+01,3.833784930497466092e+01,5.057490898868471163e+01,3.067491196015959432e+00,-3.147804627404984856e+01,
-2.329642335618343552e+00,-2.189426228167689725e+00,3.489411102430742262e-01,-1.257508842439899022e+00,-8.748103899352358326e+00,-3.280572266320580077e+00,
2.759247406443630535e+00,3.992246276111463210e+00,2.760953684376709738e+00,1.171540935951804974e+00,2.147554293749281307e+00,2.369934957825213129e+00,
9.782973388717801200e+00,-5.250135583053000765e+00,3.160026406872396265e+01,3.371516958863556113e+01,7.785701145501735709e+01,-9.671006958318616853e+01,
-3.193624147623496778e+00,9.523833833928785353e-01,-4.261585112150338972e+00,-8.057099864733263672e+00,-5.971177245397369049e+00,5.574038137828315476e-01,
3.589760157369403792e+00,2.660037859615790978e+00,1.844069425647737903e+00,3.749646325179031958e+00,5.152484749336923464e+00,2.329479770379674797e+00,
2.893816612355639251e+00,1.254742651580789126e+00,-4.699195766452178291e-01,-2.290320151586967279e-01,7.245109403871819787e+00,5.614601557317985936e+00,
-1.730005384376774913e+01,-8.499114996088284357e+00,-1.743843967178812449e+01,-2.340374469883902009e+01,-4.832857863764216333e+00,7.247028497822898707e+00,
3.224188669135887864e+01,1.694546177865736780e+01,3.675321656034353879e+01,4.163981311521594364e+01,1.412441913676453442e+00,-4.510037924718806579e+01,
-3.033825750755530848e+01,5.341591339490643264e+01,2.080200572279030524e+01,3.001185675277713827e+01,3.561493501550487650e+01,-1.183890149399321530e+02,
-4.139822834683027253e+01,-1.712831932880676788e+01,-3.629660532001467743e+01,-4.676535515517635844e+01,2.778763219937020690e+00,4.059535061725313909e+01,
1.321069167255938925e+00,5.326881249068966817e-02,-4.524029615152462824e-01,3.781030914730757253e+00,3.212635771787472727e+00,1.158968977128039768e+01,
3.043389871550752357e+00,1.546738806762491159e+01,-3.165970464903273829e-01,1.526888873600719343e+00,5.258282318997501648e+00,1.189905597514270941e+00,
-3.295378502491607975e+01,-1.844521574099207228e+01,-3.279943227709949127e+01,-1.938700067875347344e+01,-4.820152974821207970e+00,9.445051087721245153e+01,
-1.533674545963573443e+00,6.688342713879343648e+01,7.104681821393461405e+01,8.404798658087740648e+01,-6.923671341722341310e+01,-1.695033353875889048e+01,
-2.651491505794774994e+00,1.402253233607186544e+01,8.129973889117138697e+00,7.313547426499394710e+00,3.566205864296136951e+00,3.724042332519311493e+00,
2.452175735794903488e+01,2.445628947386599350e+01,2.385326336652464008e+01,2.965774537417336276e+01,3.987825092325786969e+00,-1.081353426780837523e+01,
-7.295469971766835870e-01,2.777286813356971251e+00,2.708818938074202265e+00,1.140492852592566608e+00,3.064562856002189584e+00,1.099790109998720844e+01,
-2.330682064968375045e+00,-7.813062992133334994e+00,1.142673952437836205e+00,-2.257739837614912981e-01,-1.032240068126686872e+01,-5.092502558974147497e+00,
3.179600832150548229e+00,2.815417472067397231e+00,8.527903600964010788e-01,-1.548545058352832626e+00,5.686164041794947721e+00,7.383118264740197390e+00,
-2.330948873275460631e+00,-4.223514147789616757e+00,-2.374351634012106249e+00,-3.185048194140010502e-01,-1.284340132176249760e+00,-1.839922473964666016e+00,
-3.851860204678125399e+01,-3.019004731449962620e+01,-4.080638705297177182e+01,-3.980200802048688047e+01,-1.041072798380058551e+01,8.590029006328985872e+01,
2.520642057523660995e+00,2.610499546844451402e+00,2.384715579091602589e+00,2.477293396755709143e+00,2.511589048803782642e+00,3.351560061086971576e+00,
1.884312671847355514e+00,-6.496021967752568571e+00,-3.103647715125972262e+00,-1.624625373217725155e+01,-5.431599473791380639e+00,-7.924703218202114208e+00,
-1.329492699089079011e+01,-1.659729714206970286e+01,-2.543801774923832326e+01,-2.387871732144282433e+01,-5.017525682057621594e+01,8.392899573366831589e+01,
2.386067863771798248e+00,2.882556836166566328e+00,3.047942902782660557e+00,2.991426523974840546e+00,2.265304661692378652e+00,2.654793097131128210e+00,
-2.494682567339663493e+01,-6.558776951690908241e+00,-3.924605520339380860e+01,-6.378399492249328340e+00,-2.004145260210631463e+01,8.952694124081925509e+01,
-4.239348613407577204e+01,-5.044305179840475972e+01,-3.341710584033112497e+01,-4.255543349422132593e+01,-1.333653493840530935e+01,1.019282602933707267e+02,
-4.686897339935845253e+01,-2.448049082059783998e+01,-3.839425707480537397e+01,-6.056884855007780288e+01,1.147993213480163588e+00,5.500440879927263182e+01,
-6.710407769292224822e-01,-2.048499323450426068e+00,-1.782367410089433779e+00,-2.060805313451992582e+00,-4.584668619689474589e+00,-3.906429341183674797e+00,
-6.661277103376145092e+00,-2.485629978094054238e+01,-2.875394950464790256e+01,-2.718318957762556920e+01,-3.644139369660049255e+01,1.023328279520239761e+02,
-6.264051191009636455e+01,5.480058666961257430e+00,-4.446554236940636429e+01,-6.534853930108634756e+01,3.114505846747485762e+00,2.644376849212438074e+01,
-3.243040638357728600e+00,-9.888552381961458693e+00,6.964757002266266372e-01,4.844421026274456921e-01,-1.563836713316784355e+01,-4.591798988053102271e+00,
4.735895315771755776e+01,8.065669907851963671e+01,1.568699581757347872e+01,5.747550704685271228e+01,2.594473703419451738e+01,-1.665685129023753461e+02,
4.561244736502519714e+01,2.721349765151251177e+01,3.055698717181344293e+01,2.994894683747227404e+01,-1.584476280684521221e+01,-8.361964610719271107e+00,
-1.440351029107834435e+01,-9.068044724757593045e+00,-1.309484994494058085e+01,-2.286660372918461093e+01,-6.796207010784353741e+00,1.290965124513978068e+01,
2.135190856591443165e+01,3.563589748735626017e+01,4.639962050116864134e+01,5.475403602177151896e+01,2.493124113778494078e+00,-1.156924795854876606e+02,
5.017598218929148857e+01,5.380064263995263474e+01,5.846294163153388013e+01,7.121542002664310189e+01,-4.139191468427702603e+01,-9.749228489810819909e+00,
3.789952348505900126e+00,4.098456332149169867e+01,5.681975926481473493e+01,6.262345660681263837e+01,-1.002305854500422022e+01,-9.804774402056904137e+01,
5.400464056855906847e+01,-4.626599775785312119e+00,7.553601621599760563e+01,-2.676603419911898030e+01,3.160055048541833855e+01,-7.170376255477735583e+01,
1.755925656411412916e+01,2.857668353012501683e+01,3.195424432195608233e+01,2.991263862368617410e+01,2.042642705728247776e+01,-7.746377045905236969e+01,
6.165370243999731770e+01,1.283818780054109787e+01,3.844517761038936499e+01,-3.199084421486930907e+01,7.062316974334729025e+01,-8.616020053446996485e+01,
1.262911751547941286e+01,6.206041539768815340e+00,1.617916978195462363e+01,2.046551985744818580e+01,4.174649243610264016e+00,-5.977929514223122354e+00,
-9.659873808750665702e+00,2.106060360820694921e+00,1.536856040747955277e+01,8.060073018145793355e+00,-8.564280073104839630e-01,1.164962704146597332e+02,
2.230121874979225538e+00,3.537423758751029546e+00,2.127682090618317812e+00,2.070260733936363451e+00,2.062261093359265551e+00,2.623943468209399832e+00,
-3.216820227074935534e+00,-2.586057461781627875e+00,-3.432523060860816599e+00,-3.708052994274560366e+00,-1.763794065586624438e+00,-1.962465211482242067e+00,
-2.124453340272654955e+01,-3.561446691520875873e+01,-3.153793139959227787e+01,-4.013182151918805118e+01,5.564187538230798680e+01,-1.143887234409866061e+01,
8.740948574730621701e+00,1.902664567301463450e+01,-7.398109544572822216e+00,4.219198959034255836e+01,-6.893185180476184826e+01,6.952692118781592967e+01,
-2.906227313200409945e+00,7.353363613664641640e+00,6.908309562921263591e+01,2.735037863312218320e+01,2.420294340499787822e+01,-9.246781863966397452e+01,
2.685332191897593646e+00,1.473628120063529146e+01,7.780429020060004586e-01,3.134426318159559077e+00,6.662980578879409421e+00,-5.366540505551166129e-01,
