-5.878879328751303035e+00,-2.177515582334540678e+00,-3.292391602707211540e+00,-1.127596598616901202e-01,-2.814290788650408270e+00,-1.562402420351633792e+00,
-2.166785585140393877e+01,-3.349757337789571920e+01,-1.587311452824076952e+01,-3.471715263279048713e+01,-2.038889562563386093e+01,1.599485152433417738e+02,
3.535698166867688030e+01,2.234802536269897999e+01,3.001100442059675188e+01,6.084345024614920305e+01,7.860021312862476961e+00,-3.478908810073330216e+01,
3.971112043940578928e+00,2.638755751597265942e+00,9.141433988894152041e-01,3.776505882235680289e+00,1.745971183708909358e+00,1.632258719544375181e+00,
2.889732891391497915e+00,4.420037559432117291e+00,2.665807834849862612e+00,1.665028726013230820e+00,2.130736144114317110e+00,1.977100504140498094e+00,
-8.771936816091842060e-01,-2.140202232339160737e+00,-1.040734906227558931e-01,-8.391326574585271647e-01,-8.369742184370741356e+00,-4.604750677515587753e+00,
-4.028836574014452943e+00,-2.982332008492456499e+00,-1.289395173241524084e+00,-3.365804441196735386e+00,-1.993590802852984067e+00,-2.775064100490166830e+00,
2.023864801089766630e+01,4.205860747513747278e+00,-1.584612723037112092e+00,-1.422216516990361157e+01,7.085215303345431259e+00,5.105605367552723095e+01,
5.685915741559634640e+00,5.478504312847157998e+00,7.273589713544885704e+00,3.077394341629176910e+00,-7.233709802381305121e-01,3.268652863414246657e+00,
1.682528156082433668e+01,-5.540644075345920738e-01,8.445627472691381588e-01,-5.553190126492505208e+00,4.784038495086504028e+00,4.114450461611070153e+01,
1.527402268418697062e+01,7.656237800298474561e+00,1.632039867670143707e+01,5.152176814074798017e+01,-2.015639075968262528e+00,-2.696275835254622066e+01,
3.507967442059882757e+01,3.424783136070733747e+01,4.149067673300063319e+01,4.628634374631245407e+01,1.697444560091909693e+01,-3.867053344146128779e+01,
9.580727413550476967e+00,4.865991758559130353e+00,1.229674657264378901e+01,1.238478628500337564e+01,3.346525162499192962e+00,-3.937550654283492158e+00,
-1.337217902581376183e+00,-3.074117428534264285e-01,-1.709015234873322964e+00,-1.355875124593213465e+00,-5.995528723361688961e+00,-4.619986930190973062e+00,
6.419922909786663467e+01,6.303860630839652757e-01,-2.521580039097294001e+00,-1.466539397937683020e+01,-8.576490566179489861e+01,8.217962950195375527e+01,
3.594861548077227553e+01,3.961410125917964109e+01,4.742498028546437183e+01,3.423364845862796813e+01,-6.085583201650170082e+00,-7.857749049394223562e+01,
-7.161706502362299886e+01,-2.102817261054180520e+01,-5.839260443164759096e+01,-1.529909085715872408e+01,9.737096483993093443e+01,1.061362195560571138e+02,
3.676088704848707067e+01,2.908944485804440205e+01,3.759844200151775340e+01,4.025581049282263990e+01,1.035632314647851260e+01,-7.325939006616746951e+01,
2.035244128263049390e+01,6.855591404229512875e+01,-1.284182503298650069e+01,1.283460719159527130e+01,4.677541702382488609e+01,-5.615038270863703929e+01,
-1.254266061924454778e+00,-1.277065665030794550e+00,-6.582390733399180460e-01,-1.401769706743238864e+00,-9.351252184656521749e+00,-2.665671314028243089e+00,
-1.605375832444636552e+00,-2.235828413277037630e+00,-3.940432731129006605e+00,-2.455841968973627942e+00,-2.328344994723134942e+00,-2.675768746024406397e+00,
2.721809250834408545e+01,2.984147273685125512e+01,2.992883217222322756e+01,3.864697024913567702e+01,-2.879949965067587048e+00,-3.573022372194603946e+01,
-4.060372685224796641e+01,-2.653310423892333247e+01,-2.792434061215994490e+01,-2.428244322935699273e+01,1.397670829157192962e+01,7.823682211002745746e+00,
6.048830608811512377e+01,7.220011026503303242e+01,2.180065140395209866e+01,4.614432739073509282e+01,-1.963116761346033812e+01,-8.977268440092149149e+01,
3.892679114901492454e+01,5.030414607517916181e+01,2.656595857370876601e+01,3.595579265491149368e+00,1.373637895857902969e+01,-1.099451024255210285e+02,
-2.759676995747212480e+00,-2.021908350468541560e+00,-3.605750134057930989e+00,-1.523033432744314020e+00,-1.894580934853312915e+00,-2.475614985583981298e+00,
-2.320599882493321164e+00,-2.076202099474615093e+00,-3.376371930364825857e+00,-3.888477382041985120e+00,-1.962893963700112598e+00,-2.309337853079627578e+00,
-3.436749045637711220e+00,-2.282760799909429039e+00,-2.720259415287301863e+00,-2.772319089937568926e+00,-2.000457526779628292e+00,-2.609072328467066271e+00,
5.640412443673558762e+00,-2.831732863994194105e+00,4.734026844908012954e+00,6.686192346209968385e+00,1.492661269740949370e+00,-6.878177968406566922e-01,
-2.376717540648713545e+00,-2.994862726000600883e+00,-1.857711104497698384e+00,-1.965141721336551628e+00,-2.689698330075823929e+00,-3.751710921704335178e+00,
-1.472992570460017969e+00,-2.706433407757622867e+00,5.515183589358396254e+00,-1.079474587925413864e+01,-1.344667175658969782e+01,-2.505958287884237379e+01,
7.035719108265225508e+00,5.014299299235663909e+01,3.113029808443983981e+01,5.783941210306169722e+01,1.901127201181686432e+00,-1.113953760724582907e+02,
2.032161616974140372e+01,8.998624912536495657e+00,1.943835159502737042e+01,4.646329312525252675e+01,3.627840162239997390e+00,-3.086235303149598863e+01,
-1.167798466954825365e+01,-1.164654927092466430e+01,-1.434748787133029069e+01,-1.745240416983893539e+01,-1.281165445894170318e+01,5.219310569526079036e+01,
1.674529451343041542e+00,2.616117459976747384e+00,1.483728651924887787e+00,3.776478409354274479e+00,1.623860553411336172e+00,2.948933984071453462e+00,
-4.277511551275969026e+01,-4.766896253024400920e+01,-4.732691555060245037e+01,-5.010457672415776642e+01,4.995277932084862726e+01,2.734759884801965413e+00,
3.020802285696544853e+00,2.348300686294663819e+01,-1.060054800445355205e+01,-1.635802571071792144e+01,3.320729239347728168e+01,-1.733776101640734737e+02,
2.613955175965238453e+01,3.366680381981348091e+01,2.687480907259092078e+01,1.125968711214879825e+01,2.309614859938382381e+01,-9.002959897851224014e+01,
2.807673080546502664e+00,3.085337511569776758e+00,3.270447797330906070e+00,3.191595153465261347e+00,1.492512850620340004e+00,2.465036583632341127e+00,
1.052099558727973161e+01,2.004948146411706844e+01,1.408177550386990262e+01,4.085677194895733066e+01,2.253178215040573207e+01,-7.651048906732593480e+01,
3.418881560825589361e+01,3.780302060033579892e+01,3.618827891700219368e+01,2.069188164383761830e+01,-1.717259434192818190e+01,-4.910956572186770330e+01,
4.134854411688787756e+00,3.068792707884577098e+01,2.426968566990428400e+01,3.618385871993118741e+01,2.088488610550164992e+01,-8.631260068201243030e+01,
1.439596327282651167e+01,-5.455506322142772291e+01,-4.656050704696720288e+01,-5.520246245418567810e+01,-4.060083901826143205e+01,1.030003077027421625e+02,
1.144324669922872850e+00,-6.488301629380170077e+00,8.628530917980668846e+00,-2.623068328775740365e+00,3.163798770644707403e+01,-1.234486814916749751e+02,
3.983663124799051936e+00,1.560381907329703921e+01,3.754345206899353027e+00,6.557420924862578104e+00,5.417692638879564093e+00,-2.355572114269973483e+00,
1.900532305808173206e+01,1.562366705754199714e+01,2.389405286426033470e+01,3.371052223993704899e+01,2.094686121583327676e+01,-1.098333755113752801e+02,
-1.175034964329945586e+00,3.468185873735657232e+00,1.746851362128793106e+00,5.125057899448954846e-01,5.897632785338164041e+00,1.177615296614713536e+01,
3.442554305839962137e+00,2.862347890150356289e+00,2.369698483731316418e+00,2.850744906576430537e+00,1.847126770740386448e+00,2.494688645393584370e+00,
-3.260838938893372330e+01,-4.414559353809002573e+01,-4.494658395525148364e+01,-1.756935304497392636e+01,8.582516355533296348e+01,-3.879752632599941364e+01,
-6.696259384032361872e+00,-1.449164964613867124e+00,-5.706264947001886689e+00,-7.281507997638263063e+00,-1.573930122822866151e+00,1.658705711932771276e+00,
4.941152758386841271e+01,1.639824387898335800e+01,3.858000524718396207e+01,5.076589504807435560e+01,3.605739716002294148e+00,-2.687718706673871694e+01,
-2.324202852704218003e+00,-2.183999627669736654e+00,3.543613325533057634e-01,-1.252106216559119911e+00,-8.745350867120528449e+00,-3.273704795587086380e+00,
2.751934148760823096e+00,3.984922158896654132e+00,2.753627638080082374e+00,1.164244444666514333e+00,2.138379052041589290e+00,2.362965211170100943e+00,
1.033943515830289428e+01,-9.781472073626838792e+00,2.884559219177742406e+01,2.363751638581022618e+01,7.833736143548105701e+01,-9.737536943395218714e+01,
-3.197109843038998811e+00,9.487062962935614019e-01,-4.265097643871193611e+00,-8.060151724962077324e+00,-5.973202992331770211e+00,5.519042112858777438e-01,
3.590926007822440535e+00,2.661202324527649488e+00,1.845233260989691315e+00,3.750802342833801095e+00,5.153473721816475894e+00,2.330825621072968090e+00,
2.893264707589656926e+00,1.254194031470919679e+00,-4.704665793827602638e-01,-2.295769152129774615e-01,7.244755926326184259e+00,5.613996830897155732e+00,
-1.729956237264398666e+01,-8.498614180184661748e+00,-1.743792833968482370e+01,-2.340323352492727693e+01,-4.831852343813029194e+00,7.251709826641710599e+00,
3.274047403786594401e+01,1.738666841504660709e+01,3.730987561642741213e+01,4.124150056537485654e+01,4.217073540271488064e+00,-4.239361320130410604e+01,
-2.543208915217719124e+01,5.860471510751052904e+01,2.317023699271024739e+01,3.160975378891343368e+01,3.770761006398639381e+01,-1.141862347844931094e+02,
-4.133907463619692635e+01,-1.705987917786587715e+01,-3.615060321015973699e+01,-4.648499439881903328e+01,3.342488608814478290e+00,4.002715323171164385e+01,
1.320126095923871201e+00,5.247071902021312878e-02,-4.533419012362313594e-01,3.780028333043827349e+00,3.210143188408796089e+00,1.158896882535224648e+01,
3.043402718340848079e+00,1.546740091119327865e+01,-3.165842050682096676e-01,1.526901611526363389e+00,5.258294129062155875e+00,1.189920599386687261e+00,
-3.351254949404085437e+01,-1.866090994087234378e+01,-3.221444808391106562e+01,-1.988718680485534307e+01,-3.293444160711650248e+00,9.262859330806158198e+01,
-1.359535485431706991e+00,6.665019739608902682e+01,7.105139578422057411e+01,8.263605982818168627e+01,-6.865189904481532324e+01,-1.754718258675100273e+01,
-2.651503515280210443e+00,1.402253230578462251e+01,8.129972380741476101e+00,7.313545918060745166e+00,3.566199767050210134e+00,3.724041489008128814e+00,
2.452110796521521152e+01,2.445562602808036701e+01,2.385258473391819933e+01,2.965706089896445974e+01,3.986494406052162986e+00,-1.081976571802766962e+01,
-7.294810432302850645e-01,2.777364319269840731e+00,2.708896633895896855e+00,1.140574429442552162e+00,3.064751350620385395e+00,1.099795833017662616e+01,
-2.330692008812654148e+00,-7.813071174751377690e+00,1.142664161967386294e+00,-2.257836437406045837e-01,-1.032240715901973438e+01,-5.092512282254431533e+00,
3.179447332438635865e+00,2.815264545346886305e+00,8.526377023014375389e-01,-1.548696892823644422e+00,5.686011567907940822e+00,7.382958327578333702e+00,
-2.341216517518017071e+00,-4.233804916347668978e+00,-2.384645653856556358e+00,-3.287646650966856710e-01,-1.297603595008644639e+00,-1.849608063873182440e+00,
-4.049191677715663928e+01,-3.107427504694769738e+01,-4.100642114704140795e+01,-3.960648591654850037e+01,-1.245905705704273281e+01,8.185050824187068486e+01,
2.513229095024580140e+00,2.603075963976602569e+00,2.377290081706552982e+00,2.469896504817935767e+00,2.502074126598629267e+00,3.344643273876112488e+00,
1.884945912400558532e+00,-6.495897244360842926e+00,-3.103522991735104597e+00,-1.624625147355787291e+01,-5.431510665199453136e+00,-7.924683231548752538e+00,
-1.624425843799031455e+01,-1.757826714760022924e+01,-2.651114945329436168e+01,-2.514578605601062478e+01,-5.161503475939808538e+01,8.041064606825226235e+01,
2.378837087499038105e+00,2.875314125547606015e+00,3.040698003314524556e+00,2.984211691428285462e+00,2.256082397452524368e+00,2.647956407922987587e+00,
-2.828004190295157372e+01,-1.010067022080780674e+01,-4.133228380786678713e+01,-9.931157689584772186e+00,-2.248191698422198570e+01,8.455731181004951225e+01,
-4.460307916185549004e+01,-5.274670216128838973e+01,-3.573958018309038920e+01,-4.462508906384706364e+01,-1.143528213255627257e+01,9.753945240757637691e+01,
-4.654009911408512323e+01,-2.412199511881991754e+01,-3.803857571141269034e+01,-6.042033323384420385e+01,1.105622975898789662e+00,5.476840653840022100e+01,
-6.643287286134029745e-01,-2.041807518447942726e+00,-1.775684009934927365e+00,-2.054157108630718209e+00,-4.578987955967676271e+00,-3.899088572983716805e+00,
-1.099864231396902348e+01,-2.877045751360696357e+01,-3.376624367082391842e+01,-3.007601707843237548e+01,-3.793310808390410926e+01,9.614741831428152352e+01,
-6.181674959735111230e+01,5.566633119192765378e+00,-4.364675025942625552e+01,-6.447204989300514910e+01,3.594697590788044739e+00,2.810656691671540486e+01,
-3.243040744223908867e+00,-9.888552482316002923e+00,6.964755948535085173e-01,4.844419980732540543e-01,-1.563836719903036432e+01,-4.591799120474910900e+00,
4.685759387790841402e+01,7.986479192138065741e+01,1.525371654632233565e+01,5.724321217006946938e+01,2.428974697098394486e+01,-1.669155058978786883e+02,
4.559010198540797631e+01,2.718216416797388746e+01,3.051867598784378188e+01,2.991541706640918719e+01,-1.582830037704882820e+01,-7.619157574666384214e+00,
-1.130323956385794304e+01,-5.759387108892790152e+00,-9.634438162532399375e+00,-1.812990773781866238e+01,-3.191052634446899017e+00,1.651253403448627211e+01,
2.115145711238836768e+01,3.671331448359779159e+01,4.512945648174680002e+01,5.578662527220534884e+01,6.367842973279355334e+00,-1.139945548050312709e+02,
4.980392827174333092e+01,5.323003191580278326e+01,5.781390000223695580e+01,7.046515683895140114e+01,-4.219845435363669139e+01,-1.100868454012504927e+01,
2.920227259451598556e+00,4.029716680576529342e+01,5.668301093258781265e+01,6.237711043411616885e+01,-9.137877431335843070e+00,-9.693079057448440494e+01,
5.268918442744282515e+01,-5.951289906051615120e+00,7.468963782371130833e+01,-2.577783288283687213e+01,3.091711913620216023e+01,-7.228738158954054427e+01,
1.985078550892380633e+01,2.694363432862937913e+01,3.467985442028074772e+01,3.109221144008254356e+01,2.013571647307210810e+01,-7.322837737043032291e+01,
5.851213245966593490e+01,8.671311845676020980e+00,3.475297193210244018e+01,-3.500460188146201546e+01,7.080751421673372192e+01,-8.832498033655778613e+01,
1.262911243087840241e+01,6.206036335399934600e+00,1.617916445305569084e+01,2.046551380963444444e+01,4.174638775638033650e+00,-5.977980634628910828e+00,
-9.659910299130173073e+00,2.106055627127339402e+00,1.536855605950592363e+01,8.060066808286288520e+00,-8.564449589477399760e-01,1.164962680252708793e+02,
2.222911240563413937e+00,3.530200697449827008e+00,2.120456596741378874e+00,2.063060920056911218e+00,2.052881445505489566e+00,2.617255497617657856e+00,
-3.209674549397320664e+00,-2.578893890789581533e+00,-3.425355661855024714e+00,-3.700913904369677709e+00,-1.754179115799932909e+00,-1.955848675679380921e+00,
-2.077452754622136410e+01,-3.564892495332307476e+01,-3.211242526532078045e+01,-4.105592464797795316e+01,5.274589619000496299e+01,-1.110476508684029717e+01,
6.482888977440993905e+00,1.810635116553129009e+01,-8.661131290651150394e+00,4.202996513337830464e+01,-7.219128024572829361e+01,6.593148944400353173e+01,
-4.407495216121139592e+00,3.697566651130804072e+00,6.558182299644099089e+01,2.284183281886932804e+01,1.998089734580698007e+01,-9.516547349923247623e+01,
2.685337297322813122e+00,1.473628630666514816e+01,7.780480076818548918e-01,3.134431382457385951e+00,6.662984602418703162e+00,-5.366472923169108844e-01,
