-5.577774994215578097e+00,-1.876507456761705717e+00,-2.991502574428597683e+00,1.863926510358581423e-01,-2.532231612739952009e+00,-1.223583789385160658e+00,
1.482517679570387159e+00,8.118657889379234049e+00,-2.143633761767268719e+00,1.776853560980233282e-01,-1.534634786603122869e+01,7.247749786825907847e+01,
1.160995676244888486e+01,9.962834471785939172e+00,1.227910161666744848e+01,1.880205994188619556e+01,1.007045754842851260e+01,-2.228735725947271362e+01,
3.675979010351302367e+00,2.343222663944089401e+00,6.186231663945462866e-01,3.482464697744011239e+00,1.401033439729103103e+00,1.331496733737546290e+00,
2.582492821189473986e+00,4.112505536488849422e+00,2.358318614887943365e+00,1.359062418989952947e+00,1.781591636687879454e+00,1.660851179432548008e+00,
-6.473018414235686135e-01,-1.912201164507662199e+00,1.241391147478877327e-01,-6.117116630559737978e-01,-8.251580443729908509e+00,-4.335089741264543939e+00,
-3.728510835903181775e+00,-2.681327730494846406e+00,-9.883491505303818592e-01,-3.065982005503311569e+00,-1.601091234097473670e+00,-2.487617928062868966e+00,
2.004688261930309423e+01,4.468643549120202785e+00,-1.651705886923215294e+00,-1.428266847994634858e+01,6.625004191927430952e+00,5.111656775571348277e+01,
5.651938831436221555e+00,5.450605823630907842e+00,7.245865007226491628e+00,3.049677876023086487e+00,-9.425710108840377188e-01,3.251955725767626593e+00,
1.682374336781838764e+01,-6.365387389564126641e-01,8.154114658076031530e-01,-5.596730345236064608e+00,4.759168543812722696e+00,4.114018676212708669e+01,
4.780774637028980756e+00,2.875775219524708604e+00,4.332371258136432424e+00,5.518800249634497668e+00,5.575173319414783890e+00,-2.289606876944929148e+00,
2.190674944585417450e+01,2.212122783210338639e+01,2.885306937333990618e+01,2.616209654589482270e+01,5.231226743280757319e+00,-5.201308417356627700e+01,
9.568798554638528131e+00,4.853816945935087723e+00,1.228546780768608393e+01,1.237232179037938806e+01,3.322214456540787619e+00,-4.047799892796512644e+00,
-1.046789444306742034e+00,-1.858374233520129412e-02,-1.420872179779016475e+00,-1.069077144614765995e+00,-5.804799709463805080e+00,-4.283770477313993297e+00,
3.050912155957156457e+01,4.606106681557654015e-01,-1.786421783408648212e+00,-3.767496368095453629e+00,-5.161002352009794691e+01,5.216627076201683622e+01,
2.315569578759569680e+01,2.291395861306511961e+01,2.620470387786400934e+01,2.202472320071006706e+01,-6.822540263243255687e+00,-3.043575913387292431e+01,
-3.986505256680123210e+01,-1.091857216991320634e+01,-3.665600157842592921e+01,-1.529188843928654506e+01,5.606506675602012990e+01,7.165588423590719458e+01,
2.637000774103510281e+01,2.429372670881678786e+01,1.954914725853386059e+01,2.605830677381528204e+01,7.080904694248992826e+00,-5.151949696894728703e+01,
1.299201151253810060e+01,2.452852976413452168e+01,1.162316234115159475e+01,1.247957247531288161e+01,2.088240672989190116e+01,-4.574632031536704346e+01,
-1.024875276694533488e+00,-1.048077046941156887e+00,-4.295312894226672729e-01,-1.173526486539290259e+00,-9.264972274336395586e+00,-2.365970175351661542e+00,
-1.297653597745754395e+00,-1.927923380922841323e+00,-3.632618247902962505e+00,-2.149470255209126268e+00,-1.978285233061561676e+00,-2.361546027616087784e+00,
1.622536343392167169e+01,1.808826124670348179e+01,1.673106031755589385e+01,2.499832771449496605e+01,6.191093917782933609e+00,-2.522982203173902604e+01,
-2.386744665566245516e+01,-1.553710991347641901e+01,-1.649783168319404680e+01,-1.415662007669083167e+01,8.177069827419495951e+00,4.093981434933629870e+00,
2.531240998199928072e+01,4.772986205901218426e+01,8.215342439996986101e+00,1.565160203150010609e+01,3.078234877761861998e+00,-6.508860422223820308e+01,
2.715803494169402299e+01,4.007804364812930942e+01,2.078224983487756106e+01,5.419724660738719280e+00,-4.616712092631871656e+00,-5.647812652712276815e+01,
-2.479967065332340237e+00,-1.741803467138752337e+00,-3.325666390582225684e+00,-1.244045131529648573e+00,-1.550412752529062077e+00,-2.199675186136788252e+00,
-2.019171726167007463e+00,-1.774237261319614456e+00,-3.074404713653130727e+00,-3.587886454752550858e+00,-1.592643456893352738e+00,-2.011295918899691060e+00,
-3.139656922320319676e+00,-1.985128615612637537e+00,-2.422618412324284431e+00,-2.475932621991124183e+00,-1.625910204145252891e+00,-2.319277643787365228e+00,
5.684856136699839801e+00,-2.176111818594852476e-01,5.073535156988381978e+00,7.104824361470296168e+00,1.661352533112041785e+00,-1.107439133334253922e+00,
-2.048456796111449485e+00,-2.666489669076705482e+00,-1.529486087056514787e+00,-1.638375010124309084e+00,-2.306819829684367384e+00,-3.418529074516909461e+00,
-1.473991245024564023e+00,-2.707433379431996467e+00,5.514183599435599881e+00,-1.079474949297562958e+01,-1.344681355749420248e+01,-2.505961490836086725e+01,
8.631122267567313600e+00,3.833805489793257948e+01,2.453607657967779332e+01,3.890060450762515387e+01,-3.887720772270470526e+00,-5.546257544880774759e+01,
6.859725284702984816e+00,3.536794626237957928e+00,7.632661801705759252e+00,8.775718105533245605e+00,2.183880231409196071e+00,-2.570311029722921248e+00,
-5.251807166906671043e+00,-4.170250596127126563e+00,-5.725048336752409206e+00,-6.742071505859221325e+00,-2.210098780781795114e+00,2.019831073312389425e+00,
1.414769524366570774e+00,2.355490489659752384e+00,1.223046696589881410e+00,3.516540540989512742e+00,1.262851726331134072e+00,2.708252919696260808e+00,
-2.732735849221689861e+01,-2.841714342231325219e+01,-3.160200562305106686e+01,-3.057066660830771454e+01,3.078059815831554147e+01,1.304528225207725489e+00,
2.097064487454198911e+01,1.361423178370538878e+01,1.097514453276474278e+01,8.969003098398308893e+00,1.929245388905892256e+01,-4.830543302025365904e+01,
1.658691648843470645e+01,1.614185439031212255e+01,9.065069255272613091e+00,7.879225081422469579e+00,1.692585222639693043e+01,-4.874193722271855478e+01,
2.511034091454404482e+00,2.787405079026776811e+00,2.972370809967954219e+00,2.894513251932360198e+00,1.078277754527349863e+00,2.195196882251416515e+00,
2.797613960468570937e+01,7.583459838483451954e+00,1.805552780255936085e+01,2.606171037680921998e+01,-1.524618892397776371e+00,-2.147269946642995464e+01,
1.839970813264613980e+01,1.602207169354434058e+01,2.117567005611289588e+01,2.278544493709638985e+01,-9.250850848489543310e+00,-5.000685398663248016e+00,
6.163309157719631948e+00,6.761986579505635753e+00,6.858530217748899815e+00,7.658404321496158573e+00,7.218271790910955943e+00,-3.879062452867451771e+00,
7.807384899642022091e+00,-4.274133312627003534e+01,-4.738113118943643087e+01,-2.349184741344071625e+01,-1.591485514863861805e+00,8.046436338608540950e+01,
2.639166489212021460e+01,2.545902302500989833e+01,2.171932601394383155e+01,2.075285583695253422e+01,1.709108811583779186e+01,-6.170088629493827170e+01,
3.983864076228277984e+00,1.560382501808208922e+01,3.754552209663991835e+00,6.557627906886216884e+00,5.418079953104166790e+00,-2.354330991260882300e+00,
1.849761322744146952e+01,1.831448667142876729e+01,2.932639772070993445e+01,2.564717839393815879e+01,7.969118307304445814e+00,-7.952407968678021177e+01,
-1.214639389173544082e+00,3.464049495632865572e+00,1.734648046913842112e+00,5.045201097684427483e-01,5.892301110991596147e+00,1.177531059114306800e+01,
3.123326306902697969e+00,2.542399587705241437e+00,2.049707712809921922e+00,2.532037606169344368e+00,1.433375038495160236e+00,2.187887707134591686e+00,
-1.898855971442189627e+01,-1.761430275249322008e+01,-1.835253724971385836e+01,-1.126013707464726110e+01,4.157563539719656376e+01,-1.990461238644230590e+01,
-6.688268222095087978e+00,-1.440978951837995181e+00,-5.698084554731527973e+00,-7.275439345503585287e+00,-1.556699783256537239e+00,1.726526975839902667e+00,
2.476255442116810812e+01,9.452615161934005528e+00,1.843059580504180772e+01,2.797329812893225309e+01,2.050963303415718642e+00,-2.050005616251629803e+01,
-2.069809855746969074e+00,-1.930200071604119660e+00,6.078360102936136711e-01,-9.993775391406682918e-01,-8.625776689901774930e+00,-2.950348132556620318e+00,
2.444009694739643468e+00,3.676706127763524456e+00,2.445466630399502073e+00,8.574909153182406207e-01,1.780405331598756913e+00,2.050569459350300328e+00,
9.576900428211247984e+00,1.412639530585860781e+00,1.957245130134982958e+01,1.729703324957930022e+01,1.816739004003880709e+01,-4.720295701167838587e+01,
-3.272983817306941212e+00,6.844884709449278182e-01,-4.343295111171842748e+00,-8.121608087368683115e+00,-6.027976092077131476e+00,3.612064727726741475e-01,
-6.589234972513869915e-01,1.714359207094911186e+00,1.562599771097510359e+00,4.255848247622890490e+00,2.981571763990745527e+00,9.927010752314405773e-01,
2.888121789973264075e+00,1.249069078936689614e+00,-4.756187533098647502e-01,-2.347218086915086876e-01,7.241778807265902174e+00,5.609146914124909067e+00,
-1.482630208521104542e+01,-7.973277275758617222e+00,-1.472092848025563150e+01,-1.982158577495572516e+01,-3.930671349389067259e+00,1.016019957555003295e+01,
1.901227261763658660e+01,1.645360122117508439e+01,1.947197253370265457e+01,2.130990390631742315e+01,-1.237211906158668162e+00,-2.020945453348285525e+01,
-1.771189995487217317e+01,3.373962498143915667e+01,2.160425963516156145e+01,2.261568964215339861e+01,-4.717238353165787323e+00,-7.730079261742469043e+01,
-2.755053173006869116e+01,-9.888465259871896507e+00,-2.150746449486437939e+01,-2.645982471736546771e+01,-1.574030184728429260e+00,1.481645591883550495e+01,
1.052312228907772651e+00,-1.369228157997821882e-01,-6.647840986425961329e-01,3.841044783282244079e+00,2.904749827942570306e+00,1.131088227015300696e+01,
1.949670671817808731e+00,8.928584633311583474e+00,5.700564459299425346e-01,2.427262417928072735e-01,1.949164627646874148e+00,-5.029376197312608598e-02,
-2.354788077171266281e+01,-1.686194113353981905e+01,-1.510449156692331485e+01,-2.105657858799049365e+01,-6.472060626842023545e+00,4.324095365324576790e+01,
6.384088716102452210e+00,4.014250033840340137e+01,4.626956889294394415e+01,4.504393976746750639e+01,-4.306851296264392204e+01,-1.067177536828109474e+01,
-2.651732685332546691e+00,1.402253165754566666e+01,8.129945018022677772e+00,7.313518555788713016e+00,3.566059190804784063e+00,3.724022093848985193e+00,
1.722315129887969221e+01,1.881991564006782980e+01,2.079083295233236939e+01,2.390771565038565072e+01,1.263055896988104543e+01,-1.869476038734489265e+01,
-7.330876779680305377e-01,2.776284606572368752e+00,2.707810852182193528e+00,1.140137934899044803e+00,3.065461052333792846e+00,1.099873951936877958e+01,
-2.330981035822843328e+00,-7.813309401463160775e+00,1.142380028163919814e+00,-2.260639898091380828e-01,-1.032259572958204608e+01,-5.092794767464359218e+00,
3.177047925397105566e+00,2.812875178627687767e+00,8.502682257522100606e-01,-1.551053014031475552e+00,5.683783373799289329e+00,7.380387140870185547e+00,
-2.259384055854873008e+00,-4.151743610980052956e+00,-2.302518546031083968e+00,-2.467581364671665167e-01,-1.176993975000197867e+00,-1.781894133477124331e+00,
-2.543230310266040206e+01,-1.598739457321651791e+01,-3.072955752745716040e+01,-2.517975162157278390e+01,-1.768107953049458914e+01,6.748505920641845535e+01,
2.208781585521554014e+00,2.298390383510435786e+00,2.072689406135568735e+00,2.166659117863676709e+00,2.140832182443935583e+00,3.039290006979369352e+00,
2.046741170786470665e+00,-6.464029419871192950e+00,-3.071655167263523278e+00,-1.624567371400270588e+01,-5.408819019843533304e+00,-7.919575883039896347e+00,
-1.472443296930982370e+01,-1.118068704858284867e+01,-1.840331821318004657e+01,-1.910400839112486082e+01,-1.026244890946403032e+01,4.398557687907906910e+01,
2.072535402844721375e+00,2.568647033579007921e+00,2.734065575381322333e+00,2.679017850350843943e+00,1.891109905180661910e+00,2.341271822216904663e+00,
3.467005640267128985e+00,3.067494712991998274e+00,4.495985502331909522e+00,3.695601019671673093e+00,-3.034907504012354651e-01,6.971620429512389583e-01,
1.685200855946004384e-01,6.329969422714612826e+00,-4.035429814993912068e+00,9.671991773266288561e+00,-1.203089486099169036e+01,3.436827083891179058e+01,
-3.340771543096361995e+01,-1.759649646479840612e+01,-3.081908980194505077e+01,-3.101798651654721439e+01,-5.772489837897915699e+00,6.057748174056069956e+01,
-3.607643411530631616e-01,-1.739349588800590540e+00,-1.473725254018855901e+00,-1.753783052877475601e+00,-4.344620564393658846e+00,-3.555797001281586933e+00,
-1.865264883918509398e+01,-3.714205701165488094e+00,-2.173193066230928849e+01,-1.761876020391123987e+01,-1.491822969087333917e+01,5.265012442079260069e+01,
-2.472710167757276523e+01,-1.354633818093087472e+00,-1.668477240482992840e+01,-3.002719049504719706e+01,-8.165273614811185965e+00,2.419282491854392347e+01,
-3.243043733641969517e+00,-9.888555316934757755e+00,6.964726195498025518e-01,4.844390462397620833e-01,-1.563836905910843278e+01,-4.591802871066528624e+00,
6.713019632848637563e+00,6.396021632161593473e+00,-8.016749714308613051e+00,-7.494373194244022152e+00,2.136149441040165087e+01,-1.523640592742370643e+02,
2.694560134805397666e+01,1.527900022736400487e+01,1.813178938742917978e+01,1.890927339404002083e+01,-9.307298865970286883e+00,-4.862856394192934140e+00,
-5.742241449127035047e+00,-4.758539918915474232e+00,-4.430547848844624603e+00,-7.560872442619780642e+00,-5.036717915795440703e+00,2.765890756502061176e+00,
3.398765435864843365e+00,1.458845115352104571e+01,1.428857054629725987e+01,1.135392853057676099e+01,3.798185669098252948e+00,-7.437569845120280831e+01,
3.204634883729718808e+01,2.905890976326417174e+01,3.209255928918594947e+01,3.631187171265295888e+01,-2.435374826319806019e+01,-5.951944082816186032e+00,
-4.104645763761328503e+00,1.002689518971208926e+01,3.171698968704895094e+01,3.518115542403416640e+01,2.330282499232525506e+00,-5.341643322825213858e+01,
3.215015719175668352e+01,1.528755100947853274e+00,3.244985982406942071e+01,-2.269926640721602240e+01,3.401374812983595675e+00,-3.686412820479783647e+01,
1.479376196646205521e+01,1.546379966765089087e+01,2.163137619787035959e+01,1.732080110160432440e+01,4.757476585112754286e+00,-4.880600602632478768e+01,
1.810701755366477705e+00,-5.028617067371936145e+00,1.074274227411380878e+01,-1.000358285041159156e+01,1.057241160765174470e+01,-1.755852983012445634e+01,
1.262123293117003975e+01,6.198025119785143033e+00,1.617099537237610107e+01,2.045809687961994072e+01,4.158577773350719653e+00,-6.050303510648809890e+00,
-1.723485070033391864e+01,-4.702775617843524714e+00,5.801314221460301290e+00,-2.542087492091460899e+00,-2.875997161323421203e+00,1.138938276836476575e+02,
1.924025933760260987e+00,3.230972386743210745e+00,1.821281586936707164e+00,1.765125587024203968e+00,1.693618090336949100e+00,2.318809641720643189e+00,
-2.903591136248669269e+00,-2.272091424124047077e+00,-3.118493998534379585e+00,-3.395433159421963332e+00,-1.366481276278830537e+00,-1.657498994424124517e+00,
4.943705267851365548e+00,4.511727539115758745e+00,3.546258754187639362e+00,5.880756958224498732e+00,1.159685792856086906e+01,-3.876974199419909173e+00,
-3.640621992716822630e-01,3.346648848035562285e+00,1.065117330630556580e+00,6.475426505837213575e+00,1.771763395578277889e+00,1.473180450973250011e+00,
-1.544612334213065763e+00,7.870752190508746082e+00,2.097137325152358400e+01,1.872151909548549753e+01,1.125839410441487765e+01,-5.424173624933596471e+01,
2.685474505536995515e+00,1.473642353676132188e+01,7.781852237240350911e-01,3.134567478683381037e+00,6.663092201425459216e+00,-5.364648501869766495e-01,
