8.333562287081591080e+00,-7.187645182519825093e-01,6.886775194509575648e+00,-4.977380605706143157e-01,-2.871403903932820967e+00,-7.907184803635397552e-01,-2.317182790004894688e+00,-3.732405346936148310e-02,-4.711373814028694262e-01,-7.840930565300580080e-01,-3.787356598817725462e-01,1.321605459569620056e+00,1.288207742005446077e+00,2.560313940073426942e+00,4.873595588687593128e-01,1.055116690660787615e+00,2.137973114393574736e+00,-1.869250806552159139e+00,-1.862628513638713734e+00,2.499576185379820181e+00,-1.977164034813507332e+00,7.238582528939555560e-01,1.512034461231281414e-02,4.862567820682096031e-01,-2.645930364577459670e+00,-6.771244781556496894e-01,7.436859379035268836e-01,1.313029488738288064e+00,-1.335227293631344292e+00,6.563322145638840865e+00,-6.799006958472819662e+00,-3.916918473092629416e+00,4.471031997906411148e-01,1.243353022165271105e+00,-6.696224466646180096e-01,1.774171292336026218e+00,-1.407909451383228427e+00,1.728925237934075598e+00,5.633522171056629668e-01,-1.169932077992343000e+00,-6.237464383902036058e-01,-1.054937899045598870e+00,-9.848180307162248681e-01,-2.064946059937853434e-02,4.479446669066885489e-01,1.063655833446791377e+00,2.432067091841820350e+00,1.146032262404581781e+00,9.463429643150478299e-01,-1.157853559748543981e+00,
