9.794492043023078409e+00,4.207577285599026218e-02,3.034854467470446071e+00,-8.740530837330300340e-01,-1.062722253906760672e+00,5.610312645855652230e-02,-1.765716432470944675e+00,-7.364292404324928043e-01,-5.674464936863015119e-01,-4.356123075465880290e-01,7.131730317885985881e-01,8.472082823347891756e-01,1.404896174140579213e+00,2.482365244565667428e+00,-4.175070868505720845e-01,8.317755230728512972e-01,1.371264941586802566e+00,-1.296147499387246826e+00,-1.723711689688542936e+00,1.878368736927997107e+00,-1.451970449034713395e+00,-5.153830259127527985e-02,-7.813612602966257814e-01,-4.358638287276640488e-01,-3.074244960293065265e+00,3.373840756171359589e-01,9.264109616805816794e-01,6.599079441697088821e-01,-6.308708163208391895e-01,7.689633321497317375e+00,-2.063073799974394884e+00,-1.054645478981875995e+00,-1.108205948120146278e+00,1.279716886028412048e+00,-1.453400492047149495e+00,1.158321063069206680e+00,-1.048944037236028137e+00,5.231338693225517922e+00,9.439099887877107076e-01,-4.170054004181293905e-01,2.023769771379690052e+00,-3.508466832985249750e-01,-1.981190266154139623e+00,4.550485061012622623e+00,-1.303017947002596821e-01,1.135004265635507492e+00,1.867355410807473470e+00,1.258797953774747347e+00,1.003743833227674631e-01,-1.893009944701679048e+00,
