9.652553294934557826e+00,-1.044177806977971135e-01,5.376897154564832526e+00,-7.422456531263802448e-01,1.370962721159714626e+00,-9.227522845656671580e-02,-1.903181964330454168e+00,-9.791126593909829090e-01,-7.825386258460172995e-01,-6.489949971494141101e-01,1.057167175864418773e+00,5.473375832455528167e-01,1.454256141978199413e+00,2.481494392424057782e+00,-2.631933449644867640e-01,7.885627846670447694e-01,1.489492433386984338e+00,-1.434456450570587016e+00,-1.743844618965239235e+00,2.016609447253939091e+00,-1.588724405977326004e+00,9.538029541252479593e-02,-5.567578377341755314e-01,-2.805531338103895989e-01,-3.095018070802136645e+00,1.820283410506580712e-01,1.343149358781417835e+00,8.010107998478708247e-01,-1.127910344465457015e+00,7.549283790021410923e+00,-2.212470413490548182e+00,-1.152784890277965379e+00,4.916998686763125216e-03,1.493647957963998518e+00,-1.913004243449926811e+00,1.296898178107622090e+00,-5.158192438550940340e-01,5.019175066694725906e+00,8.120143768441142607e-01,-5.607381061492386909e-01,6.862838790082511631e-01,-4.938546695525076191e-01,-1.602024632845498786e+00,4.810923474968682001e+00,-2.849000285546983147e-01,1.350036852065080950e+00,2.004949559946856752e+00,8.504977405417201153e-01,2.473678652919157894e-01,-2.271956506669044806e+00,
