9.866358913960768362e+00,1.118641406957072704e-01,2.105019209849944506e+00,-9.235780847287737849e-01,-1.471173308468744390e+00,1.287709628581209242e-01,-1.709162597736870959e+00,-7.363817974508102271e-01,-3.430686127151397757e-01,-9.228957484959625646e-01,4.462960353265401081e-01,7.262917240186073098e-01,9.983983366035401597e-01,2.042346505998160477e+00,-4.997642585276010352e-01,3.563598691548511277e-01,4.837900120022182171e-01,-1.238367727711373822e+00,-2.078327933859587695e+00,1.820789615650927340e+00,-1.396291479448681594e+00,-1.219666652064729934e-01,-1.026339584251737325e+00,-5.196464340377170421e-01,-3.287030023921073241e+00,4.211298604082200359e-01,1.067395413672211912e+00,5.981711062925949562e-01,-4.030035523034008471e-01,7.754141286665092281e+00,-2.307635687591127471e+00,9.465104323057164926e-02,-2.769460590957132595e+00,1.390527365563007711e+00,-1.681021435915579731e+00,1.099933402449212227e+00,-9.479880886895293290e-01,4.800253049652222437e+00,9.934785128677419141e-01,-3.515393675602696555e-01,2.601942543103828331e+00,-2.862455846136636173e-01,-1.609570644451868038e+00,4.452724572601486130e+00,-4.938638970353634999e-02,1.485870320606208939e+00,1.810639936304830888e+00,5.986562965317345775e-01,2.998854113708515276e-02,-1.792438947681101347e+00,
