8.855384340756652151e+00,-7.579160185777984449e-01,6.369149064994051201e+00,-3.065538305311450995e-01,-1.301008890619827163e+00,-7.824274838818012778e-01,-2.432735268897183722e+00,-9.873030669128658454e-01,-2.966579497108021157e-01,-1.051203927202228883e+00,5.770992712775095956e-01,8.457712240128848480e-01,1.296355034006626550e+00,3.379074011236183228e+00,4.792325140561523034e-01,1.254938394770125587e+00,1.073649798197651606e+00,-1.976605215040416308e+00,-1.662444637258467139e+00,2.568283207497699117e+00,-2.105822934071592822e+00,7.558474925034079916e-01,-4.941578871605041279e-01,4.722509443681622843e-01,-3.383997081279457309e+00,-5.963031770290242450e-01,1.302539002961613068e+00,1.386345549087560691e+00,-1.378404707885621416e+00,6.410484649708562799e+00,-6.823372256217654197e+00,-4.464657919390766949e+00,1.909789765425152774e-01,6.643754035449301876e-01,-1.521625286142678224e+00,1.853131052388865996e+00,-1.333073307156873444e+00,9.185774263531176764e-01,3.740967754657969491e-01,-1.191637561824130831e+00,9.133399316830000947e-01,-1.107548414869811815e+00,-7.787162750560840951e-01,-3.294557023422224895e-01,-1.241475169924239896e+00,1.228161699252907635e+00,2.538992842687138651e+00,1.658340964129968675e+00,9.261895247185619739e-01,-1.369888847850917468e+00,
