8.311759892558072238e+00,-6.507108973909799809e-01,5.257982778567984461e+00,-6.367626344379397896e-01,-2.760246682153694842e+00,-7.558219091981551729e-01,-2.218646951693045821e+00,-1.359594098412561625e+00,-5.983735775381457955e-01,4.691569493930681373e-02,3.766149248401265415e-01,8.994195069096968531e-01,2.502162830724544484e+00,2.627586679272873926e+00,4.389678950485246256e-01,7.492914900093033959e-01,2.139842531205117471e+00,-1.773799158737216164e+00,-2.177732603825845548e+00,2.452253826970347106e+00,-1.871133082979904882e+00,6.599604230604340094e-01,1.215779599421817070e-01,4.406922648099428907e-01,-2.570673992254104867e+00,-6.963820400534238564e-01,1.014029798336891330e+00,1.234159529846534431e+00,-6.733692245428972711e-01,6.682003453805063664e+00,-6.910196798540508389e+00,-4.224964943464240008e+00,8.592901099930659869e-01,5.050475074812884602e-01,-2.008158940593566033e+00,1.701661657154520668e+00,-1.562500217025458493e+00,2.208643656369581709e+00,7.014810030954166109e-01,-1.127670134614088271e+00,1.213665684279965351e-01,-9.856118073397770463e-01,-5.424823768782705002e-01,1.539132945844325605e-02,3.321442298894704548e-01,1.360132405717288329e+00,2.340026484676837715e+00,5.127308634832261625e-01,9.326606059137848570e-01,-1.323227400386971286e+00,
