9.986974871081827132e+00,1.303887636824253293e-01,1.207936813677420229e+00,-8.394153194357194536e-01,-2.995189474484721615e+00,1.621280131111895728e-01,-1.760158409245778932e+00,-5.588845392166876813e-01,-6.119656372787900533e-01,-5.244455539848589254e-01,2.976238199946205643e-01,6.878413933896758703e-01,1.460902934748041782e+00,2.495506602987801692e+00,-6.096828947022921996e-01,1.247846140737296272e+00,1.116735070863406509e+00,-1.283590138254679491e+00,-1.797518075754899192e+00,1.868057468436657320e+00,-1.450759346955050155e+00,-1.438983121608846949e-01,-1.602660846807573591e+00,-6.421569311781512024e-01,-3.305069415427524859e+00,5.342686613625636793e-01,1.700757398854140456e+00,6.245529652986810953e-01,-8.296009928697902769e-01,7.931404194205406100e+00,-2.346743493734426700e+00,3.122813861257660029e-01,-4.823772972473141074e+00,1.087175360486696052e+00,-1.156059927267410803e+00,1.142827662286713508e+00,-1.030796869322496478e+00,5.148664247047233467e+00,9.098391363430793355e-01,-3.600080749092772203e-01,2.706954278174145578e+00,-2.980297819811312254e-01,-1.509839172319655143e+00,4.453065692407417231e+00,1.811880276365015682e-02,1.715366533320664244e+00,1.861174875232397774e+00,9.263982267978316809e-01,1.154999641302057248e-02,-1.428111913232606112e+00,
