1.004382395411516526e+01,1.610040439135931867e-01,6.412295151218504463e-01,-8.975340922792147680e-01,-2.001575346551746293e+00,1.887559127564888972e-01,-1.710471504471918980e+00,-7.753904491592800152e-01,3.484123967634532998e-02,-6.710114647895885076e-01,4.562678190358954722e-01,9.627191625979046874e-01,1.140024522026214182e+00,3.609921002820570379e+00,-6.099877167679558232e-01,8.868975404912242677e-01,7.438895242991822032e-01,-1.235375566581393247e+00,-1.709034241537028098e+00,1.819174558469500491e+00,-1.400188341990396657e+00,-1.735773213947737759e-01,-1.464000047599354648e+00,-6.378232681098127133e-01,-2.468585911147501921e+00,5.347471173456137539e-01,1.394156246951626210e+00,5.812368167529076146e-01,-9.137238778400704753e-01,7.987759346767234980e+00,-2.020618084592267216e+00,5.450881405462311147e-01,-3.977749736682719472e+00,1.461696301211445892e+00,-6.085174114517839516e-01,1.094959888761301903e+00,-1.509779867977568024e+00,4.010063803099987112e+00,9.678179563663995566e-01,-3.213811757409986147e-01,2.551366878870670263e+00,-2.585985451100448196e-01,-1.961542052190648366e+00,4.409366445278211089e+00,3.652851588762130730e-02,1.407733627352192762e+00,1.811563558757878223e+00,9.028116727592591095e-01,-1.960629756058654763e-02,-2.254671811799421555e+00,
