9.860872283635528035e+00,2.068369222845771183e-01,2.614487262669977774e+00,-7.071003905884003515e-01,3.452852933472978059e+00,2.741036776842097344e-01,-1.838873700751689988e+00,-6.136843392593145374e-01,-2.406850405029259676e-01,-1.936482576433429248e-01,-2.803537875203035767e+00,1.057467028730724623e+00,1.217194219335738126e+00,1.307229786117563686e+00,-2.224660935486941327e+00,8.226654906044665871e-01,7.341057483027692010e-01,-1.351813499308164079e+00,-1.687098096251053780e+00,1.942954302126670418e+00,-1.534001143765872044e+00,-2.292059134163554612e-01,-1.299616427715846179e+00,-1.421474167271483457e+00,-3.768595231195629225e+00,1.359074275454382308e+00,8.492885835404310191e-01,6.583450062294803340e-01,-1.115389587073289279e+00,7.809461091869640548e+00,-2.258458665399170062e+00,-6.438488090477593184e-01,-1.277758967548799696e+00,1.545318557420791938e+00,2.951738471671703223e+00,1.208462265150294312e+00,-1.220422447742020688e+00,4.566463196618907538e+00,7.779568959924605398e-01,-3.605024809023550936e-01,-2.513635988418184475e+00,-3.014770595696865674e-01,-3.417246084168088949e+00,4.521961856822928283e+00,1.713871154232723126e-01,1.662047045800614464e+00,1.939879201219729454e+00,3.096124617885004926e-01,-5.131644081279160274e-02,-1.970827829485286120e+00,
