-2.948521264504615491e+00,-3.471815658914847003e+00,-3.388836198146823797e+00,-4.041013575164614124e+00,-1.705823961443077463e+00,-9.905336285085453163e-01,
-2.925975872398967947e+00,-1.719730836584607125e+00,-3.458256421073734099e+00,-2.937684268417489086e+00,-1.144806303370144329e+00,-1.202754278226805695e+00,
-3.381685382536103734e+00,-3.216393545879375093e+00,-3.166555890492944503e+00,-3.074728914558807702e+00,-1.201933593196159444e+00,-1.224250576835687943e+00,
9.917180547159791359e+00,7.026094672792282836e+00,8.552813174539148022e+00,7.757371522486269377e+00,3.241905680114002930e+00,-3.448914334001115911e+00,
1.712521171696353761e+01,1.617054632080914089e+01,2.067395201097191304e+01,3.076346061256541731e+01,1.208187108800935583e+01,-3.314242232009289779e+01,
-1.180615909801788099e+00,-2.297234573835980065e+00,-1.903044485358535542e+00,-1.789502562743257252e+00,-2.226210814545682037e+00,-3.397820399039729544e+00,
-2.758228676194567797e+00,-2.645017701210647498e+00,-1.191212634798503922e+00,-3.969313022048759354e+00,-1.950951367090371091e+00,-1.832118117192962581e+00,
3.746677755533929144e+01,2.201583403131677130e+01,2.735674338195473965e+01,2.484576777379561463e+01,-3.709518105612711025e+01,-7.541660166137122090e+00,
6.994920995550077514e+00,1.949210268856205985e+01,2.308770433452774640e+01,1.952981807717699425e+01,-2.560943730837900034e+01,-2.448187107396010376e+01,
2.590014219523906647e+01,4.578728987293087194e+00,1.460057590891055668e+01,2.265444563842375558e+01,2.906401871160937400e+00,-1.488874230111690444e+01,
7.078128927578555718e+00,-1.652632201050437399e-01,5.749340648718741953e+00,7.004101774645774547e+00,1.503525414648440028e+00,-3.228302044141344584e+00,
-5.761998982075893228e-01,4.117439834919601083e+00,2.086827249536674245e+01,3.602096980539108984e+01,2.228911684047712427e+01,-5.545375800388818277e+01,
2.233059970803211058e+01,2.995999214038427994e+01,2.837496179509273020e+01,2.791988487231344962e+01,-3.990426412238859744e+00,-5.462676979907059405e+01,
7.006312151691335366e+00,1.257311259060715436e+01,9.519704414710220775e+00,5.974376026209184509e+00,-7.183486855189047837e+00,2.553243793313978216e+01,
2.381670549096409406e+00,2.636619125062749092e+00,1.887369289232884384e+00,2.806207302489402533e+00,1.322221511169810348e+00,1.972485094371669634e+00,
1.968864663234284507e+01,2.885071302024651274e+01,1.858265481099401839e+01,1.847682233135839169e+01,-5.813654741861830288e+00,-5.093077155057611094e+01,
1.359373184754950259e+01,1.862735417238310376e+01,3.444685139161452980e+01,-1.997046780289297629e+01,2.003315071519549306e+01,-3.114481512122124229e+01,
-2.415302144289484421e+00,-2.171042700977113604e+00,-2.483258947872244438e+00,-2.104881900719131504e+00,-2.123741192174331438e+00,-2.900481355446849374e+00,
2.427533137460938306e+01,2.540588439189263781e+01,2.432809709572093126e+01,2.447535469650183515e+01,-2.639634442616287657e+01,-1.302767595585895277e+00,
2.502977124554114141e+00,2.594958380443714852e+00,2.357960100341962573e+00,2.347558023027357610e+00,1.631864994306209349e+00,2.068066816145069708e+00,
-6.385991453128429640e+00,-4.432290712848214187e-01,2.032001484838743099e+00,-4.900322302346698855e+00,-1.196565268605120469e+00,-5.079854603506438693e+00,
2.885079284763106600e+00,2.797223805745567837e+00,3.584107138928643188e+00,7.961002022994487781e-01,1.464626155159752585e+00,1.718383289975143891e+00,
1.344952936356049955e+00,3.636633906015457107e+00,2.413309083274690181e+00,3.225295821558425424e-01,1.711608081525857639e+00,1.901371118972981389e+00,
2.462179333339387544e+00,1.842875325182918189e+00,2.961454817414739704e+00,2.374588206281889047e+00,1.536029911877406562e+00,1.670909053680849521e+00,
2.416164894251015838e+01,2.717782659859580008e+01,2.523777483655334564e+01,3.242903722011978118e+01,-2.000823511612361827e+01,-4.699819274277539982e+00,
-9.717544991300146595e-01,-3.253543049900485595e+00,-1.557978037929035109e+00,-1.525975152812351299e+00,-1.926957060935737820e+00,-3.152066823973616927e+00,
-6.908806946662930937e-01,-6.049381160493850551e+00,-9.986421976505244213e-01,6.227615617439330897e+00,-2.393423696956722679e+01,1.016084348225154343e+02,
3.004503140665228944e+00,3.088949395358088879e+00,1.336459234195719770e+00,2.681416734099166366e+00,1.759068513872106276e+00,1.745038104174824412e+00,
-2.899032132406614437e+01,-1.787612807455940001e+01,-2.208102892018501251e+01,2.333007028401322458e+00,-4.027372652166528511e+00,3.254364284022847187e+01,
-2.501628295928248313e+00,-2.578636928754646007e+00,-1.554983536257467325e+00,-3.087869613441410088e+00,-4.407368498570856552e+00,-2.036270570350775522e+00,
8.885497045242413350e+00,-6.361043647158695080e-01,3.788164877062184299e+00,5.576558181318556073e+00,5.640161819064297255e+00,-8.329764281732049414e-01,
-9.355076740607378483e+00,-8.726456463966654198e+00,1.115570297988245814e-02,1.110337318273147389e+01,1.388601242311564832e+01,-8.414941468274365377e+01,
-5.491802111865671243e+00,-5.509707544163191528e+00,-9.606872193229721857e-01,3.362816917568316466e+00,-2.498828349534909066e+00,-4.433901660242334231e+00,
-1.715949088829060942e+00,-7.784980593449725816e+00,-1.852428956524520842e+01,-3.735315118718663285e+01,-1.629771865924214413e+00,4.898322384562057152e+01,
2.902116693491781874e+01,1.801552859637907034e+01,1.943670035517399697e+01,2.139718570129135600e+01,-1.381861791765957026e+00,-3.815647552911290319e+01,
1.793033681348253028e+00,1.501987410993764538e+00,1.001386854382215086e+00,1.682814097319174973e+00,1.911553871742970534e+00,6.898345793639728996e+00,
-1.510480159816738954e+01,4.690849931958162955e+01,3.442737672239415048e+01,2.642644800590993981e+01,-2.373928249261018664e+01,-9.449768950829583503e+01,
-9.670538018645993272e-01,1.664287685185616894e+01,1.002684784439897392e+01,6.499956477905675101e+00,-7.178880571941186339e+00,2.724666671824095943e+01,
-1.301467626085153206e+01,-4.572239821204607146e+00,-1.094393027730244228e+01,-1.597233647415702862e+01,-2.207362144948346927e+00,4.427112257008711360e+00,
-2.370139450061293562e+00,-1.652429567976216873e+00,-3.488959183608498993e+00,-2.479435136703639131e+00,-1.676947508711045920e+00,-1.328411137627038885e+00,
4.340932541432631631e+00,7.840304085757605179e+00,7.991254797052068426e+00,9.099557467609088235e+00,5.958791928635877255e+00,-1.617519570792930850e+01,
-1.721697434928823212e+00,-2.663938696948210616e+00,-1.945529385858725702e+00,-1.382226072526459459e+00,-2.239316387823032883e+00,-3.415720690804526338e+00,
6.897281170636305525e+00,9.505987783396985691e+00,1.941457546595912831e+01,1.039127358898253739e+01,1.426710460697220917e+01,-3.758548620228106074e+01,
2.335835934026102123e+00,1.491265991023853488e+00,2.134896190679078209e+00,2.299790210635465737e+00,1.361501772133212107e+00,2.253567117131825892e+00,
-2.397944401357006594e+00,-3.959982684939016728e+00,-2.546715453792982142e+00,7.869432754899366445e-02,-8.475979424124874262e-01,-1.050555322665393865e+00,
2.997345343485101621e-01,3.480963547248289558e+01,2.083110495402054241e+01,2.294905543825407435e+01,1.083133603943345680e+00,-6.037528342315265917e+01,
2.154259660538675014e+00,1.729770461177245311e+00,3.226298655518631264e+00,3.350371297691598471e+00,1.826165730194474923e+00,1.863967606332312510e+00,
2.419813720553310077e+01,1.761828356223862713e+01,2.284848405699297658e+01,2.563833243431480113e+01,-6.711847450267049986e+00,-2.881010472147043799e+01,
2.033235239707662068e+00,3.465738514839103335e+00,8.061681663059168113e-01,2.511156436171987583e+00,1.610586117643747039e+00,2.330900973109189422e+00,
1.580054661004834671e+01,1.744507695282934634e+01,2.484036549255023374e+01,2.077968170616354726e+01,5.437194921283508897e+00,-4.551059619845693760e+01,
