-5.661531243642812683e+00,-5.707070122527758471e+00,-5.170182312570244854e+00,-5.213597838594597356e+00,-2.596101899295712556e+00,-4.094147969167837964e+00,
-3.089672052145901127e+00,-1.883869182457101887e+00,-3.622511273939224896e+00,-3.101424859388326016e+00,-1.371439332621645857e+00,-1.348881144330989157e+00,
2.834182623674816526e+01,6.321409811103960941e+00,2.237568317978815102e+01,3.172436150171765945e+01,-3.561079067499190565e+00,-2.528023839440702503e+01,
9.942296983987953141e+00,7.051634085924909812e+00,8.578677372683435109e+00,7.783692356786885647e+00,3.293267950680926148e+00,-3.210705045371442079e+00,
2.392129280065753605e+01,2.526365244303344681e+01,3.511087261949915472e+01,5.203755728534875402e+01,1.618003245505958532e+01,-4.259329589691247975e+01,
-1.382534051168062161e+00,-2.499401940415834300e+00,-2.105289645118583852e+00,-1.991202201228731816e+00,-2.494171969837227554e+00,-3.574986533649489484e+00,
-3.079026714657551622e+00,-2.966212655359146577e+00,-1.512498390184336516e+00,-4.289188196929242025e+00,-2.342954423340778192e+00,-2.140334750394384145e+00,
6.594583274044290988e+01,3.170100506460454781e+01,4.492596453429391090e+01,5.081628781357795077e+01,-6.025592045257033647e+01,-1.518347212723058348e+01,
1.419602744688180351e+01,3.746777229607999971e+01,5.717109729181034794e+01,4.853590546004227235e+01,-3.895125948675043048e+01,-7.422573245359026828e+01,
3.984890333604352719e+01,2.353942995803933158e+01,3.162524233353450498e+01,3.978724384337488118e+01,5.245397575616000729e+00,-2.861366510782483985e+01,
3.636557383781396879e+01,1.685494389505386792e+01,2.692088721415963093e+01,3.435477584580298327e+01,-3.687788379057475918e+00,-3.262555522213407500e+01,
8.607764437195811746e-01,6.961580763847905473e-01,4.654434791831729257e+01,6.179516753946032281e+01,2.346470156483568914e+01,-9.828087460171460066e+01,
3.425990711285788137e+01,5.085165801927609408e+01,4.951451978071549576e+01,4.263220022807645648e+01,-5.722224455008418253e+00,-8.879974790133762497e+01,
1.693361467446282020e+01,2.765661914677158961e+01,2.232890003494824782e+01,6.258602116032326634e+00,-2.006726567591228871e+01,6.989858069100449711e+01,
1.915511698885592473e+00,2.169145623675573731e+00,1.419415454518884845e+00,2.339422700733507554e+00,6.980106335705509313e-01,1.571986156802778423e+00,
3.426311412520789190e+01,4.921891971381275255e+01,3.096439264197870855e+01,3.143657282725400748e+01,-1.037172111108170647e+01,-8.684891010887618279e+01,
2.643010929626490224e+01,2.812094623061410559e+01,5.081493250943224638e+01,-3.579975986377347397e+01,3.005063043222676455e+01,-4.687125640009850969e+01,
-2.714579420318738112e+00,-2.470784398883218991e+00,-2.783136700062665003e+00,-2.403706943325369050e+00,-2.516445634320073843e+00,-3.170154048104850464e+00,
3.598194559342964283e+01,4.224553594386124900e+01,3.365568178446726222e+01,3.820953379918717019e+01,-4.085252879726408537e+01,-2.188764348199228049e+00,
2.950346164324699760e+00,3.043177658141499098e+00,2.806415508359741295e+00,2.794412283583382894e+00,2.223541633971130693e+00,2.474126764016382651e+00,
-6.612172005791359553e+00,-6.646104771828371671e-01,1.804638523546160833e+00,-5.127846988991392685e+00,-1.625452506254720264e+00,-5.224455895489412249e+00,
3.052230240550161344e+00,2.964758773183068463e+00,3.751748762132580683e+00,9.632321078784786827e-01,1.691529745187089206e+00,1.867520825911606064e+00,
1.416707830484378938e+01,2.734454813994139144e+01,-1.415918078442674499e+01,-3.286026217655692694e+00,1.818354580276898602e+01,-5.658061989439987727e+00,
-2.530030245636533337e+00,-1.775127987272413499e+00,-1.932224156227466683e+00,-2.753502778133884998e+00,-8.784320465087850360e-01,-1.930073098222342187e+00,
3.634903344803758074e+01,4.631013726797128527e+01,4.582357982688094467e+01,5.820452083912780239e+01,-3.395941223029557676e+01,-8.687570072203261162e+00,
-8.221228402235165600e-01,-3.103756377044007753e+00,-1.408107806940601892e+00,-1.376578214931070576e+00,-1.725851276962412362e+00,-3.018244940483632899e+00,
-1.471456868585408140e+00,-1.182086661603783639e+01,1.282929895280432664e+00,7.759183789292053213e+00,-3.516165141633584312e+01,1.556248966714351525e+02,
3.298071479781299331e+00,3.382954976045402073e+00,1.630574602463457756e+00,2.974377801698491641e+00,2.127403461524104866e+00,2.021886663390281225e+00,
-5.840186605819169330e+01,-5.292054735830042489e+01,-3.561522574796556029e+01,2.730404184876721985e+01,-8.923608263095838211e+00,6.103419275567376445e+01,
-3.954140524746452723e+00,-4.329542345152917804e+00,-4.780463844302953014e+00,-4.083465822154635383e+00,-2.129647409336027142e+00,-2.566348369529961038e-01,
9.043033121984842992e+00,-2.673652969624023434e+00,3.942474115406367385e+00,5.744711006314108026e+00,6.101639431735553565e+00,-1.959428851409343419e+00,
2.577767345584130609e+01,3.584757653085717521e+01,3.257965752351916677e+01,4.139734353567318692e+01,1.975134521469126270e+01,-1.180942972502656829e+02,
-5.070004929422412543e-01,1.708516447120802084e+01,6.737170888775364297e+00,3.359061729917959127e+01,1.072553783518511317e+01,-2.412664165084771284e+01,
-5.184311942001763818e+00,-1.494423543641489083e+01,-3.998913519385862259e+01,-8.215185958313389847e+01,-3.349488799080714951e+00,1.047744160984435240e+02,
3.529546757510721733e+01,2.696193148376810456e+01,3.547378101013865859e+01,4.095088164850478307e+01,1.671170414628674195e+01,-4.311344767409727297e+01,
2.110239633005928983e+00,1.821104658571361279e+00,1.321247131949078168e+00,2.003052086184466063e+00,2.517556330352880067e+00,7.103968665612098832e+00,
-2.562363550547743785e+01,7.925361711718423408e+01,5.988554927008092932e+01,4.371039488316491628e+01,-4.339175479499255772e+01,-1.576227243507178173e+02,
-8.652577747196678049e-01,1.259030363032225708e+01,-6.725401762579781284e+00,1.773674574827423811e+01,-1.922529015253718043e+01,7.070131454229691315e+01,
-1.304226338709874611e+01,-4.600204139840708528e+00,-1.097275482215177966e+01,-1.599397072307756495e+01,-2.263387220701750913e+00,4.188164719648529655e+00,
-2.695844424925900817e+00,-1.978527391767857635e+00,-3.815140356936352450e+00,-2.804263644660824450e+00,-2.067765715602348120e+00,-1.645674507139482046e+00,
2.873623418324320866e+01,3.126267606194506854e+01,3.534127811855416468e+01,3.477532408857824464e+01,1.437992882331992917e+01,-3.903635266310632090e+01,
-1.988007078493395197e+00,-2.930614162893152130e+00,-2.212324031028733984e+00,-1.648224287832372292e+00,-2.594042127895539451e+00,-3.650231304626346152e+00,
1.756968758738458192e+01,9.979354171753858083e+00,3.137544671159750109e+01,6.291911970468751036e+01,1.648362960452591253e+01,-3.707692412676608740e+01,
3.088184031075002167e+00,2.898810127895601330e+00,2.774284250662207185e+00,2.786141652661483725e+00,2.129212725356478764e+00,2.840263312961047060e+00,
-2.796263242505689917e+00,-4.036249521409760455e+00,-2.208914934786839535e+00,-1.139878343939945138e+00,-1.993273639314612211e+00,-1.716975137763492754e+00,
1.711794332272853270e+00,7.355921705633475938e+01,3.618990378838340405e+01,5.047657292998761136e+01,2.054790732922688878e+00,-1.234608386231488595e+02,
2.509574672424604191e+00,2.085602575461951158e+00,3.582257004397084721e+00,3.704856554793008350e+00,2.271782594901439634e+00,2.199535263575644883e+00,
3.501562420205309678e+01,2.972036760043228654e+01,3.697092833309653059e+01,4.329153068600822962e+01,-1.096847288391407460e+01,-4.680108062815814662e+01,
2.308850411283166260e+00,3.741930677393434657e+00,1.082531586020270442e+00,2.786727414949018655e+00,1.987602629164810786e+00,2.572352414691565059e+00,
3.322757475594779919e+01,3.192270289878713641e+01,4.512669354059659099e+01,4.166385213741005344e+01,9.475204285581364516e+00,-8.575435197552890543e+01,
