-6.670502615791664702e+00,-8.349972930966604423e+00,-4.806244283210675539e-01,-2.105299880206211061e+00,3.757357782690803560e+00,-6.015501545846752007e-01,1.960272197818965223e+00,5.068503369282216786e-01,-7.765651796844669441e+00,1.030310867431721178e+00,-3.030884548462379757e-01,-1.065094908480907421e+01,1.088945786982257857e+00,-2.499263571972514697e+00,-4.452729867232964267e+00,-2.729760224202864016e+00,-3.656653219704236069e+00,-2.066734221264591387e+00,-1.427089777504931822e+00,2.293742785458914302e+00,2.645422565330587616e+00,1.767078970504362356e+00,1.137219271165458734e+00,4.814766557045486728e-01,-5.068023008439743293e+00,-1.873175698304928860e-01,1.810950305839165830e+00,-4.701976443360045721e+00,2.033866260708629969e-01,-7.078962448710266919e+00,1.681600969956626557e+00,1.299810898140857818e+00,3.040717091232034708e-01,5.094015870533900703e+00,-1.538311254639746828e+00,1.100735811178321200e+00,-2.955550505783496096e+00,8.461558581494356412e-02,-5.164558403952265841e+00,2.127831976813988391e+00,4.356193910498618038e+00,2.181818791962747639e+00,-6.676061929946649487e-01,-8.806809869264365931e-01,6.614130119929925167e-01,-2.728889873688045142e+00,2.507272614255673382e+00,1.427168582795543594e+00,-1.333809027946690762e+01,-1.518115260630569230e+00,2.696169724042831284e+00,-1.893257669010218303e+00,-4.016406826878693437e-01,-1.534322446728505929e+00,1.151551033796060830e+00,3.774671323495715214e+00,3.453759745883876242e+00,1.834147239910929317e-01,2.493111928711193315e+01,5.216611086055499280e-01,2.326065662615613761e+00,-2.120721131721236552e-01,-2.646440172527215196e-01,4.066210514238488560e-01,1.765363298547951154e-01,2.713419369124669522e+00,1.105166071114609849e+00,-3.170601848117928334e+00,-1.017755371915965101e+00,-4.384789697230974781e+00,-3.203929439675460955e+00,1.012975721945096774e+00,7.019406747632441324e+00,-2.010337832043196382e+00,-5.322885649293528587e+00,4.626284875659265605e-01,-4.123736490199827465e-01,5.295408011221285349e+00,2.210920196357181844e+00,-1.687291027021009171e+01,7.798461480507472565e+00,-5.257752844063020570e-01,-1.448678913745236718e+00,-1.580643869005082580e+00,-2.038041011033798089e+00,1.852594034193900674e+00,3.882265771661982612e+00,-3.388638940109947595e-01,1.372928227546681201e+00,-4.439339444760375564e+00,-9.863375933885322189e-01,-9.379799650545866951e-01,-1.391453342844163332e+00,-1.167414073311723088e+00,1.969501756491697231e+00,-1.188659981244359676e+00,1.604685386022038474e+00,-2.502731994916118641e+00,-4.137404438068934986e+00,1.748511422513306490e+00,4.226657982502836752e+00,1.673969159095878956e+00,8.125996115651643592e+00,-2.891082130713879650e+00,-4.314675513131159545e-02,-1.879934268920226748e+00,-2.128336725860732859e+00,-1.375781287179012269e+00,9.488356150363487229e-01,-2.962093045754142118e+00,3.514370887612917826e+00,5.356059452144756428e+00,-1.325086982606228370e+00,-4.798818934144851722e-01,-4.497613759753558149e+00,-3.463926545575100047e+00,-2.560200257591772832e+00,1.988682959031520481e+00,1.887250104939704798e+01,-2.238136746271892186e+00,1.017414412611520991e+00,4.936098917384667217e+00,-2.448334449599096629e+00,-4.319871372929833697e+00,-6.233084875881135245e-01,-1.655010195320285593e+00,-2.403171520023003271e+00,1.644876011129175808e+00,1.021420876967331637e+00,-1.700762891109909747e+00,1.036269949113559408e+00,-1.938768675196452795e+00,1.016625230907996169e+00,-5.363074578499203993e-01,4.948533852516729503e+00,-5.077232284354598058e+00,-1.826884439668815974e+00,-2.293980766459227993e+00,-6.419368682640260282e+00,-7.209289901834038394e-01,-5.888517680958141653e+00,-4.729531737990921414e+00,1.585646070126272100e+01,-6.190538397277942195e+00,-3.100099077662264335e+00,3.912995111164965678e+00,3.341030098483323552e-01,-7.983800107518147504e-01,2.168092387374453422e-01,1.508320498445143931e+00,-2.128148286295636460e+00,-5.962525141369446890e-01,-1.796682463766274274e-01,4.265072580339112740e+00,-3.306709447530373325e+00,-3.395459113919937488e-01,-5.848554878254012657e+00,8.404154057917505583e+00,1.476331934340825880e+00,2.768249005022605846e+00,-9.575374563850044263e-01,4.519770901424293719e+00,1.245482306385927940e+00,6.572433186662371085e+00,2.379004909912941557e+00,-3.821905410201766884e+00,-5.062823286230959674e+00,-3.762705920178731844e+00,2.860545394856251811e+00,-3.491642118517301441e+00,-1.546831578343391689e+00,-1.989862505025892014e+00,-1.710072815208166785e+00,-5.459421471256794334e+00,-5.345010756759508652e+00,4.045424349224096550e-01,-8.278859163957227318e-01,-4.685831737499632332e+00,-1.335235084691475338e+00,2.693033533148933234e+00,-1.144577167980158450e+01,-1.652696110101052662e+00,-1.437145491160332744e+00,-1.097192805527964410e+01,3.409652117033959318e+00,3.103806906343338667e+00,6.728956065183974156e-01,2.604678895919438908e+00,6.918767715610850411e-02,-1.501629277855342393e+00,4.185301399727234362e+00,-3.817638378511809094e+00,4.327499049238712203e-01,-1.206142202241983874e+00,1.804810592983464357e+00,3.533600180654040024e+00,1.853555377459797482e+00,-1.736123197093641046e+00,3.738546364525693888e-01,1.280280628185483716e+00,
