-6.578008884457831940e+00,-8.442372494980181941e+00,-3.846848981380684984e-01,-2.124867976767871092e+00,-1.511085065097252933e+00,-6.695723514448737035e-01,-2.435399498461516377e+00,-5.989255298005861761e+00,6.206604211957973405e+00,9.379772333622432567e-01,-1.533375260408367025e+00,-8.503360661402398435e+00,9.877312317154819388e-01,-2.403291195887920839e+00,-4.508588933733023829e+00,-2.633817187287623263e+00,-3.725517178984573352e+00,-2.150165099831431448e+00,3.244865191631999490e+00,2.319509922469239704e+00,2.546882427213998490e+00,1.777979132019624764e+00,1.042929219461850465e+00,1.610094894140665644e+00,-4.975541961170126370e+00,6.347783916053099773e+00,1.717285620865420803e+00,-7.377617712740027756e-01,-1.225308566832658563e+01,-7.073556853461948180e+00,1.684431803529365279e+00,-1.463594053920758586e+00,9.472629291942136209e-02,5.002001287555307485e+00,-1.537568864328111573e+00,3.491179260633973325e+00,-3.019355265108178088e+00,-3.077903427709073103e+00,3.495846287813236142e+00,2.220327911685590738e+00,4.449193232147740318e+00,2.203201303202188654e+00,-5.722219187573890364e-01,-8.835511591833624667e-01,4.291711908095452999e-01,-2.471628494557342126e+00,2.417086590614850206e+00,1.416472637396124057e+00,-1.343513152695800450e+01,-1.423929791316921989e+00,2.600482070216610708e+00,-1.800091346639050016e+00,-2.269243626861981777e+00,1.921631715229768500e-01,1.058897896768086433e+00,3.680067393005097998e+00,3.398903202045536087e+00,8.020583261496244676e-02,2.483862555467104372e+01,3.848627161706926758e-01,3.328133084783170048e+00,4.114806498993729633e+00,-3.421774905890171414e-01,3.101269162349849506e-01,1.458980794165743167e-01,2.805913099902958674e+00,9.559592634002634925e-01,-3.084767889823118114e+00,-2.005174800837780658e-02,-4.477415151099826573e+00,-3.271254294110529592e+00,-3.399896022339439661e+00,8.058617650035717617e+00,-5.838712153815022177e+00,-5.230701551791977266e+00,3.666712197519049754e-01,-1.212623313923094859e+00,5.387614140072198410e+00,2.117813213695395991e+00,-1.678041653776987729e+01,8.864577235229907259e+00,-4.296200598267664317e-01,-1.356185220133487412e+00,-1.663111130352462830e+00,-1.976613772810614122e+00,1.758894397757362782e+00,3.974769742654785887e+00,-1.846548984722310160e-01,1.800507086495787057e+00,-4.527290091652179882e+00,-1.048674760595080580e+00,-4.419105601115475013e-01,-1.376608170291096833e+00,-5.716719211247713872e+00,1.984027330183556037e+00,-1.186128160691283462e+00,2.026590449613793865e+00,-2.588081606303651139e+00,-4.192988527382715880e+00,1.644554057704942895e+00,4.142780644359362441e+00,1.676692280390287060e+00,1.282927766568948513e+01,-7.594044984755036864e+00,-1.437973194851803083e+00,-1.920662375621196905e+00,-2.220832247399182169e+00,-1.303283577472028165e+00,8.553690388616571605e-01,-3.001570220716396786e+00,3.606609172266098451e+00,5.262533535237624349e+00,-1.227637399651588801e+00,-3.837838218679400226e-01,-4.523041282701983690e+00,4.077952939041050939e+00,-1.293344864586156495e+00,2.004849406534557232e+00,1.878000732577887177e+01,-2.143082456527351187e+00,9.174726558076756744e-01,4.868219546327529734e+00,-2.849253795617807228e+00,-1.491869849878821874e+00,-5.191172925505578295e-01,-1.656790405672162958e+00,-2.304463757212213526e+00,1.356611050561529641e+00,9.628257107275345339e-01,-4.789440851201804961e+00,9.975332029885815022e-01,-1.846871759891677733e+00,1.088372005448291047e+00,-4.404809524200078430e-01,4.856069492527437248e+00,-4.983280505758195034e+00,-1.867749583026859783e+00,-2.199018025416513922e+00,-6.508788561253167515e+00,-6.354847955563329709e-01,-5.796030824659460734e+00,-5.200064973148639247e+00,1.577251701702876652e+01,-6.099894070437549942e+00,-3.141748706365273147e+00,3.894853818549071089e+00,4.233982262418704845e-02,-7.034193605811477346e-01,-3.528745974680757430e-02,2.158298840280090225e+00,-2.171254069798037367e+00,-4.905214289289997476e-01,-2.789469447146933234e+01,5.442013495510662935e+00,-3.213661696779025689e+00,-2.430419076908447162e-01,-5.756258006397780846e+00,8.791467427094064035e+00,-8.880706961658962895e-01,2.852643717308114280e+00,-8.650474943253970705e-01,4.610438174259636313e+00,1.151322330646896486e+00,6.664922224148513763e+00,-1.676707361861114798e+00,-3.764954467861512555e+00,-5.272833988618713663e-01,-3.826398207309288146e+00,2.902153024015514227e+00,-3.583348285691679624e+00,-1.453541542033401690e+00,-2.004629085967281732e+00,1.518718034770445424e+00,-5.523449050434597218e+00,-5.259356531449817851e+00,4.342327099781723376e+00,-7.602973527791976327e-01,-4.778328331348594915e+00,-5.616438953509633736e-01,2.746166848510118719e+00,-1.153826727173994549e+01,-1.653638930378450889e+00,-1.425960357792716682e+00,-1.242616457230785265e+01,3.315899427617036377e+00,3.195604626029231010e+00,5.779000782168697281e-01,2.517339873089254443e+00,7.394802727052807167e-01,-1.407659561530719472e+00,4.281657473097041589e+00,-3.869770111180995009e+00,3.365513705097173403e-01,-1.179975436037066450e+00,1.794891766906784758e+00,3.626085134701123369e+00,1.842156460396928930e+00,-1.741174503446771826e+00,1.936018909878235161e-01,-1.555579882287984272e+00,
