-6.769842516496627383e+00,-8.250600241617213726e+00,-5.774574467588780013e-01,-1.975727878321258402e+00,-2.070351146316874669e+00,-7.446676898380685250e-01,1.934589295629500105e+00,-2.808927023020721059e+00,4.916624956989593009e+00,1.129707805494768680e+00,-7.155413713076325122e-01,-2.765099225134036054e+00,1.182304226819381743e+00,-2.595595208568024947e+00,-4.338045312186768143e+00,-2.826926501781338530e+00,-3.563392014130534413e+00,-1.964148090368648569e+00,-1.551476721087947652e+00,2.166734936820715607e+00,2.742017970507328428e+00,1.633943750570398645e+00,1.235315323993776193e+00,8.194541164979658454e-01,-5.167364828741739302e+00,-4.954404307340469771e-01,1.908697285722253500e+00,-2.058677431999591079e+00,-9.897784954365970833e+00,-7.202391833286250211e+00,1.545207907350329979e+00,-1.953567595468534090e+00,9.196549353446915875e-02,5.192258332396087361e+00,-1.400686706340514620e+00,1.296075102276532443e+00,-2.846299465206772794e+00,-1.060117599108401976e+00,3.687679907148893044e+00,2.028494009723421421e+00,4.257331482993461869e+00,2.052948160425096535e+00,-7.648564655835440318e-01,-7.442211908150354605e-01,4.253869175784714685e-01,-1.172965217950787675e+00,2.606402153128489108e+00,1.285379427764604454e+00,-1.324329755097485872e+01,-1.616218385505211241e+00,2.793269294546360193e+00,-1.992117532627642573e+00,7.586487698190554907e-01,1.460942587638329959e+00,1.250183544410597758e+00,3.872479889801977215e+00,3.564326568611563051e+00,2.774723540015318624e-01,2.503045918744453857e+01,3.324503867950561187e-01,2.596253007402536728e+00,3.922925407919962026e+00,-4.153393312501270640e-01,5.030842675037254796e-01,2.950387859098427823e-01,2.614079468207343826e+00,8.965676752902624891e-01,-3.272206663486149747e+00,-4.632033822920977428e+00,-4.285537426465639399e+00,-3.094429672982724977e+00,-6.440388466551810742e-01,7.867000991673313237e+00,-3.757604263401620237e+00,-5.422335194532316827e+00,5.594348597213618657e-01,-8.257894970366609355e-01,5.195965390656739125e+00,2.309821821047417956e+00,-1.697225017054293161e+01,8.672701844778675451e+00,-6.224649816588861961e-01,-1.546888964911775632e+00,-1.477684173086319941e+00,-2.147172604894294512e+00,1.951058080246689475e+00,3.782936117399704479e+00,-1.448800569358825174e-01,2.721692673379194627e-02,-4.338359847083522070e+00,-1.130805845992532754e+00,-5.372534067258201151e-01,-1.247916189606587123e+00,-4.227593463811283314e+00,1.837847789029529055e+00,-1.050100782555134726e+00,3.518727798371478421e+00,-2.400825485986635588e+00,-4.022721440796872550e+00,1.841217367769623081e+00,4.328683528074302345e+00,1.537570727291617700e+00,1.111677612540440307e+01,-5.881708691719352622e+00,-1.537549364704629884e+00,-1.758471175952644794e+00,-2.028997440516394857e+00,-1.482040404725878169e+00,1.047095885170978402e+00,-2.840694852441163931e+00,3.414939324840596147e+00,5.454608506241644506e+00,-1.422444463455073471e+00,-5.766244075503138555e-01,-4.366278712288002239e+00,4.285602614857874748e+00,-3.036146413774138964e+00,1.857747146657659609e+00,1.897184095286038641e+01,-2.335230124156682407e+00,1.111380396970994333e+00,5.042026800838129041e+00,-2.979481164359289558e+00,2.462635592407692364e+00,-4.461433586650818128e-01,-1.518234419883236486e+00,-2.499661981485441054e+00,1.324927403336761067e+00,-3.284217640870752408e-01,-3.380392617878325900e+00,8.832635423216836923e-01,-2.037942908088821614e+00,9.093543821797290816e-01,-6.332658848668366591e-01,5.047884104811302564e+00,-5.175440941950925300e+00,-1.706733487456207676e+00,-2.390981500230668466e+00,-6.318917369584769794e+00,-5.505395082233895954e-01,-5.987859920623866294e+00,-4.895554121931092517e+00,1.595609154346877112e+01,-6.290528585230851455e+00,-2.979580045399533805e+00,4.030919088294320218e+00,8.955284022767363850e-02,-8.959347687138646821e-01,-7.235875715142224204e-03,2.387426203592549978e+00,-2.010505833974911560e+00,-4.183024677857841156e-01,-2.392417184491581494e+01,2.642291101920196672e-01,-3.405024468047088249e+00,-4.358193900174305302e-01,-5.947913374227559835e+00,8.599628331510032808e+00,-8.942155901258787010e-01,2.667634503774605204e+00,-1.056878430523617629e+00,4.419782583653503849e+00,1.343613967474157622e+00,6.473091664777438581e+00,-1.162959721665484558e+00,-3.932238474630588509e+00,-1.173884551913329943e+01,-3.652878336995468267e+00,2.740203553063621733e+00,-3.392041067391466935e+00,-1.645422640189453833e+00,-1.858279739429129718e+00,2.174641318926694655e+00,-5.348242803677661250e+00,-5.446648393412343303e+00,-7.113281521082802428e+00,-6.641384117640287688e-01,-4.586494696535700299e+00,9.399604819559203017e-01,2.577356105409879472e+00,-1.134643352207204892e+01,-1.515528835159827503e+00,-1.295093255978441604e+00,-1.087599152683397641e+01,3.507549440729587520e+00,3.004186232025606085e+00,4.989724310271269614e-01,2.701233124910912942e+00,3.633351995508514731e-01,-1.599897810125735287e+00,4.089823774359460984e+00,-3.701509265783393232e+00,5.293815893373909898e-01,-1.058288729275308704e+00,1.661763078675640770e+00,3.434257134199300232e+00,1.709436329918044839e+00,-1.600581111407667567e+00,1.707332172820232585e-01,-1.898474500568533063e+00,
