-7.607893508543905448e+00,-8.204599538023391148e+00,-6.300760410158475766e-01,-2.007591089165548404e+00,3.124582669206861674e+00,-7.021657900640126959e-01,-9.204306987534877083e-01,-4.433578891297493385e+00,-6.932715413962020179e+00,1.175660051780516469e+00,-1.214667666214894054e-01,-8.840878745363788260e-01,1.249161811307809344e+00,-2.648092074363437298e+00,-4.331842065161221278e+00,-2.878102877271169202e+00,-3.476957499357899550e+00,-1.925482198091081232e+00,2.409618928107660096e+00,2.192338133982423276e+00,2.795576980159310665e+00,1.673997632732382224e+00,1.284748310992251730e+00,3.723543407370975000e-01,-5.213432361218924171e+00,-9.189507744192487726e-02,4.773884419855200512e-01,-8.693180766778403623e-02,5.100230586782454889e-01,-7.116693047780310089e+00,1.595555240086216298e+00,-1.091362089459421369e+00,3.224567260163220817e-01,5.241533876261694758e+00,-1.454571664131553810e+00,1.163200506373289977e+00,-2.825979140607643991e+00,3.739214413120173219e+00,-4.059189047768356318e+00,1.982416152747998650e+00,4.210724021619824065e+00,2.083141214943726727e+00,-8.164793670462406894e-01,-7.936182144971086760e-01,8.129350450322310184e-01,-7.726362812519340650e-01,2.653513286926554748e+00,1.349311961837048823e+00,-1.319138111314578055e+01,-1.665781200978540655e+00,2.844761844423502772e+00,-2.039400294313022943e+00,3.837307097244712750e+00,-1.294241949278072346e+00,1.298422795314605027e+00,3.922108365271928410e+00,3.587618937906668748e+00,3.369012503622523802e-01,2.984635942573497758e+01,5.154838136032092732e-01,2.192545024749586347e+00,-1.907697669520062866e-02,-3.539707922052788835e-01,5.565849065531738304e-01,3.016262510204216207e-01,2.568004078952202285e+00,1.282704476188446741e+00,-3.313523837011113304e+00,1.675422479419064858e+00,-4.239254258882301230e+00,-3.072903088805802874e+00,2.896733891360934621e+00,5.802756960042113832e+00,-7.424682534929437638e-01,-5.468175547583047802e+00,6.120764541430298022e-01,-2.540781761224006896e+00,5.150110972272590182e+00,2.357000187683638615e+00,-1.701832556111786587e+01,4.206849880550571186e+00,-6.755285963375765590e-01,-1.597102895394787669e+00,-1.439554308131028471e+00,-2.173069345682277831e+00,1.999532308041314987e+00,3.736841767958390736e+00,-3.307674408346353290e-01,-2.491483965844492943e+00,-4.295949600234190591e+00,-1.085445302108286825e+00,-8.259519731456502756e-01,-1.317081066567743486e+00,-3.349929868375241426e+00,1.875035581778021543e+00,-1.103150486920552842e+00,2.673464155587837343e+00,-2.360612037622378256e+00,-4.016447215905928125e+00,1.905961668104792395e+00,4.368693716986515874e+00,1.587225624893666920e+00,1.089816830294577876e+01,-5.663443992821427742e+00,9.821415657012548817e-01,-1.771105938218633602e+00,-1.982920669840074313e+00,-1.513441589672616772e+00,1.096256684008430238e+00,-2.851797299597997437e+00,3.369061890303525431e+00,5.507046651676338556e+00,-1.473201275645268593e+00,-6.294681051809549732e-01,-4.452551537130566395e+00,2.493886060147580075e+00,-3.142698639991798326e-01,1.893486841650892982e+00,1.901791633669271064e+01,-2.385127852336049070e+00,1.169613402216002074e+00,5.074485247673155897e+00,-3.013947506905961582e+00,2.272889857998707797e+00,-5.967451566687882458e-01,-1.569180970513354145e+00,-2.553083595105881898e+00,1.161821611837315693e+00,1.553336958827484127e+00,-4.784149339687004066e+00,9.743012607850481954e-01,-2.084737175519475905e+00,8.814887989166149129e-01,-6.855746451092579186e-01,5.093937506864664400e+00,-5.224082443675994725e+00,-1.710769260495226041e+00,-2.442577696620459982e+00,-6.275307568104856237e+00,-6.851789500459811721e-01,-6.033930165616254726e+00,-4.642851353187422703e+00,1.591137704092960803e+01,-6.335220557859556401e+00,-2.987967477963461516e+00,4.041503635032464459e+00,4.257588896768326747e-01,-9.467583294692494267e-01,2.504899089483092478e-01,1.965823588455163584e+00,-2.017066750189020041e+00,-5.704725508412330504e-01,-2.288351012340502066e+01,-1.308408195743707494e-02,-3.454145401916441482e+00,-4.898138555081431589e-01,-5.993881632164152151e+00,5.257999874218972636e+00,-2.422990634723112713e+00,2.684838939845171968e+00,-1.102951038602164591e+00,4.375158591600160740e+00,1.392952783578647491e+00,6.427019817993836703e+00,-7.361050780543783312e-02,-3.955198607531663413e+00,2.767960475578946600e+01,-3.634871164120105913e+00,2.749655991232956342e+00,-3.346613512460307582e+00,-1.693648156989428832e+00,-1.895639911902291530e+00,3.275037391810052156e+00,-5.333035651277376665e+00,-5.487946472593549174e+00,-1.290657589332453981e+01,-7.830630021664600759e-01,-4.540410260716315705e+00,1.014455510375774416e+00,2.572245322113124733e+00,-4.341710663349555688e+00,-1.566853128843418652e+00,-1.358419887142009230e+00,-2.141357717911847924e+00,3.556932199061143329e+00,2.958786652578068388e+00,6.422458484433246628e-01,2.664114956449178617e+00,-3.270776308746782546e-02,-1.648891855865006528e+00,4.039296855106717210e+00,-3.699322958693771479e+00,5.824933862327092982e-01,-1.137323224723289616e+00,1.735783684542601790e+00,3.388188521629201588e+00,1.791499174535883698e+00,-1.649371191186175256e+00,3.820405442512684879e-01,2.636546138600007083e+00,
