-6.670393400635930448e+00,-8.350082919923758951e+00,-4.805457360897515962e-01,-2.106154987571732029e+00,2.818183516113657472e+00,-6.005204748944688031e-01,-2.152951991948282462e+00,1.778691686226153479e+00,-7.609393956879186405e+00,1.030200478045297796e+00,-2.966997700537027383e-01,-4.758009837670993392e+00,1.088750298557854324e+00,-2.499199879674436353e+00,-4.453220184085709299e+00,-2.729735321662149605e+00,-3.657310678925451697e+00,-2.066913803631857949e+00,1.054644457897109255e+00,2.294540053317694284e+00,2.645352336841610086e+00,1.767991010853317002e+00,1.137126431852809150e+00,4.755082547154642625e-01,-5.067913685975174332e+00,-1.831305044623755263e-01,1.810835268588517177e+00,-3.703407467731275382e+00,-1.261553892882495864e+00,-7.078440124369032915e+00,1.682635424581143235e+00,1.778806474565725271e+00,3.068351095457396704e-01,5.093955636739690540e+00,-1.539383748529134621e+00,1.098807695940198226e+00,-2.955914094211749887e+00,-1.014935156452552789e+01,-5.162482997738963242e+00,2.127941178282371837e+00,4.356301118305114350e+00,2.182659462922553750e+00,-6.675229930951906976e-01,-8.816517499477840580e-01,6.651372600273757207e-01,-4.411461624499360745e+00,2.507196374592178589e+00,1.428338267471218836e+00,-1.333819897144160471e+01,-1.518022283024941022e+00,2.696157928477742605e+00,-1.893154286038876588e+00,-2.241475945200248621e+00,-2.473693082719839342e+00,1.151445440593828806e+00,3.774632895351754502e+00,3.453406161488971282e+00,1.833977990440878447e-01,2.493101007196492702e+01,5.239735571536392467e-01,2.315102629513653643e+00,-2.112544144536488144e-01,-2.634022376282867950e-01,4.065468994295245997e-01,1.759655536126489561e-01,2.713528584285660461e+00,1.108382398065321794e+00,-3.170447292960533403e+00,-8.514709024971068629e+00,-4.384898279432184687e+00,-3.204264938799446849e+00,1.828391622410612261e+00,7.019520651711251169e+00,-2.512804924644788329e+00,-5.322774132442171791e+00,4.625499243225410506e-01,-3.293436657092979836e+00,5.295519449369246345e+00,2.210816403740930358e+00,-1.687280105506308558e+01,7.779733013587817325e+00,-5.256994150275293709e-01,-1.448549994136787200e+00,-1.580829860529900488e+00,-2.037709880024684672e+00,1.852495970077785881e+00,3.882374986756672808e+00,-3.411005247907269444e-01,7.456584218485542426e-01,-4.439485441727751613e+00,-9.852692622827953217e-01,-9.503408371205872562e-01,-1.392663190338032209e+00,9.735482362927412314e-01,1.970412388240719626e+00,-1.189681791416337564e+00,2.935629952499172468e+00,-2.502896630639187769e+00,-4.137897490281049251e+00,1.748620136626674482e+00,4.226485397189792437e+00,1.674996544344527383e+00,7.294821906299543635e+00,-2.059919540710657859e+00,8.900252052546080428e-01,-1.880566861805320622e+00,-2.128445922972880044e+00,-1.375532902386447098e+00,9.487364550545971387e-01,-2.962748090749841801e+00,3.514482025676857191e+00,5.355962684906355520e+00,-1.324997078578391996e+00,-4.798045269069364238e-01,-4.498652932886546552e+00,-4.757609999353320518e+00,-8.865234070661740517e-01,1.989578155183033825e+00,1.887239183418608590e+01,-2.238126973651214602e+00,1.017551680640212508e+00,4.935903068284412498e+00,-1.535686749311507171e+00,-1.129309577822143140e+00,-6.253186375619802506e-01,-1.656048440031248514e+00,-2.403085648787360196e+00,1.655601358057361194e+00,3.242287911751307594e-01,-2.686053874217431137e+00,1.037646769961400040e+00,-1.938656143780130847e+00,1.016907909608115723e+00,-5.362277919666336157e-01,4.948424429632629185e+00,-5.077179240187438936e+00,-1.827475334924861361e+00,-2.294000180308503722e+00,-6.419502877632525362e+00,-7.227702757321528004e-01,-5.888408411092976635e+00,-4.717535089622418631e+00,1.585635106671433192e+01,-6.190415004742630956e+00,-3.100732157601786554e+00,3.912538306558024370e+00,3.377540701009160151e-01,-7.982932273169505155e-01,2.198551411703388581e-01,1.775019767798471149e+00,-2.128817317086164174e+00,-5.982049189165014047e-01,-5.863986086583055979e+00,2.375514922496332559e+00,-3.306655993802704252e+00,-3.394721958369982251e-01,-5.848445118255964914e+00,8.404263178031788684e+00,2.392085680701902195e+00,2.768513116539599750e+00,-9.574282086159673355e-01,4.519894916446469679e+00,1.245388209034213656e+00,6.572542439258272751e+00,2.095117714173841073e+00,-3.821486668979464874e+00,-4.627644445297834253e+00,-3.763104952206789200e+00,2.861190011650358134e+00,-3.491758452572765847e+00,-1.546730260768245158e+00,-1.990768426079126296e+00,-3.206546237322411841e+00,-5.459826971816049479e+00,-5.344855419147116038e+00,-1.087957633851421857e+00,-8.295895687524634798e-01,-4.685940952536123305e+00,-1.029258998937717884e+00,2.693522568161820896e+00,-1.144588090147840909e+01,-1.653735409077521146e+00,-1.438300692752606746e+00,-1.097195892759919644e+01,3.409625417963358718e+00,3.103922544493558533e+00,6.748169487765013352e-01,2.604618197397960078e+00,6.477745405882426311e-02,-1.501533790170784144e+00,4.185410353875829159e+00,-3.818169113498220746e+00,4.326731687671701021e-01,-1.207452953880014279e+00,1.806040594976432434e+00,3.533709461963346676e+00,1.854855646022220972e+00,-1.737149245831845379e+00,3.764890186656893456e-01,-2.497969876306175063e+00,
