-6.566617059910678122e+00,-8.453755961326226753e+00,-3.728448830202873987e-01,-2.131315870057690631e+00,1.457115094494126240e+00,-6.802060474308513349e-01,-2.327731735162547277e+00,-6.250187486529000580e+00,-3.878141763106848661e+00,9.265993472132423303e-01,-1.501590707150672444e+00,-1.244759815612977327e+00,9.769164614745924347e-01,-2.391801059613370306e+00,-4.517543022173041933e+00,-2.622345623472462695e+00,-3.733662078323830347e+00,-2.160797695202156365e+00,-5.899334195806202885e-01,2.326382628868471247e+00,2.535149189644252399e+00,1.783791164105812177e+00,1.031320431458109033e+00,1.619240275323629685e+00,-4.964151461040934521e+00,6.336411911066946345e+00,1.705948076649590472e+00,1.753321735818541005e-01,-1.226870740345832189e+01,-7.106591905617552385e+00,1.689709402778186709e+00,-4.127852477896203354e+00,8.094959988018787800e-02,4.990842693396126073e+00,-1.542542821905126038e+00,8.954276816991150412e+00,-3.028595952702353600e+00,1.421223506104130063e+00,3.484454464977822408e+00,2.231719831896189721e+00,4.460612939067040372e+00,2.209784752500386862e+00,-5.604591727534462553e-01,-8.886743506186338681e-01,4.183084747299279371e-01,-3.226241081365039065e+00,2.406215388989170645e+00,1.420761329996520272e+00,-1.344652503764145735e+01,-1.412330110098267921e+00,2.589045203405536899e+00,-1.788608574657769124e+00,8.859645780654732405e+00,-1.741333350983184536e+00,1.047417131845366667e+00,3.668664940421712650e+00,3.391148341526321719e+00,6.785671509268800805e-02,2.482723373002255585e+01,3.789044352385073089e-01,3.597519342179009261e+00,4.126200977529068226e+00,-3.465394920197572004e-01,2.982128545025111155e-01,1.397369224811265687e-01,2.817304924372744157e+00,9.529269343620214716e-01,-3.074022678446638679e+00,-1.101315604837034501e+00,-4.488815020699057357e+00,-3.280784552820670275e+00,-3.853177273289933424e+00,8.069986356426401386e+00,-5.825424731996072580e+00,-5.219337570598348464e+00,3.548228107074332671e-01,-2.039226775866228802e+00,5.398981011003831654e+00,2.106339063914183907e+00,-1.676902471312149601e+01,8.883249501289281369e+00,-4.177596535915424902e-01,-1.345354247786080482e+00,-1.673633190795471126e+00,-1.967995207038351069e+00,1.747350443257019270e+00,3.986161566356281050e+00,-1.762047634754894954e-01,2.293602035117503046e+00,-4.538298289478209568e+00,-1.053427816643647930e+00,-4.222752682241093791e-01,-1.380636368530951952e+00,2.520342136885180828e+00,1.990125329172148794e+00,-1.190910412815411101e+00,2.069464437382450672e+00,-2.598869099510626057e+00,-4.201893778380019207e+00,1.632790592314522504e+00,4.132214243074453286e+00,1.681949999222554393e+00,1.319131361557943372e+01,-7.956035503328116931e+00,-2.765768207295246750e+00,-1.928619385027442235e+00,-2.232224166334329407e+00,-1.293794898723823916e+00,8.438123445659815314e-01,-3.009395792518347879e+00,3.617978766533102686e+00,5.251037479768987382e+00,-1.215993020891369847e+00,-3.719241567882080046e-01,-4.530826822927772390e+00,4.065519179282880202e+00,-9.765099605247054004e-01,2.011053843088136617e+00,1.876861550193228112e+01,-2.131665266094288302e+00,9.060344851532005084e-01,4.859908804486576805e+00,-2.368686696047549667e+00,-6.458196339194308688e-01,-5.159155655147701358e-01,-1.661984388112293098e+00,-2.292822862294348951e+00,1.352995041840138635e+00,-1.475435734389460629e+00,-4.840084542796745382e+00,9.997301414557207000e-01,-1.835486283304766486e+00,1.098069173225672657e+00,-4.286610675250995262e-01,4.844680296253150331e+00,-4.971894229968928158e+00,-1.875442848642261628e+00,-2.187736263432749961e+00,-6.519919931846203554e+00,-6.339311195793055909e-01,-5.784639605707761589e+00,-5.311912286326311516e+00,1.576159073881763817e+01,-6.088666411119456612e+00,-3.149721976403222712e+00,3.896158174405091046e+00,2.161290369222146346e-02,-6.917116710431998605e-01,-5.453739341079202885e-02,1.478759160763782221e+00,-2.179148627466330090e+00,-4.872218352153956933e-01,-2.801329122404836625e+01,5.425841360818866477e+00,-3.202477787332080439e+00,-2.311027315711953745e-01,-5.744879391757152121e+00,8.802860203234882164e+00,-1.121852430667971356e+00,2.864007393916069955e+00,-8.536560782910069811e-01,4.621671627626051659e+00,1.139718078717330885e+00,6.676313630288104761e+00,-4.264720305578599380e+00,-3.757999055802577093e+00,-6.674196133688949928e+00,-3.835686677879303286e+00,2.910094404541646806e+00,-3.594673825341731632e+00,-1.442033214259355267e+00,-2.010756138811423455e+00,3.298465105473987746e-01,-5.532930157803990667e+00,-5.248636739831573195e+00,5.708197390505453939e+00,-7.601939432980364675e-01,-4.789720156025325082e+00,-8.613586179279792976e-01,2.754852537009068403e+00,-1.154965906624183347e+01,-1.658780992277448352e+00,-1.430228261454663752e+00,-1.234977375178838699e+01,3.304613947296414000e+00,3.206945203540469080e+00,5.755484891752969956e-01,2.506335991782201233e+00,9.226638301350833515e-01,-1.396081722117206381e+00,4.293049297823701593e+00,-3.878449384591408311e+00,3.246683176517745628e-01,-1.183112626985385107e+00,1.799645835645271585e+00,3.637476194831992249e+00,1.846919257152741967e+00,-1.746613233677127397e+00,1.829751989338026796e-01,8.653852400500905873e+00,
