-3.322404655165520637e+00,-8.130142844321760265e+00,-7.150871585362497118e-01,-2.035120332176155067e+00,-2.263832947805298534e+00,-7.301081315979551789e-01,-3.421328759561169108e-01,-8.143631438485019913e+00,1.166268911309381373e+01,1.250088985438913447e+00,2.440526702564614070e-01,-7.744636228216418283e-01,-3.737504966428140674e-01,-2.723380045199566002e+00,-4.312566722301927946e+00,-2.958111634038993909e+00,-3.430262946619182074e+00,-1.856261606193435387e+00,3.227640066181332923e+00,2.211900168663440525e+00,2.882624436774248178e+00,1.709091746167605175e+00,1.364955082977221901e+00,1.804717927930823418e-01,-5.287929369282352354e+00,1.672328072483031947e-01,8.452329636264843682e-01,3.248445367592907917e+00,-1.714478980489065330e-01,-6.918193540638224448e+00,1.648453380662091128e+00,-2.278995019234567376e+00,5.491657840026546999e-01,2.918609744199464728e+00,-1.508597368002404071e+00,1.159565996841235291e+00,-2.771886400032748998e+00,-3.719745627957278256e-01,-2.955956910091517731e+00,1.907909725981499882e+00,4.136357420613180125e+00,2.109406300810202861e+00,-9.008967166856797215e-01,-8.408374383323891088e-01,1.844042511562583031e-01,-6.158791350846704482e+00,2.732183861129769298e+00,1.416415489580068465e+00,-1.311649080452377625e+01,-1.821138059219340910e+00,2.925462516113984446e+00,-2.115308897738064520e+00,-1.473622945055337974e+00,3.355980810992911234e+00,1.377814918712078507e+00,4.000272719223237239e+00,3.649497295475466530e+00,4.294277148073429307e-01,5.224069624569995796e+00,7.216307047683101494e-01,2.107065594578503287e+00,1.062432068870761276e-01,-3.698914006557091905e-01,6.426983632609379882e-01,3.588278431613620145e-01,2.493497396117532627e+00,-2.031132991421899861e-02,-3.385096477042325969e+00,8.786206778184847410e-01,-4.164704763524111897e+00,-3.021582479371064167e+00,-6.954468618359164189e+00,1.995562729080196940e+00,1.541556273855076986e+00,-5.542524511262074682e+00,6.968342631126616116e-01,9.102241956963371683e-01,5.075758028523932097e+00,2.432819221739446203e+00,-1.619849957002851326e+01,2.989288168622162178e+00,-7.633262329414260972e-01,-1.687514764981998372e+00,-1.370445189350657511e+00,-2.236410045389656709e+00,2.078860172987849975e+00,3.662335033841358278e+00,-5.066641353536479597e-01,-6.821065121897817107e+00,-4.224101156325908768e+00,-1.109142579238074022e+00,-4.077036670077692770e-01,-1.396441411709767211e+00,-1.064003475390302933e+00,1.908877144965225314e+00,-1.152798833233136921e+00,-3.828414231650133726e+00,-2.290297458820201193e+00,-3.993873641870628877e+00,-3.164158394281464948e-01,4.438887847535781361e+00,1.637061587196466217e+00,9.010690412444098740e+00,-3.777215156172649468e+00,2.723956358063058136e+00,-1.791529595118629192e+00,-1.637083367123649769e+00,-1.578838525648835756e+00,1.176749657794734505e+00,-2.853668249387232514e+00,3.294692799872734223e+00,5.379400802245628554e-01,-1.552462767616621164e+00,-7.149978694300818116e-01,-1.922806620418820556e+00,-6.094067576935154662e+00,1.700961993122051208e+00,1.925791680110305659e+00,1.909242301585573287e+01,-2.460071807352382844e+00,1.256253204943091895e+00,5.141196682165658949e+00,-1.359559416247488661e+00,-1.630943354685714164e+00,-7.528244952506462084e-01,-1.621646613385892000e+00,-2.640464383314302221e+00,8.291522253708222268e-01,-5.513532544980810357e-01,-1.790190918662030173e+00,1.072068759956579909e+00,-2.161409141587347538e+00,8.225895888098342379e-01,-7.702892951038249336e-01,5.168430114446881163e+00,-5.301045656089574010e+00,-1.684968773160392397e+00,-2.523051512206665681e+00,-6.202552059078951352e+00,-8.287206551906497465e-01,-6.108433117465246198e+00,-4.585514469088040279e+00,1.572722373769580173e+01,6.423297780126854484e+00,-2.985132273905495293e+00,4.098801976066956065e+00,8.910504631764508687e-01,-1.029751919137787297e+00,4.945641650177172721e-01,7.389294360446900800e-01,-2.000262535030458366e+00,-7.299790364661710163e-01,-7.748197424268422395e+00,-2.716837508635840948e+00,-3.534170056119315895e+00,-5.767366912618697716e-01,-6.068282123566814512e+00,7.029950973589590424e-01,-1.835425193222852247e+00,2.549680119272148993e+00,-1.177455012574079474e+00,4.301657506416415089e+00,1.473409555990916608e+00,6.352515599373442789e+00,1.484127551059601480e+00,-4.018702824306778609e+00,1.114602172723810014e+01,-3.586776426466451451e+00,2.748714306388676309e+00,-3.272575256849028502e+00,-1.772327957874928250e+00,-1.932090369951735775e+00,2.420156415502902281e+00,-5.299764777171955821e+00,-5.559539047301751857e+00,2.148071221185023916e+00,-9.090628046753432834e-01,-4.718323101279986886e+00,-7.650732763748671061e+00,2.547881823649909006e+00,-4.271949959945448683e+00,-1.619416565341946335e+00,-1.424765641819123685e+00,-1.833584564440534193e+00,3.635018259522871720e+00,2.884924890409418463e+00,7.952718298135368347e-01,2.481510886034985486e+00,-3.438589696133837470e-01,-1.729310656117977629e+00,-8.178966434079784076e-01,-3.683701190644233847e+00,6.680359737090727501e-01,-1.221460410524596973e+00,1.910986267861304766e+00,3.313686544301441383e+00,2.088195779450105594e+00,-1.699928810862504580e+00,5.892425023461469458e-01,-8.961087665081325371e-01,
