-6.757864383618017001e+00,-8.262591178063287245e+00,-5.663631790633494312e-01,-1.999670886135773484e+00,-1.608465522933477443e+00,-7.119538903061435331e-01,9.168177777947885687e-01,-7.644538200345332157e+00,1.853373803085539118e+00,1.117704537602659087e+00,-5.624569364066100974e-01,-7.172387910980694947e+00,1.173757855668051242e+00,-2.584484121774373477e+00,-4.356071419891242691e+00,-2.815403411815711188e+00,-3.582393101618644327e+00,-1.977450131597933369e+00,5.029059645674009538e+00,2.189599993929248978e+00,2.731323950208409901e+00,1.659489261429382356e+00,1.223774482621781567e+00,7.085793158061969299e-01,-5.155385748407976365e+00,-3.881419961722715750e-01,1.897464076399666633e+00,1.210643319786038008e+00,2.331378508326641175e+00,-7.177796037654923467e+00,1.571725735668418666e+00,-3.470532859109533685e+00,1.498516094286517220e-01,5.180271538179722413e+00,-1.427545905517024982e+00,1.237193737001969662e+00,-2.861619898598963818e+00,-1.787643923413656077e+00,-5.401882150725168863e+00,2.040471358291109372e+00,4.269095291288411254e+00,2.076612075967255944e+00,-7.536119514425529964e-01,-7.714270998777601474e-01,4.893991174624732210e-01,-5.713916296338990009e+00,2.594155590681219703e+00,1.314056669969655200e+00,-1.325518280743077426e+01,-1.604666209831768109e+00,2.781666367232126458e+00,-1.980311657507013878e+00,-2.621959228165426370e-01,-2.082508735760029567e-02,1.238404746444989657e+00,3.860720347267318608e+00,3.547263184869835495e+00,2.675794427832807187e-01,2.501848105472696915e+01,3.800708284460061481e-01,2.549996939929153772e+00,-2.053199200627459309e+00,-3.800446177133721681e-01,4.921251839322887123e-01,2.742980229118545110e-01,2.626057601203374059e+00,9.481643668829760063e-01,-3.259222095224480586e+00,1.156574503465533643e-02,-4.297473247743083924e+00,-3.110646737388894412e+00,-9.302396680057526401e-01,7.616356586029761289e+00,1.289069206666570766e+00,-5.410308978657116796e+00,5.483504091160116278e-01,-1.245766548532073914e+00,5.207987828403879860e+00,2.298000722119985184e+00,-1.696027203782525561e+01,8.660215899935174377e+00,-6.114173898416433994e-01,-1.535661219917245024e+00,-1.491245206541470081e+00,-2.130810399394782007e+00,1.939384826124439298e+00,3.794913862170198993e+00,-1.960920410724884821e-01,3.053358088187700936e+00,-4.351014823070623372e+00,-1.098358534084975524e+00,-6.431997902749015950e-01,-1.277208425070990749e+00,2.654599301218173668e+00,1.862637120925627165e+00,-1.078119231209016204e+00,2.225991803595180674e+00,-2.413860577416463649e+00,-4.040712456030097322e+00,1.831105054951944977e+00,4.315514064290543850e+00,1.564180487988437784e+00,5.667643586761022867e+00,-4.326600334325877428e-01,-1.724032018839112501e+00,-1.779407526840776743e+00,-2.040975402564704222e+00,-1.467020715398252628e+00,1.035465610965279115e+00,-2.861349681642630038e+00,3.426956980739249481e+00,5.442876205218770025e+00,-1.411493208342239347e+00,-5.655634858442641910e-01,-4.389786448065327029e+00,4.695461007952282273e+00,-5.617477280353269098e-01,1.882169064808479009e+00,1.895986281876527357e+01,-2.323450892238955401e+00,1.100132948024809654e+00,5.026501282653949687e+00,-2.054266835279431991e+00,-2.019542366109828846e-01,-4.891920453024127258e-01,-1.544940866926233891e+00,-2.489080900707087096e+00,1.398807423917684867e+00,-8.931752381419184594e-01,-2.079729701706520384e+00,9.167552771884290852e-01,-2.025974574876652667e+00,9.247585342544658582e-01,-6.221294431720983953e-01,5.035901380843082364e+00,-5.163581885029685736e+00,-1.727377321436524449e+00,-2.379169456901149893e+00,-6.331359433148057825e+00,-5.907560309362038797e-01,-5.975880768369812301e+00,-4.866386561839098235e+00,1.594384139121580013e+01,-6.278268255415547117e+00,-2.999968190559281656e+00,4.010329094740822775e+00,1.593978415946197547e-01,-8.845828481155189049e-01,5.537373856771318076e-02,-1.082360572286853229e+00,-2.027915830006709275e+00,-4.619151968565426425e-01,-1.940259184109661561e+01,3.806874274728912155e+00,-3.393213935347040078e+00,-4.249154840497648689e-01,-5.935922227165541187e+00,8.611605611345719780e+00,1.585067593548304954e+00,2.677900168799308034e+00,-1.044899814304626418e+00,4.432024339324704520e+00,1.332058190203655235e+00,6.485070492061403513e+00,-2.818742349114634838e+00,-3.916108137012500823e+00,-9.806639967519235057e+00,-3.668289333496905336e+00,2.760207345651708444e+00,-3.404103850690070487e+00,-1.633691609210663920e+00,-1.882991805810285468e+00,-2.628452219212191743e+00,-5.364828703707768653e+00,-5.433649968383214457e+00,-8.803936581725253063e+00,-7.015797037442347284e-01,-4.598472580652789077e+00,1.005640977964485261e+00,2.596037226723725055e+00,-1.135841061858578627e+01,-1.542508065139037932e+00,-1.324103289391320493e+00,-1.088719495025639361e+01,3.495598770648618014e+00,3.016282223071778734e+00,5.406331824693701993e-01,2.689829842832912377e+00,2.690668416367741345e-01,-1.588292940100041184e+00,4.101754821272120211e+00,-3.720022979026938348e+00,5.183585001278790960e-01,-1.089401610304428836e+00,1.690711345506940688e+00,3.446236626390867475e+00,1.738374085359372101e+00,-1.626672646080278950e+00,2.244992085887403954e-01,-7.987838953627348637e-01,
