-6.771660618666769160e+00,-8.248817170237906282e+00,-5.818153867834061632e-01,-2.006291200621809878e+00,-2.970416165499915717e+00,-7.000729063450668033e-01,-2.617545046934756758e+00,1.734764293348050046e+00,-7.792319847323329718e+00,1.131465423457785668e+00,-3.863140673516846091e-01,-8.414072354116399310e+00,1.190013214266351538e+00,-2.600543662306372017e+00,-4.352669235955815452e+00,-2.831188007475067270e+00,-3.557036395829364928e+00,-1.965785545122852529e+00,-1.194915833707738795e+00,2.194567880298496476e+00,2.746720562313481384e+00,1.668265006844339648e+00,1.238400368044592970e+00,5.662967426731964071e-01,-5.169180701014343349e+00,-2.761272939411436589e-01,1.912141126225533228e+00,-3.325522656122998022e+00,1.553791309714103175e+00,-7.178821070904180424e+00,1.583111534341037796e+00,-9.343992257454698525e-01,2.105745277612644240e-01,5.195319709816920373e+00,-1.439935028290453722e+00,1.196251436156436920e+00,-2.855132669232705922e+00,-3.348510254400463904e+00,-5.260243690840667341e+00,2.026673939486557607e+00,4.255031226860295668e+00,2.082766882503062966e+00,-7.687915367356317198e-01,-7.821353903998071733e-01,5.707489717222616887e-01,-3.073607830833821275e+00,2.608554407197770875e+00,1.329067716423415035e+00,-1.323693082834844503e+01,-1.619290428570587803e+00,2.797637421414033820e+00,-1.994421799308215171e+00,3.839720299256860425e+00,-1.172937439360747458e+00,1.252689530915251925e+00,3.876052991549148174e+00,3.554196799018195296e+00,2.848799260448273696e-01,2.503227729001160284e+01,4.268579691721762770e-01,2.400689801471023621e+00,-1.095621120889951339e-01,-3.622372889320643607e-01,5.078162373780258365e-01,2.762937845297156469e-01,2.612261366262587092e+00,1.013051010566346832e+00,-3.271623627378158705e+00,-7.488009320202348995e+00,-4.283628727678891579e+00,-3.103460439614010635e+00,6.432049669442320150e-01,6.918257687557306745e+00,-7.131346202580679527e-01,-5.424036900692764895e+00,5.638173515729978380e-01,-1.946761494799893910e+00,5.194256310648193598e+00,2.312083939934678423e+00,-1.697406827310975430e+01,7.485563993740751876e+00,-6.269684155031571837e-01,-1.549830729201278734e+00,-1.479711746850494558e+00,-2.138545944510174657e+00,1.953763754656478113e+00,3.781107753235637414e+00,-2.440350266860004946e-01,1.879766766479212814e-02,-4.338286971737978170e+00,-1.084671626732695238e+00,-8.735050655964444744e-01,-1.293472035636918704e+00,-5.588056624519541771e-01,1.870650158651710804e+00,-1.090203071356902420e+00,3.611915289243218918e+00,-2.401740178391523095e+00,-4.037353619547837447e+00,1.850386242096659251e+00,4.327636090362671162e+00,1.575457279785820175e+00,6.311655614801501279e+00,-1.076762518550726133e+00,-1.534442306083650363e-02,-1.780366726457917714e+00,-2.027178678554884428e+00,-1.476519706439244572e+00,1.049992215831492492e+00,-2.862509220017199318e+00,3.413218457573568454e+00,5.457230679207717650e+00,-1.426278848762041473e+00,-5.810735076061837034e-01,-4.399162359169098480e+00,-4.975403061314848108e-01,-1.478732758733559249e+00,1.889790366679708900e+00,1.897365905210358150e+01,-2.339579720929999773e+00,1.119352673411835308e+00,5.037042281096776541e+00,-4.706518572086813013e-01,-1.891176962065541867e+00,-5.276271456102569202e-01,-1.556531400322326508e+00,-2.504432128112044964e+00,1.576338351577939889e+00,2.781385672391876618e+00,-6.664208039187915489e-01,9.388334179928456980e-01,-2.039900022377741262e+00,9.159818272467294964e-01,-6.374983281112016620e-01,5.049691240899165656e+00,-5.178567343908464515e+00,-1.727143269602140929e+00,-2.395540716434470863e+00,-6.318282279174547433e+00,-6.247685944200038755e-01,-5.989675531510147088e+00,-4.792019862020818977e+00,1.595761826239786174e+01,-6.291656536337529637e+00,-3.000447106697491151e+00,4.013153388511463859e+00,2.431895730418317247e-01,-8.995615980357833941e-01,1.241178173456088524e-01,1.659487226275538463e+00,-2.028562064179820990e+00,-5.004989001744262200e-01,-1.255378591752675188e+00,-3.426013139627241078e+00,-3.408042428437051630e+00,-4.407350623698241265e-01,-5.949711425028422873e+00,8.196441471845819393e+00,1.200241792362005011e+00,2.667485874861074358e+00,-1.058695363010525137e+00,4.418655477731548764e+00,1.346656145738388322e+00,6.471275286458440412e+00,1.811095019536201001e+00,-3.922208942749413563e+00,-9.555177008989701903e+00,-3.662368298735573013e+00,2.760934917701410640e+00,-3.390504126867886825e+00,-1.647994752937060881e+00,-1.891001210450224956e+00,-3.464966742751983908e+00,-5.359118306334011095e+00,-5.446032267632520352e+00,-2.222118105151208722e-01,-7.313255980629080888e-01,-4.584673733918115168e+00,-1.143934457098383817e+00,2.593000467601760839e+00,-1.134461364747625289e+01,-1.554219416930438413e+00,-1.339000321031942109e+00,-1.087053353356260210e+01,3.511073400742297235e+00,3.002667503330021859e+00,5.769686434796831298e-01,2.705966617939170593e+00,1.579691240855345125e-01,-1.602801810698940788e+00,4.084135611703161750e+00,-3.717697012352370489e+00,5.339409338091611890e-01,-1.108449026451472585e+00,1.706887439131490103e+00,3.432442368781698061e+00,1.755843661637431330e+00,-1.637611118401347987e+00,2.799587729061206454e-01,2.576720564969441907e-01,
