-7.517096766302081789e+00,-8.113782171626436224e+00,-7.209644413684187514e-01,-1.917771632063159926e+00,-2.145789080783183866e+00,-7.923561355810319062e-01,-8.334051499914288952e-01,-1.375447703538095423e+00,-6.614348630989855593e+00,1.266476989145051801e+00,-2.066059315615622893e-01,-6.041778771555560423e-01,1.340784064316858482e+00,-2.738909554991147299e+00,-4.241542627708560609e+00,-2.968968029186926039e+00,-3.386496859771760626e+00,-1.834736250944132063e+00,1.672878151051713003e+00,2.102444879653831311e+00,2.886552281452358315e+00,1.584264147134246903e+00,1.375602357954058386e+00,4.594056765483235383e-01,-5.304250337272650384e+00,-1.782927224031004565e-01,5.681671442211282397e-01,9.310855904005064243e-01,8.230347513814643134e-01,-7.207256449216853156e+00,1.505989348174662013e+00,-2.461426902552148466e+00,2.349051160593529086e-01,5.332329772165437909e+00,-1.365050655006802227e+00,1.252701465481381504e+00,-2.735443917324342333e+00,5.528191726888617374e+00,-4.126395180416531971e+00,1.891598047835268748e+00,4.119908038579026766e+00,1.993305000041186492e+00,-9.073625031707480693e-01,-7.040694205601129019e-01,7.307746126396255093e-01,-5.560490095473431538e+00,2.744367375233713879e+00,1.259911278465509321e+00,-1.310056285340136917e+01,-1.756648423360983147e+00,2.935632103365806600e+00,-2.130231471482801453e+00,1.989067254836800469e+00,-1.236181825381957422e+00,1.389266982545665607e+00,4.012952242262142200e+00,3.678239965953598922e+00,4.278156757347044148e-01,2.915853707865042210e+01,4.275385400479372322e-01,2.280247502835443640e+00,7.218184285140398504e-02,-4.437869398329842840e-01,6.474830077959613517e-01,3.920354155689826370e-01,2.477185969090715201e+00,1.205564271527231224e+00,-3.404299165002023120e+00,3.799674103437804096e+00,-4.148435739010821521e+00,-2.982368989089561495e+00,3.491904881916090275e+00,5.467109694646401508e+00,2.286336978678022158e-01,-5.558991478728585456e+00,7.029664969475487579e-01,-1.301238007153658005e+00,5.059294894078008475e+00,2.447830952317866959e+00,-1.710914367099074695e+01,4.116031770498371323e+00,-7.664321358358600067e-01,-1.688096520597494488e+00,-1.348806485653472498e+00,-2.263704829806805652e+00,2.090380607491379550e+00,3.646023658178075166e+00,-2.427211498447578164e-01,-1.881541301065947636e+00,-4.205167158819967277e+00,-1.175471046394381602e+00,-9.060971492801098703e-01,-1.227761334784351899e+00,7.521632283270997199e+00,1.785285569948401152e+00,-1.013592790507593655e+00,2.685155102024144202e+00,-2.269851932060341859e+00,-3.926144164078453791e+00,1.997089886463539576e+00,4.459451345254259458e+00,1.497637264590523820e+00,1.088859601692645462e+01,-5.653882237617053441e+00,3.766580816789302233e+00,-1.681121527357004153e+00,-1.892102539034660857e+00,-1.604126193695716962e+00,1.187108483997527886e+00,-2.761716403502931350e+00,3.278245613575712092e+00,4.009671777540130932e+00,-1.564096809359088569e+00,-7.203611139519597861e-01,-4.366237182819484808e+00,1.991017225312877947e+00,-2.737522045427289274e+00,1.803723941777358730e+00,1.910873444650214736e+01,-2.475947407069571060e+00,1.260504171587704780e+00,5.165166433120175427e+00,-2.375720274135288079e+00,1.720789879581844595e+00,-5.083576637679664278e-01,-1.479613709196563764e+00,-2.644048987641719695e+00,1.243661835396674853e+00,2.534016586606807842e+00,-4.640099552435027697e+00,8.852125256797218622e-01,-2.175564569118068281e+00,7.908682186716927687e-01,-7.764625293736248102e-01,5.184755433162965055e+00,-5.314913646221136823e+00,-1.620529477840161103e+00,-2.533437114080191677e+00,-6.184513442697864960e+00,-5.966153212231067871e-01,-6.124748226358814662e+00,-4.731382024194381586e+00,1.600219459606246986e+01,-6.426026191817257427e+00,-2.897846788053276335e+00,4.132060201349168516e+00,3.401687871199685631e-01,-1.037633861929208923e+00,1.632094195102320733e-01,1.818914230971659274e+00,-1.926937340481422289e+00,-4.820928485757817739e-01,-2.278973951324193337e+01,5.389977499451127363e-01,-3.545031487883316235e+00,-5.807149846141738125e-01,-6.084699317463701185e+00,5.167181696731289797e+00,-3.335209355110761553e+00,2.589734078710812071e+00,-1.193769107055081991e+00,4.284354626140208566e+00,1.483809505452246880e+00,6.336201740690820650e+00,1.451708547506077585e+00,-4.045864934108962530e+00,2.750567761251109644e+01,-3.544386781919475649e+00,2.659569927567817071e+00,-3.255802144304626111e+00,-1.784489607291969815e+00,-1.805896947660942109e+00,-3.551377731393010162e+00,-5.242618423247210835e+00,-5.578722245236230393e+00,-1.255012602974813873e+01,-6.943245147420381569e-01,-4.449591907214673903e+00,1.540714731086263223e+00,2.481941189275102655e+00,-4.250969558524146485e+00,-1.477280450332772777e+00,-1.268991394852328147e+00,-2.211266572442560641e+00,3.647762445514280305e+00,2.867976632774437817e+00,5.537820583936315932e-01,2.754928456139465798e+00,5.349359824202062214e-02,-1.739747442186478255e+00,3.948478061655756655e+00,-3.609078427088030949e+00,6.733856734556203927e-01,-1.048103720610405354e+00,1.646699549348196401e+00,3.297370474262991014e+00,1.702633616323508292e+00,-1.559792157559409143e+00,2.942847816868346400e-01,1.958897290768646382e+00,
