-7.473854634335052260e+00,-8.070154496960844526e+00,-7.660513603763832169e-01,-1.889143307013602557e+00,9.249328303477930557e-01,-8.262362617493380634e-01,-4.300786358171015067e+00,6.090943558595424356e+00,-2.060149129226003684e+00,1.310098294978773836e+00,-1.733839196299235552e-01,-4.888267455982054699e+00,1.396456231177689578e+00,-2.782583143452631358e+00,-4.205747725626618028e+00,-3.013886938032132701e+00,-3.346276458124654685e+00,-1.792118219732328210e+00,-7.805228038108451560e-01,2.072586782409965078e+00,2.931868538361948939e+00,1.557153173771383070e+00,1.420001998392314224e+00,4.507969144498235603e-01,-5.347885554016796661e+00,-1.592863514157196181e-01,6.128278240464914983e-01,-2.717761385599676949e+00,-1.014672017109574664e+00,-7.247589966458716226e+00,1.480906886399920630e+00,-2.785657055076117494e+00,2.391470001915143306e-01,5.376223859686645845e+00,-1.340286407706505090e+00,1.278951030811315892e+00,-2.695283726479676290e+00,1.219341114636368406e+00,-3.966762488363980932e+00,1.847960945534176336e+00,4.076301094845357298e+00,1.964433869023499923e+00,-9.523008458810908738e-01,-6.791524950980679654e-01,8.405945310629455713e-01,-1.079180483189708273e+00,2.788829616991231219e+00,1.237259460383348664e+00,-1.305673038894747329e+01,-1.801275646348016846e+00,2.980685667694265906e+00,-2.174115541584500821e+00,3.870062515979590057e+00,-2.336176045819156055e+00,1.433513072336789484e+00,4.057523034108010407e+00,3.719158470309344544e+00,4.740604437476039212e-01,2.227050813948593699e+01,4.257887196721856782e-01,2.301775949418752187e+00,1.248962871676989189e-01,-4.743825093859369568e-01,6.927417254074512698e-01,4.312563124130799341e-01,2.433548803268486882e+00,1.744894033046062942e+00,-3.447333771722581819e+00,1.006101978637403249e+00,-4.104791102513078549e+00,-2.942940650727377871e+00,-1.937686722907964454e-01,5.104097178768768117e+00,-5.420658516454101017e-01,-5.602597112032217552e+00,7.480565297949111070e-01,-1.468828083230876658e+00,5.015688052802597774e+00,2.491702728887370544e+00,-1.715278083700815515e+01,4.072393025939639699e+00,-8.117605156154392709e-01,-1.733637876727142757e+00,-1.306254990226952462e+00,-2.304877604104553335e+00,2.134618805205221737e+00,3.602386493166756853e+00,-2.402084398057909298e-01,3.562631360652219303e+00,-4.162035149393218170e+00,-1.208238705693467363e+00,-8.222843784747314588e-01,-1.206288940914290730e+00,-1.445954580236211484e+00,1.757704896597651167e+00,-9.890395420771376234e-01,2.402919533778254291e+00,-2.227038790080920538e+00,-3.890130857320350799e+00,2.047976960658274503e+00,4.502220313267298657e+00,1.472346072910299952e+00,1.097116478096802261e+01,-5.736532828468684286e+00,-6.325410684611634249e-01,-1.650035843883180364e+00,-1.848465206670120153e+00,-1.645864673237932507e+00,1.231513966936800042e+00,-2.729126370139351110e+00,3.234635620953056456e+00,-6.460234365450173710e-01,-1.608451592781814821e+00,-7.655099806544785057e-01,-4.613099058705692812e+00,7.150382352199088354e-01,-2.367074035244968400e+00,1.775797356567077045e+00,1.915237161162136559e+01,-2.519711332861865660e+00,1.307348231896631408e+00,5.207545770094341719e+00,-6.063329318790469102e-01,-4.116606214940555786e-01,-5.004566711401107204e-01,-1.454567880773230515e+00,-2.689487847375021889e+00,1.182752076055219703e+00,-3.341892945307796126e-01,-2.129726104898650885e+00,8.676432889575954599e-01,-2.219465544232218424e+00,7.501228846598859690e-01,-8.215039580440781641e-01,5.228389652049091119e+00,-5.359237633962055547e+00,-1.585476902496538276e+00,-2.578620723165399031e+00,-6.141216409770148488e+00,-5.861750357002823986e-01,-6.168384651195073509e+00,-4.759210802442218835e+00,1.604582353874502587e+01,-6.469477451850679017e+00,-2.864764757813350826e+00,4.171962194286185088e+00,3.750971500752059429e-01,-1.082406295179283884e+00,1.705946334260041719e-01,2.407987331426130861e+00,-1.890989889698074355e+00,-4.747247605167542184e-01,-2.046751054172318973e+01,-4.161582366453113746e-01,-3.589609846421540684e+00,-6.260798906791043006e-01,-6.128331437177265251e+00,5.123543816656325411e+00,-1.958691978452180793e+00,2.508723366794201048e+00,-1.237405696860218063e+00,4.240910300721675519e+00,1.528223897168770051e+00,6.292565068840494824e+00,-2.674008082338031222e+00,-4.087132345632380925e+00,2.446091607748468633e+01,-3.504719439470844744e+00,2.626411707158682773e+00,-3.212242689943086482e+00,-1.828659198690088417e+00,-1.778405446618809949e+00,-1.894364967838512381e+00,-5.204895702686505032e+00,-5.621758758349483465e+00,-4.076687325928738836e+00,-6.811959882642605324e-01,-4.405954095392179859e+00,-7.946790284072657862e-01,2.446091497374272450e+00,-4.208412098581320926e+00,-1.452374324269775974e+00,-1.246338626479640999e+00,-2.102727917858555617e+00,3.692434195182921375e+00,2.824452647767820235e+00,5.448164711139600325e-01,2.798581651941236981e+00,3.204600388221452711e-02,-1.784124625395792751e+00,3.904828698538472143e+00,-3.573889675061989291e+00,7.185515300484022205e-01,-1.028109786298093686e+00,1.629708230107048461e+00,3.253734238616160734e+00,1.688676889372056067e+00,-1.534406190921056901e+00,2.955849676398488168e-01,-4.151621362884701405e+00,
