-6.630043940274005010e+00,-8.390457872271504414e+00,-4.424363545813452259e-01,-2.173564607536669246e+00,-2.219892398104117870e+00,-5.332773576946401306e-01,4.682110345679925123e-01,-8.414163544043146814e+00,1.111614392931817186e+00,9.898106892719396033e-01,-5.845373227184744863e-02,-9.808295055013367403e+00,1.054064269879800619e+00,-2.461810995174714467e+00,-4.507443236337446812e+00,-2.690903147047900124e+00,-3.677269250314443294e+00,-2.109790063401654869e+00,-4.976965679958696320e+00,2.359837717120942813e+00,2.607547424168106698e+00,1.838094199423951469e+00,1.097940780533135596e+00,2.758753355206535196e-01,-5.027561155786299807e+00,6.136768943234414313e-04,-4.297622593082386366e-01,-2.911551573778375701e+00,3.024615664846274310e+00,-6.973010802526973251e+00,1.756582543385415640e+00,-1.989171381535592698e+00,4.414207067279089514e-01,5.055352827004796268e+00,-1.614695896633600469e+00,1.005985503670843162e+00,-3.005734519382268211e+00,-2.828111380933012509e+00,-5.079551831957012986e+00,2.168290070618766219e+00,4.396563709756017069e+00,2.249490934262111441e+00,-6.290668117796416325e-01,-9.547133913248231352e-01,8.528951686612264993e-01,-5.643546094677524216e+00,2.466990987836085392e+00,1.506979943611086448e+00,-1.337725872304972619e+01,-1.478855825653417444e+00,2.657458413570596978e+00,-1.853211820462471904e+00,7.258560735157995047e-01,-3.959715245558929286e+00,1.111856135784443644e+00,3.735318278686067028e+00,3.405886170892816978e+00,1.478521978308105778e-01,2.489066061189665646e+01,6.435449506678811993e-01,2.084809079471892090e+00,-2.174208950448587585e-01,-1.886412208290343395e-01,3.687297467430165065e-01,1.230925160852859995e-01,2.753878044820526672e+00,1.287317900215266375e+00,-3.128576087170236608e+00,-4.842956566599797563e-01,-4.425139871664178770e+00,-3.253041658164886218e+00,-3.742823604321735775e+00,6.130099778192207083e+00,-1.876074147946965143e+00,-5.282348575474371088e+00,4.244378718742526369e-01,-1.422586701931189301e+00,5.335940825248533415e+00,2.170836301361758647e+00,-1.683245159499463028e+01,4.440733500988903515e+00,-4.877192234454206243e-01,-1.409243229035075151e+00,-1.623784874913140053e+00,-1.990933001502739552e+00,1.812964979952901512e+00,3.922715775858527376e+00,-4.602461112032451007e-01,1.105868965478552068e+00,-4.481059636732076967e+00,-9.162507270660591452e-01,-9.471556270445633530e-01,-1.473185394897561507e+00,-2.851085929692255494e+00,2.039649918873974066e+00,-1.263948698438699392e+00,1.552962350349307297e+00,-2.545243539922875442e+00,-4.192125299737448074e+00,1.714041750786904794e+00,4.184116429657263048e+00,1.748610735591023424e+00,1.084854634472309165e+01,-5.613680471526839355e+00,-2.513999789170178190e+00,-1.941170627627299305e+00,-2.168794986700288252e+00,-1.330425407893958578e+00,9.094680580091625277e-01,-3.023005760089670257e+00,3.554896095169767900e+00,5.316788559334643338e+00,-1.286432805193127749e+00,-4.417649724428391877e-01,-4.581228379033214004e+00,-6.454428390845667884e-01,-1.496850988050371312e+00,2.058392365801925639e+00,1.883204237193150021e+01,-2.199066173835878768e+00,9.806800375160613648e-01,4.891014058473868609e+00,-1.521774334540753060e+00,-4.862230946383130359e+00,-7.335323750476179239e-01,-1.730162524773212418e+00,-2.365016792198507023e+00,1.220150904088104893e+00,-5.974048851298454643e-01,-1.892068681566250854e+00,1.125408528684813891e+00,-1.898573954023144994e+00,1.063318257378163434e+00,-4.980078754189698476e-01,4.908067881361970919e+00,-5.037560458256283624e+00,-1.884826012658191274e+00,-2.255238997044928251e+00,-6.460671336853373248e+00,-8.256229102391392516e-01,-5.848057263398527716e+00,-4.514674876567083217e+00,1.576206948931575802e+01,-6.149618101580969665e+00,-3.159964859052077912e+00,3.861518936466784790e+00,5.093111514792403316e-01,-7.595587917288166846e-01,3.636464006744549171e-01,-3.704461687152780791e-01,-2.189020642520475679e+00,-7.068687949424017347e-01,-1.560202965040989653e+01,-3.538186997887542429e+00,-3.267238907226707845e+00,-3.018276156448529979e-01,-5.808042049424379627e+00,5.480162148086840546e+00,-5.339176241196071926e-01,2.814267659705212754e+00,-9.170778159129455709e-01,4.560731833280557979e+00,1.206155691874566172e+00,6.612893059547100272e+00,3.110480242088013991e+00,-3.773326403391239037e+00,-6.982747508962319216e+00,-3.813793177862204509e+00,2.921093780877016766e+00,-3.532343398810114277e+00,-1.507136679105570032e+00,-2.060113971246324116e+00,-2.127096939349926163e+00,-5.510970422315097927e+00,-5.302986983682822064e+00,-4.865596992438363522e-01,-9.271906742052737904e-01,-4.726286512708838927e+00,1.409623782588267149e+00,2.747866276818509146e+00,-1.103931054171650494e+01,-1.727867532990834398e+00,-1.516496272401207435e+00,-9.958640690039477050e+00,3.370173327829007359e+00,3.144502868796167139e+00,7.806023097388705700e-01,2.514156402318304284e+00,-1.212912037560183870e-01,-1.462176460555950852e+00,4.225251011610890117e+00,-3.873864344985942676e+00,3.947334292867066274e-01,-1.291276772263109107e+00,1.888381106761587880e+00,3.574061130314969414e+00,1.940428139500033344e+00,-1.810675914814963594e+00,5.051442927623666090e-01,5.137081598703547858e-01,
