-6.691787287269345796e+00,-8.328673437841567662e+00,-5.005329958150287473e-01,-2.070312137776046502e+00,8.697188748401935010e-02,-6.408040908468188857e-01,2.908311161623734709e+00,1.809442206861318070e+00,-1.368481850489269736e+00,1.051618909120321632e+00,-4.481591959900098066e-01,-2.483178187176735996e+00,1.107785948615140237e+00,-2.518660469935149582e+00,-4.424465890597110374e+00,-2.749587167960466871e+00,-3.625888737551003160e+00,-2.044042066734514496e+00,8.685388360038565070e-01,2.259861680107279724e+00,2.665527775683898426e+00,1.730665993002492353e+00,1.157818756353057754e+00,6.018597500287705682e-01,-5.089308109701470073e+00,-2.916422469940864182e-01,1.831895029855250545e+00,-1.997889455822752014e+00,2.306428971233401182e+00,-7.108174372226772952e+00,1.643412458827458122e+00,3.493116527256942661e+00,2.329795869996763302e-01,5.114217400711133621e+00,-1.499453030146474575e+00,1.156733383092435341e+00,-2.929501021345111145e+00,-2.420126570265518140e+00,-5.250471863362649927e+00,2.106548282704999497e+00,4.335131758363298893e+00,2.147140585001758861e+00,-6.877423437104968063e-01,-8.429034293316037818e-01,5.760734586755128506e-01,-5.290382010190042728e+00,2.528001460166127146e+00,1.386552840724831537e+00,-1.331686381035996902e+01,-1.538709485503080288e+00,2.715862007700179603e+00,-1.914282250541981423e+00,-1.035051599246160192e+00,3.543265970512479712e-01,1.172369606842209366e+00,3.794832645981101926e+00,3.479458675612531415e+00,2.020200517480540137e-01,2.495240395843304171e+01,4.598009170846928950e-01,2.433206610552230309e+00,2.547387079400740717e+00,-3.060478696947279142e-01,4.263352138109499645e-01,2.050497380296691374e-01,2.692134697572161617e+00,1.030712975653787167e+00,-3.192814688680346347e+00,3.322738796922703575e+00,-4.363529087683997609e+00,-3.178222513472250377e+00,-7.171393398251810214e-02,7.469283647198917464e+00,-2.209787059230525319e+00,-5.344215780970450247e+00,4.825236788729484472e-01,-1.982658039948845152e+00,5.274080353117751585e+00,2.231966733274888259e+00,-1.689419494153129264e+01,8.170999904105418210e+00,-5.456015129360346494e-01,-1.469446134804575976e+00,-1.557838777902926131e+00,-2.063203653088383493e+00,1.873394036593807321e+00,3.860990745975169336e+00,-2.762990550632893338e-01,-2.653386633666238392e+00,-4.417344019829306134e+00,-1.025371647756115445e+00,-7.520003354022294362e-01,-1.349994676139605554e+00,-1.529445947548070173e+00,1.933577779165592814e+00,-1.149995174337635095e+00,2.261261781603257415e+00,-2.480343165842764819e+00,-4.109110901409108507e+00,1.765762096607773612e+00,4.249008296932578865e+00,1.635856400867763627e+00,6.013852520614821451e+00,-7.788789103224829091e-01,-2.010495171123551472e+00,-1.848710687489494964e+00,-2.107052372641331051e+00,-1.399919035786966193e+00,9.694744939724388999e-01,-2.930771687502338629e+00,3.493047905873747805e+00,5.376872317181263128e+00,-1.345619456022381311e+00,-4.997454423559435366e-01,-4.460622522297899906e+00,-4.176534530132916423e+00,1.718049010146317779e-01,1.953021233890801955e+00,1.889378572201509243e+01,-2.257582280110329354e+00,1.034730387396117113e+00,4.959406209300041724e+00,-2.703989675053795061e+00,4.752179105446793228e-01,-5.670338208678669112e-01,-1.616687339351051023e+00,-2.423260207807580446e+00,1.494549335605924956e+00,-1.389999454499317999e-01,-2.374851394670526972e+00,9.909615164634086870e-01,-1.959885234833815382e+00,9.919986617031640863e-01,-5.562896391196614498e-01,4.969822747219529546e+00,-5.097648244616985735e+00,-1.796529271852065790e+00,-2.313381982896004718e+00,-6.397604975990381249e+00,-6.676079565012177364e-01,-5.909803313323413576e+00,-4.772518168947194717e+00,1.587775483476121963e+01,-6.212094086400459680e+00,-3.069230896176467382e+00,3.941485872648741839e+00,2.474838860459621093e-01,-8.186820761832267479e-01,1.404138394369759957e-01,-1.763172861161570681e+00,-2.097291340179427088e+00,-5.399402900639500569e-01,-1.946847433926109616e+01,3.201860835550629503e+00,-3.327214688217465799e+00,-3.591345298861990942e-01,-5.869841182737060237e+00,8.677682174822717087e+00,1.153080966442313393e+00,2.744895408046870600e+00,-9.788225119765895377e-01,4.498201640660142608e+00,1.266100905017105038e+00,6.551147829234909459e+00,-4.546625769406542616e+00,-3.848066361774036714e+00,-1.667233726017687090e+01,-3.736221920193479207e+00,2.829508813614849849e+00,-3.470227933997486858e+00,-1.567676463151560284e+00,-1.953942696226513620e+00,8.910091283992558342e-01,-5.432708501947780100e+00,-5.367235546419859560e+00,-8.264059009444249426e+00,-7.774190324298428934e-01,-4.664547513414923685e+00,8.648825906603787583e-01,2.664517805454698518e+00,-1.142448739265831392e+01,-1.614295061524569030e+00,-1.396608440526319272e+00,-1.095263083500655554e+01,3.429693469644528925e+00,3.082401098147255158e+00,6.180268452187185346e-01,2.623985236975909796e+00,1.732963306914391821e-01,-1.522320967511761047e+00,4.167595507992094994e+00,-3.788651010766057592e+00,4.525482225775538936e-01,-1.162823382723355170e+00,1.763365778677266293e+00,3.512314196578708358e+00,1.811249529882773768e+00,-1.698244740768850347e+00,3.063111349779047421e-01,-8.092958170501658444e+00,
