-6.722154458782978459e+00,-8.298325958436208794e+00,-5.323692691637489371e-01,-2.057979332866459288e+00,-2.601727403601044930e+00,-6.482280847339123575e-01,-2.328320391431020653e+00,7.841520759208861158e+00,-5.682760941062931614e+00,1.081955670840094808e+00,-3.174740639557441790e-01,-9.362690817236728691e+00,1.139995160577273570e+00,-2.551163716611467791e+00,-4.403290588628248514e+00,-2.781734876881424068e+00,-3.607418682793127385e+00,-2.015510852571375189e+00,-1.703774847058493747e-01,2.246117021491030208e+00,2.697286759128549427e+00,1.720084149857387779e+00,1.188929139166322368e+00,4.980199385789569888e-01,-5.119674250661776505e+00,-2.146351240511986669e-01,1.862682356774162606e+00,4.091429952159646888e+00,-9.425982641446022381e-01,-7.128088991811579511e+00,1.635389733886478014e+00,-1.829511883315206866e+00,2.678482683952745358e-01,5.145791756491247426e+00,-1.492404141351076463e+00,1.141331690880142524e+00,-2.905615160757744064e+00,-3.510108206984761114e+00,-5.205610438410651852e+00,2.076180066070620001e+00,4.304532554269600020e+00,2.134411426946467571e+00,-7.193362393216218287e-01,-8.342861502297249654e-01,6.313519012523535201e-01,-2.835908928239389226e+00,2.558926967749457049e+00,1.381746175758438389e+00,-1.328643656077154489e+01,-1.569816268815769966e+00,2.748192868701512914e+00,-1.944927047065014847e+00,-2.957754577830866705e+00,3.085146397750489378e+00,1.203178230097558199e+00,3.826585607820221391e+00,3.504025073451180639e+00,2.356926805156938365e-01,2.498277113015573292e+01,4.830035212932784483e-01,2.307586451852062570e+00,-1.571174411612271393e-01,-3.092615968755140776e-01,4.583782032492464409e-01,2.254777985130535789e-01,2.661767526159890096e+00,1.072517141119431638e+00,-3.221979798531662276e+00,3.480973314955327247e+00,-4.333131320955402543e+00,-3.153634005850114441e+00,1.494136672557017764e+00,6.966672067977023097e+00,-1.618656955311432721e+00,-5.374524134676266662e+00,5.143700319716486558e-01,-2.200405389005937740e-01,5.243768326403167812e+00,2.262588451094408093e+00,-1.692456211325388438e+01,7.093478726338742213e+00,-5.775276869342917951e-01,-1.500070203641559186e+00,-1.529423030566537722e+00,-2.088437443844423758e+00,1.904279441842112508e+00,3.830613889906108405e+00,-2.997215927064402208e-01,1.456070009246825059e+00,-4.387901654927333972e+00,-1.032509839906463833e+00,-9.709332607728192732e-01,-1.346286902269963726e+00,5.072932441482804755e-01,1.922495289816692932e+00,-1.142353836523175570e+00,2.432841145915843661e+00,-2.451416360545098705e+00,-4.088013176204927213e+00,1.801046898480107350e+00,4.277954303480302478e+00,1.627675257507362749e+00,1.001268805191168454e+01,-4.777810753301442226e+00,-3.595071449606490610e+00,-1.831465361507768730e+00,-2.076684794830669922e+00,-1.426612574054417104e+00,1.000499711878640730e+00,-2.913629372539888074e+00,3.462729859880192329e+00,5.407749363152372091e+00,-1.376972967544239257e+00,-5.316293702021992473e-01,-4.451571840152475978e+00,-2.898739868944035236e-01,-2.078937877609073670e+00,1.941629656006997884e+00,1.892415289205062123e+01,-2.290099572007178175e+00,1.069981730878570403e+00,4.987088994038284540e+00,-8.598307317696702867e-01,-3.557094385352516319e+00,-5.827644803762167536e-01,-1.608802638297136767e+00,-2.454936783930445010e+00,1.671618556652188392e+00,3.119620347462994658e+00,-1.144663828144258932e+00,9.920506946041710572e-01,-1.990376215512540403e+00,9.659993784722530341e-01,-5.880509863251128788e-01,5.000184459245176960e+00,-5.129090739093686402e+00,-1.778037403995581744e+00,-2.346089370876895508e+00,-6.367860984097795551e+00,-6.794184454539193840e-01,-5.940169234475754401e+00,-4.691274866446765834e+00,1.590811295988607199e+01,-6.242113640708677025e+00,-3.051467772181748028e+00,3.962711757732011009e+00,3.033232044522807813e-01,-8.500993669017933296e-01,1.823764089011374878e-01,1.977813587061496570e+00,-2.080353165728170861e+00,-5.554429855390471404e-01,-1.234920239014021348e+01,2.917323119382580376e+00,-3.358514453106137054e+00,-3.912943449982470567e-01,-5.900199690431125354e+00,8.045934645514986272e+00,2.225449582784844171e+00,2.718014546709667023e+00,-1.009189124705049512e+00,4.468207500858608405e+00,1.297179435110977774e+00,6.520781539222682888e+00,3.116763195490847238e+00,-3.871699478553590978e+00,-9.118508398015467975e+00,-3.712985265753942610e+00,2.812138160659502173e+00,-3.440037773484781347e+00,-1.598503526226321636e+00,-1.942847027602286447e+00,-3.187883233453110421e+00,-5.409523053513988877e+00,-5.396392851861675943e+00,3.630577089185015871e-01,-7.856207862013657728e-01,-4.634179817489379793e+00,-2.183874268035471966e-01,2.643617321069305248e+00,-1.139411980254429579e+01,-1.606439907741169515e+00,-1.391526787793901265e+00,-1.092000202054668279e+01,3.461587559053849183e+00,3.052192869475437220e+00,6.318532672698680130e-01,2.656596365578487884e+00,9.561976204942437829e-02,-1.553322656095503351e+00,4.133634932487766811e+00,-3.768484563199404391e+00,4.844961011634252857e-01,-1.161537816421016389e+00,1.759729169960906114e+00,3.481948707083664551e+00,1.809076429134895081e+00,-1.689911706494844346e+00,3.369633362712795011e-01,-1.498001589028032488e+00,
