-7.652657205669668450e+00,-8.248295422333518090e+00,-5.913103798740038108e-01,-2.100782924972076415e+00,2.779004320936504069e+00,-6.309123702174919135e-01,-3.318816261863152040e+00,-7.219269118663672602e-01,1.414255633846221372e+01,1.131947441326053960e+00,1.599705934917439176e-01,-5.343093416729033152e+00,1.306012480810737619e+00,-2.604973066147520111e+00,-4.401699170587524357e+00,-2.838644701617295762e+00,-3.542934688482374472e+00,-1.972188134773837698e+00,1.455798612775000000e+00,2.281634274168995447e+00,2.756957483207961079e+00,1.771546917202128535e+00,1.243707749653705452e+00,1.657737855702995367e-01,-5.169759936727292171e+00,1.359284284295311784e-01,5.162484401193707662e-01,4.066020659353415390e-01,1.706504173706212324e+00,-7.063901242385230539e+00,1.700846113903997203e+00,-2.463804378222213209e+00,5.190332986932222337e-01,5.200307166510886425e+00,-1.561077731032216809e+00,1.071725812198432770e+00,-2.881074110318875281e+00,1.101223027940435362e+00,-3.250143959071407629e+00,2.026083173839439144e+00,4.254468878174630930e+00,2.175560100574902567e+00,-7.772111282276427113e-01,-8.974095670687411985e-01,6.296701868135665681e-01,-5.957086141669247326e+00,2.612571166313669480e+00,1.462241899447133564e+00,-1.323473036746639941e+01,-1.625665036825072463e+00,2.805909185571358488e+00,-1.996483248657013876e+00,4.499014103798636199e+00,-2.299666770994276188e+00,1.256908182878430980e+00,3.881593314940943618e+00,3.536346312891040622e+00,3.017310690980707921e-01,1.291811767460751703e+01,6.967709165144586603e-01,2.052341181448071872e+00,-3.526625472319375176e-02,-2.740232327008332303e-01,5.183666935347617244e-01,2.462879163188632647e-01,2.611670961328588891e+00,3.287906083495604204e-01,-3.268134126633283287e+00,3.525225570381328222e+00,-4.282897502185507577e+00,-3.129245082740907069e+00,4.623519747759695875e+00,4.125623343826486433e+00,2.459797567930209095e+00,-5.424417616185288615e+00,5.732486295469301218e-01,8.756539774475960436e-02,5.193866151799142905e+00,2.314028685714466516e+00,-1.697465867924915983e+01,3.340296971630514644e+00,-6.375089020122922667e-01,-1.559014623245490894e+00,-1.486352447663192855e+00,-2.122565279836479579e+00,1.957908239392118110e+00,3.780508646440607912e+00,-5.033581160081451733e-01,1.125979392851118588e+00,-4.341132336889708121e+00,-1.011297334057164266e+00,-4.624789210166065367e-01,-1.434708504507628879e+00,-1.040186542444591300e+00,1.971473915959728984e+00,-1.208247449015088737e+00,2.088860113270198493e+00,-2.406706013448657089e+00,-4.085374463162871450e+00,1.954416778729963111e+00,4.322535516781437437e+00,1.691420497761462860e+00,7.421143152632851958e+00,-2.186783259700101123e+00,-1.514406259295756063e-01,-1.856920268486638381e+00,-1.756643939132831900e+00,-1.464381237382288647e+00,1.055292078086726981e+00,-2.932228432782111316e+00,3.412807973974009368e+00,-9.973631834075096236e-01,-1.431507701648854436e+00,-5.908939404389987882e-01,-2.490223832675387605e+00,1.194247434640017813e+00,-6.145120303435641640e-01,1.989081292143324076e+00,1.897424945223006176e+01,-2.341855763605592333e+00,1.136940668434018420e+00,5.027644990597226915e+00,1.204456533288251308e+00,-2.102779911339569985e+00,-7.560972481211603036e-01,-1.674448749431318939e+00,-2.514727457401579880e+00,8.548716040147341655e-01,1.223794647639374067e-01,-1.234443158786068251e+00,1.102901287709064482e+00,-2.042034757329068473e+00,9.336992756632648272e-01,-6.466184263569002555e-01,5.050262328579865567e+00,-5.182769297198020375e+00,-1.780655632876022798e+00,-2.404286566814794579e+00,-6.319979611610450299e+00,-8.371634692808089806e-01,-5.990261142973212216e+00,-4.518807690655568976e+00,1.586751208149818915e+01,-6.291016004260515437e+00,-3.066364874418768594e+00,3.987422560167485308e+00,7.563443671127891843e-01,-9.068673866559270325e-01,4.571229233397765546e-01,3.054450676024832223e+00,-2.090058495951974127e+00,-7.313331500462113555e-01,-1.646678087399350510e+00,-4.146927009158823396e-01,-3.413440727356206406e+00,-4.519882393223763062e-01,-5.950201940490496888e+00,5.281434298142718475e+00,-1.987201005891581440e+00,2.673379412605028094e+00,-1.059282533529408488e+00,4.419404572685849963e+00,1.351933393503536252e+00,6.470688111082395721e+00,1.619793684899943242e+00,-3.904230162936891624e+00,1.491131520160954160e+01,-3.692588717069565707e+00,2.828821927473362141e+00,-3.390544399108025964e+00,-1.651856374578195119e+00,-1.992816243085984151e+00,-1.824597852488080152e+00,-5.396525497458156906e+00,-5.442562174149067289e+00,-3.551280567565531232e+00,-9.264623280582963138e-01,9.554211394894041032e-01,-8.889347576957437602e-02,2.640890325494086088e+00,-4.388168174286782630e+00,-1.672245135675340277e+00,-1.470827791776013971e+00,-1.800116038831184984e+00,3.516973287497172862e+00,3.002801700714556876e+00,7.989808524747450402e-01,2.621204304168271992e+00,-2.796899335334456227e-01,-1.607707978869415300e+00,4.082940658948001733e+00,-3.771282019405621355e+00,5.440196118589430974e-01,-1.258819668114121715e+00,1.875128483125823031e+00,3.431858112105725223e+00,1.947807097232546969e+00,-1.753868309483950005e+00,5.698078009157171442e-01,-6.501857115345823779e+00,
