-6.873032879636720160e+00,-8.147402262628279601e+00,-6.804974282306097688e-01,-1.864984197886765172e+00,5.666399000411243003e-01,-8.639113207574316000e-01,-1.191834254461819675e+00,-2.370117819421079020e+00,3.756302958910808343e+00,1.232916394966256490e+00,-9.254608724523962771e-01,-8.600140952463064536e+00,1.282957575083200741e+00,-2.698395733818340858e+00,-4.231054646722501644e+00,-2.929779960551764706e+00,-3.456787041813958794e+00,-1.860150309973560345e+00,-7.309388974122354998e-01,2.056715672491199243e+00,2.844291256012505098e+00,1.522094877792818490e+00,1.338408137887127314e+00,9.859080292371348309e-01,-5.270556096612794228e+00,-6.745545386130533672e-01,2.011909681180146237e+00,-2.896622816223489938e+00,-1.077262958073504606e+01,-7.324931126562707284e+00,1.432921194287901434e+00,-8.285029866036855983e-01,-4.123971926665537246e-02,5.295480403957908422e+00,-1.288308033769215655e+00,1.445676518413473222e+00,-2.742078543395567447e+00,-8.347539657142158731e+00,3.790870272015760545e+00,1.925304094112828324e+00,4.154275998412876092e+00,1.942372509756014498e+00,-8.679198468025760560e-01,-6.310157196275928415e-01,2.903214286399861122e-01,-1.559318097843660711e+00,2.709703868221066791e+00,1.171694081804630860e+00,-1.314010748584186672e+01,-1.719339632534406803e+00,2.896192902474904685e+00,-2.095278347466320135e+00,-3.284034459360347658e+00,1.312125602384798029e+00,1.353475394507198448e+00,3.975509709367738953e+00,3.671523683862528031e+00,3.796963025404908598e-01,2.513364955047079619e+01,2.066917502130552753e-01,2.696371257426359858e+00,3.819750476145531870e+00,-5.372910550736574864e-01,6.060943198978960833e-01,4.055031920906225773e-01,2.510889104945036809e+00,7.702715470336384262e-01,-3.376126277594503566e+00,-8.929190064453466746e+00,-4.182360732120027791e+00,-2.988430432890522681e+00,-2.202033427218011319e+00,7.763765098843655288e+00,-2.116568736620683122e+00,-5.525559788552669716e+00,6.624785052185167000e-01,-1.445454178224105934e+00,5.092744169578534041e+00,2.412986300699878850e+00,-1.707544053356928870e+01,8.569520113610820999e+00,-7.254997325833815180e-01,-1.649367024462403242e+00,-1.373404586297006125e+00,-2.253749912603071781e+00,2.054196791373108955e+00,3.679745754088501908e+00,-1.559758815679346614e-02,-1.566926950295230714e-01,-4.234729607490882231e+00,-1.250076674613118888e+00,-3.825965151430141264e-01,-1.133936040953569035e+00,-5.824622398232011555e+00,1.726533276305854958e+00,-9.364280411074800137e-01,2.402363597771146608e+00,-2.296979749259119963e+00,-3.915774333392452622e+00,1.943070451894267636e+00,4.432731899886724669e+00,1.425162220183502582e+00,1.170350579104343325e+01,-6.468400637407555998e+00,7.730765025023328407e-01,-1.649504648838997500e+00,-1.925807108545495971e+00,-1.587381020623944261e+00,1.150309994955866610e+00,-2.732077666107949998e+00,3.311721554074947171e+00,5.557761913979025969e+00,-1.524632022461659631e+00,-6.796536832922517313e-01,-4.256357227448392955e+00,4.381539219069709112e+00,-2.254224213805733346e+00,1.746737482952618326e+00,1.907503131687006004e+01,-2.438269102827981261e+00,1.214035718857012336e+00,5.147781770898962606e+00,-3.426612226033224573e+00,1.083253698623996453e+00,-3.230858323834945867e-01,-1.405813288464080157e+00,-2.601823232012468345e+00,1.189694533060402515e+00,2.067205314478671507e+00,-3.352085363097537130e+00,7.663993563141752174e-01,-2.141267694563893986e+00,8.038051098259926253e-01,-7.363038611726006044e-01,5.151077671084556719e+00,-5.278545581335829517e+00,-1.597740269567041294e+00,-2.494055454372863689e+00,-6.215417309664374557e+00,-4.294549529154879086e-01,-6.091051011149303029e+00,-4.997015355609088161e+00,1.606299639205876417e+01,-6.393917328327570537e+00,-2.871051795149808683e+00,4.140765302743960596e+00,-5.067201946994825956e-02,-9.990190423608937831e-01,-1.433640784951706881e-01,-6.336706098561394399e-03,-1.905989197187620166e+00,-2.949352867180045079e-01,-2.520408508385368762e+01,1.843394717308684871e+00,-3.508048291642782868e+00,-5.388620994090169702e-01,-6.051113830457043541e+00,8.496438744003775412e+00,-1.396518633914078711e+00,2.569166028317546147e+00,-1.160069171304999092e+00,4.316423944254599299e+00,1.446731333146372922e+00,6.369900806373283153e+00,-1.997465839115538877e+00,-4.037958870237663866e+00,-4.746019037544457753e+00,-3.548484853106824932e+00,2.632182368358968461e+00,-3.288824687122537505e+00,-1.748605507607154053e+00,-1.747073674722160685e+00,1.131359409868082810e+00,-5.242208065017294416e+00,-5.550573481189723601e+00,1.973117010702531537e+00,-5.448650561125584213e-01,-4.483304333865803848e+00,1.174509615720010780e+00,2.469771980604114070e+00,-1.124324336811606173e+01,-1.402847681882779085e+00,-1.181047043499217963e+00,-1.077358452904798547e+01,3.610711040964807772e+00,2.900915846594011693e+00,3.769533818897768396e-01,2.807766868699941298e+00,5.230845396403011049e-01,-1.703025951535013238e+00,3.986633434134343901e+00,-3.594276637631688587e+00,6.324112735611601144e-01,-9.430612854691408087e-01,1.548025003675663980e+00,3.331065825007047287e+00,1.595978451332938475e+00,-1.488610815136201193e+00,4.044984042990368983e-02,-1.466460418021440448e+00,
