3.044791651255768006e+00,7.738952128975514100e+00,2.139303561998612047e+00,1.938026339741930926e+01,4.381205378557817554e+00,1.006237680074044327e+01,
-5.310704713366372509e+00,-6.481670573887202691e-01,-3.328669983735669913e+00,-1.073492612980973648e+00,-2.818353261599320536e+00,-1.618500522527436303e+01,
5.101645433138991770e+00,3.008838625489073326e+00,5.932314586304512360e+00,8.601986840156950365e+00,5.887310926847240111e+00,-2.682734858005040746e+00,
-3.606668525927652524e+00,-4.331265225028988475e+00,-3.118281314112898439e+00,2.289350517434852322e-02,-2.268852972779857424e+00,-2.613427308085408018e+00,
-1.364064336768438190e+00,2.714556291066272919e+01,-1.686140650789823781e+01,-8.042537516578450507e+00,-2.611224092449379341e+01,1.558868763188786204e+02,
4.710755282228602958e+00,7.898757111884507909e-01,-1.746396879144572978e+00,9.005170929943350222e-01,1.015637079456727676e+01,2.375235553978174430e+00,
-5.887034063864051348e+01,-5.512286217453076631e+01,-6.728865115756099158e+01,-5.738794463436463644e+01,1.129403715631362104e+01,1.216522454879311539e+02,
8.133235851694352903e+01,6.576795844963389470e+01,6.345531316771599961e+01,7.039661211032147037e+01,-4.384958652233666498e+01,3.060382557793852154e+00,
6.852863316970235985e+01,6.014826449239149753e+01,6.189932334752263188e+01,6.639058853746935540e+01,-3.320940668999315903e+01,-2.783373892966799446e+01,
1.084713679027645705e+00,-3.337240126630508730e+00,-7.931569059710554814e-01,7.748653152677081879e-01,-3.008775308820054661e+01,-1.120810274673827500e+01,
-3.411563865314104937e+00,-1.916386191147723683e-01,-2.251188730246888259e+00,-2.463403107163985251e+00,-1.776424557197034515e+00,-2.006430661916062341e+00,
4.834964896622923725e+00,4.597368275936684512e+00,-9.424999227094305709e+00,-3.288703765154343261e-01,3.595396562178569866e+01,-2.122303882621834816e+02,
-4.266452683088647113e+00,-3.941030759278052020e+00,-3.759198701562238565e+00,-3.211339138157562445e+00,1.226684828981639969e-01,-5.013563665468544706e+00,
-1.559313837932682301e+00,3.247773509201694608e+00,4.131496417772991592e+00,7.365689235602849827e+00,6.763963667334168761e+00,5.163254114592374933e+00,
-4.436748144135626681e+00,-2.911576299374579957e+00,-2.523429342924800256e+00,-1.258463203360055793e+00,-2.529003417706702894e+00,-3.200281269783848970e+00,
5.016750445431438443e+00,5.324918418869168057e+00,7.157834160800610412e+00,7.385803753616101197e+00,-9.040698191181634202e-01,4.938970719510989760e+00,
-5.784558106747475392e+00,-2.287899343355829895e+00,3.538599675522951848e+00,-2.194026087099059108e+00,-2.692050248599775930e+00,-7.376446778147793815e+00,
-1.584505107640229171e-01,1.751468843143334231e-01,-2.691343630435031109e+00,-5.931682838813215897e-01,-6.028477832878913922e+00,-8.638997828735716311e+00,
1.659084640983889303e+00,1.970607889230065268e+01,8.416050399318736330e-02,-2.201471617967555527e+00,-2.732217402278058316e+01,1.901723978253994289e+02,
2.967741159105105719e+00,1.216089386961985097e+00,3.513262870470273747e+00,3.787983909358917600e+00,1.944639252448639999e+00,2.728062131026328441e+00,
-9.558596659762702785e+00,-4.324310588179338666e+00,-9.746806915143300998e+00,-7.149884201029873765e+00,2.181551948413219755e+00,-6.866372366483194156e+00,
2.671740174639467558e+00,6.557143549483587242e-01,2.401891942328020946e+00,1.769536680317378430e+00,4.180643391709383927e+00,3.925571658598012270e+00,
-8.061060775635242592e+00,-6.556191730896129499e+00,-6.692991744915815389e+00,-6.010862252170853459e+00,-1.095188591984912918e+00,2.064376558788188820e+00,
-2.409212584311979821e+00,-1.442740211226243296e-01,-3.891489717598757281e+00,-1.618725569237144724e+00,-2.226090422857602419e-02,-2.185605066779509720e+00,
-1.726735137586912661e+00,5.798174868495842738e+00,7.137017147629290292e+00,6.757128307716726567e+00,3.822854907463868468e+00,5.316832708058205625e+00,
-9.819454737021275637e-02,3.086989257802946196e-01,4.448844360433412692e-01,8.140661105566906475e-01,5.971423814054834800e+00,3.888706227872090526e+00,
-2.479922062073372846e+00,-4.779287241194569991e-02,-5.846890750370693723e+00,1.821415040266328056e+00,-2.017093594962163561e+00,-2.093813613747506253e+01,
4.146276580865024819e+00,-1.272764730824957446e+01,-3.768567570279564904e+01,-3.084636406786099982e+01,-1.495835067745710667e+01,1.455885569342762551e+02,
-4.620567815836208325e+01,-1.069974129344925551e+01,3.085008760366374858e+01,1.127614017982908123e+01,-1.749721014059498714e+01,-1.650122294387827537e+02,
2.222429337710034591e+00,1.744213177538180393e+00,9.982829995318975858e-01,4.360849432262750902e+00,7.494357532705582692e+00,5.157878835678314511e-01,
2.628470355362989785e+00,3.325976733043229938e+00,2.415763830612347896e+00,3.174189633367594965e+00,1.714150198533866742e+00,2.544194505174477428e+00,
4.341162063462002152e+01,-8.440649097515175470e+01,-7.280798247827704017e+01,-6.677141222744791094e+01,-6.593625491889169155e+01,1.655856976083532857e+02,
1.247760947156151934e+00,2.016102459466512897e+00,4.036348360637846966e+00,2.452839228459606780e+00,1.991618526929902933e+00,2.081343299028371341e+00,
1.222163150372329365e+00,-4.449268308275423855e+00,-4.798140105969658009e+00,-3.750888430291092757e+00,-8.339918484531552156e-01,-1.214104508290362006e+01,
-3.822548968557462068e+00,-1.291178815746090169e+00,-3.537810728136782323e+00,-2.407629115253561380e+00,-1.633681829164482568e+00,-3.158024333250619708e+00,
3.404160595385957944e+00,9.170072569084410929e+00,8.028467377670708061e+00,6.254982011260924679e+00,-1.226600988565628825e+01,3.463274383827081238e+01,
-6.538360958382262167e-01,-2.648360820932159854e+00,-3.680955325975213133e-01,1.712760858220860327e-01,-4.442246076364442686e+00,-8.157406085396255335e+00,
6.036524695238560945e+00,-6.786320656850501010e+00,2.452073910174859961e+01,-2.183839031677910825e+01,4.747821590824351290e+01,-1.921190484302902064e+02,
-3.821874431703585762e-01,-3.385850208974133579e+00,7.622114182837222973e-01,-9.422562959238289793e+00,-6.850477557279726071e+00,-1.848627762673879715e+01,
-6.213438515779931004e-01,1.470999834065126688e+00,-4.001065516776050046e-01,1.824160101118716293e+00,1.048409664701752320e+01,1.757037936218517160e+01,
-1.347350779274439470e+00,1.215209714321576762e+00,3.554187682948966920e+00,2.495359247312302298e+00,8.766816886853051827e+00,8.365497409279898378e+00,
2.962363353222258855e+00,3.520422303301777855e+00,2.763834375893284179e+00,2.611767435494344092e+00,1.954428977505089371e+00,2.218992564727892969e+00,
1.249982060481540103e+01,1.519696115591828978e+01,1.647964087403622813e+01,2.070147495595575649e+01,4.473128975513672501e+00,-6.920239272391100371e+00,
-7.553766737456192315e-01,-2.092384329190028147e+00,-1.591332863559985489e+00,-8.739893178740749669e-01,-1.084797897752232743e+01,-2.420002386632638114e+00,
2.317742235618294622e+00,4.717320853753683152e-01,3.772853366794003627e+00,3.025448169285463784e+00,1.872472988919607229e+00,2.488645311489685152e+00,
6.131777320043814683e+01,6.213921645349328315e+01,6.020151798575448510e+01,6.011729926625814358e+01,-8.910963607043350976e+01,2.277883103787062424e+01,
-4.745990231560691441e+00,-4.647405183036332765e+00,-5.457059220559536961e+00,-4.936920944132371147e+00,8.912440438138935495e-02,-1.052809482270608415e-01,
5.423912300158222344e+00,1.921365482220110943e+00,2.396734265753493354e+00,2.396569412383927400e+00,1.457838088602775750e+00,2.061472000324733767e+00,
-2.679097220347582020e+00,9.785358341935390669e+00,-1.740922089580803700e+01,-5.216697826658715620e+00,-3.791847930346349482e+00,-9.845468922600382200e+01,
1.899303486410206077e+01,1.603877296954749454e+01,2.171705063211726383e+01,2.112210699820292703e+01,1.853731605196141530e+01,-1.125648236190088269e+01,
-1.174777914119175648e+01,-1.148317632189379900e+01,-1.122892707737494966e+01,-1.152974935602341056e+01,3.949118106756154489e+00,-6.469466045584559843e+00,
9.125933149498404617e+00,1.845330829708613862e+01,7.445478862086592819e+00,1.565705090283736922e+01,1.197723222562399670e+01,-6.852534262456282832e+00,
-1.108769026151344050e+01,1.068093015467018247e+01,-8.423686851876805548e+00,1.644538962023887763e+01,-4.430007051469657853e+01,2.339995178931754367e+02,
1.522491824546304828e+00,-1.155591446589915563e+02,-6.008426318089688323e+01,-5.238952668830786052e+01,-2.344905796063659675e+00,1.811162782698851288e+02,
-5.647074702591561746e+00,-2.462655437252034840e+00,-4.444134223503240833e+00,-6.598855848968303128e+00,-6.595887624594674925e+00,2.390010216009997635e+00,
-6.505537617388231553e+00,-8.341628090827306607e+00,-9.121979469468167068e+00,-4.745081346941630862e+00,9.600834644841124144e-01,-1.077086141841618439e+00,
-4.333305589789382850e+00,-3.695770431846002069e+00,-3.740107514999473803e+00,-3.675294686326542770e+00,-2.609496115813052075e+00,1.214466762465798988e+00,
-1.422959467432824887e+01,-3.966396841424213893e+00,-7.774129498887803358e+00,-1.621971245651805660e+01,-2.595585017176395226e+00,4.055227155652822546e+00,
-6.118774873809403658e+00,-1.740083193590686150e+01,-1.535393626383558363e+01,-1.941697203589774645e+01,-3.324016814407973808e+00,-1.345706287368160226e+01,
2.965466325460927699e+00,2.125814752761079784e+00,1.859094315966644650e+00,3.586763845438194487e+00,1.554464139223938446e+00,2.337728379672836976e+00,
-1.639050463330648189e+00,-3.531905225990874531e-01,-1.441138596479359046e+00,-1.400364786386627314e+00,-2.071031315388787708e-01,-8.846214493502586151e+00,
2.971334003997582851e+00,6.211993419975867070e+00,-3.528660701822736279e+00,2.006053968861755410e-01,-1.446281729285239237e+00,6.266849121688736801e+01,
4.190165006677175619e+00,3.127791257483664822e+00,3.046286162353325722e+00,2.540403092482604652e+00,5.474204362388724654e+00,-1.711775879362810393e+00,
-7.073657025005315013e+00,-7.266965407565260548e+00,-6.663626424455812547e+00,-6.785835334829909193e+00,-4.808522891451787018e+00,3.006818574245782472e+00,
-2.425174953632183605e+00,-1.020854528777365156e+00,-4.320686071618712099e+00,-7.057575521392229767e+00,-4.377613749580619995e+00,1.586334785291966920e+00,
1.156424442999511720e-01,1.200667423482982832e+00,-5.928232178977136391e-01,-2.638055514259909917e-01,1.950292128315995299e+01,1.962693300506594341e+01,
1.981464147192296466e+00,2.967551883069702079e+00,1.980843785181055861e+00,2.494449815000018500e+00,1.889586475461316306e+00,3.225467937659336037e+00,
1.320963670966786685e+00,5.577193659830320449e+00,8.558485707367194939e-01,3.277967600412500904e+00,1.184227615404517131e+01,1.396702476083072630e-01,
-2.862729219910286815e+01,-2.765808078788903046e+01,-3.111853649666299759e+01,-3.368996839624279716e+01,-4.986530488672656958e+01,3.721791838117465545e+01,
-1.163979514853772157e+00,5.452221490536951487e-01,-1.065922784591237349e+00,1.176383231642268212e+00,-1.144079990260343349e+00,-5.017206803089305112e+01,
-7.128738709739960155e-01,-1.155750995376802148e+00,-2.221002599969277569e-01,-2.598659146222362937e-01,-8.864210229946017705e+00,-6.612229220601305357e+00,
-9.124615982950960102e+00,-2.814661226503570202e+00,1.257064268916366068e+01,8.259197839018915133e+00,4.708243602069615719e+01,-1.876847531846784136e+02,
6.329145761815578197e+00,1.080341844809136909e+01,-6.072021311504753882e+00,-1.077337576437799836e-02,1.486733294793599036e+01,6.908368805890532371e+00,
8.636411836103008000e+01,1.370988019861739282e+01,-1.029710970594348396e+01,1.461758775692674206e+01,-2.664499809758352811e+01,1.915700928642986582e+02,
3.127963666712438862e-01,1.082508849017576047e+01,2.555821733479588964e+00,5.484785269269735863e+00,7.772071444444602406e+00,-1.590361372038457954e+00,
-6.914806374745189110e+00,-3.701417256284664781e+00,-4.755015866606280284e+00,-7.498660142462301614e+00,-7.476785554212248996e+00,3.042899513878354334e+00,
7.910738224626257420e+01,5.441103211599434530e+01,5.416888206165738850e+00,1.469594872758809601e+01,-1.107138203684056208e+02,8.940078858462769062e+01,
4.701845882985055347e+00,2.117416812335055187e+00,2.052872467787991706e+00,2.692420663578951157e+00,5.914650966069078031e+00,5.572759581389437500e+00,
-2.334804418024421224e+01,-3.575191003615109508e+01,-3.065798547859246526e+01,-3.861299219551500528e+01,-1.434022972778515204e+01,1.571777647668246303e+01,
6.843935908230293741e+00,3.502514730637704243e+00,7.258136963863110580e+00,1.445688887364795505e+01,1.377705745846025920e+01,6.264453388342799300e+00,
2.725503241018699119e-01,-1.347984848547284509e+00,6.165466462370347678e+00,-2.790737565994148461e+00,7.346881267864645793e+00,6.093996968872934161e+01,
1.878761758705381268e+01,9.076095702694894740e+00,1.937684780837853182e+01,2.595895178317574548e+01,1.015635571902890000e+01,-9.054761864718811282e+00,
4.913711667134266214e+00,5.468982904964365233e+00,4.181634191949567203e+00,3.593833207080578074e+00,-1.818562380713743543e-01,1.506835267212927931e+00,
-2.397671184713133119e+00,-2.978832965640613173e-01,-4.655489882171817140e-01,3.769843296021104240e-01,-8.090252448616089609e+00,-7.494115543098796905e+00,
4.323772187129648614e+00,4.089660448408221960e+00,4.052366153580248209e+00,3.788165492242362209e+00,1.852511609593259223e+00,-1.082752929806979569e+00,
-1.407017093701336208e+01,-1.108753391354212958e+01,-1.616094904806848120e+01,-2.194878490415011640e+01,-9.091854600082044158e+00,7.656836333653259885e+00,
7.433307851108354569e+00,-6.326351659192887000e-01,2.312689482805373231e+00,-3.107612624853028471e+00,5.032886244764751105e+00,3.971249238511954616e+01,
-1.768557888676689283e+00,-5.602321196218372767e-01,-1.424632552365754590e+00,-1.490213434605836884e+00,-5.253511149645495593e+00,-3.782673713402114668e+00,
-1.703973758940554362e+01,-1.948916173616921910e+01,-2.868050139484356009e+01,-5.256735455896602360e+01,-8.647411207692975665e+01,4.355991030671481923e+01,
-2.535666492247571568e+00,4.084175760081250051e-01,-2.791216297382875133e+00,-3.554179816532718306e+00,-4.008595926184188585e+00,-6.866848248556700618e+00,
4.331576880437419064e+00,1.751972628082930639e+00,4.231980492439003427e+00,3.226403725497322128e+00,2.430804156943659589e+00,-1.089495138332342794e+00,
-2.104059226978178820e+00,-3.747115698212310608e+00,-2.616106804937651908e+00,-1.833306459730226878e+00,-1.158751536735312948e+00,-2.211727434878585363e+00,
-3.464982705141963493e+00,-1.605345599712801663e+00,-4.120897292836242620e+00,-1.219169218093748563e+00,-2.043595821570374671e+00,-2.999931982949981091e+00,
5.410553826723980819e+01,3.013211951277315137e+01,5.244023342699410506e+01,7.108378615659941602e+01,2.399484097070630284e+01,-3.810159752170532244e+01,
3.269880637659531519e+00,4.148667645682649230e+00,3.090369839633008375e+00,2.217247877900465181e+00,1.614130845677999027e+00,1.630521038293958336e+00,
-2.816629118996634595e+00,-1.471330432356951379e+00,-1.693433589518184901e+00,-2.129452876655745452e+00,-5.971480480268057889e+00,-2.053230276091094542e+00,
-8.997437756904230355e+01,-3.242491848267822974e+01,-7.307286762050473783e+01,-1.596807720426323485e+01,1.239240287540321930e+02,1.328004235136061482e+02,
3.231822000929480531e-03,-2.298931339759769710e+00,9.111467359997762472e-01,-1.317973769795342864e+00,-6.583822255634382614e+00,-8.954984576331325385e+00,
-4.136654448707925091e+00,-2.233489942780918280e+00,-3.275790129087193581e+00,-2.667347588828176352e+00,-1.788185332759252288e+00,-2.992678583102917678e+00,
-4.980842910240013133e+00,-5.773112747637346054e+00,-6.052216791704398524e+00,-6.510300671429049224e+00,1.049195922296237038e+00,-5.519486811984334551e+00,
5.907222625343081512e-01,-2.530286626916818715e+00,-4.066860611519794055e+00,-8.436360560620032700e+00,-2.386984720352864908e+00,-1.709789629627599616e+00,
2.675981998264429063e+00,3.158871877151183227e+00,2.845949194168555518e+00,2.771718280145430757e+00,1.887725667637842664e+00,2.382902650595537963e+00,
-3.362784385699530532e+00,6.228088651274626741e+00,-9.182687824902338036e+00,-5.805084914037296429e+00,-2.010475916588336354e+00,-1.810541528592163729e+01,
4.884700129352035347e+00,-1.032204173350083209e+01,5.423141541732349857e+00,1.924544128542853372e+01,6.611578157709634140e-02,3.833923991607091608e+01,
-4.012951993320425714e+01,-4.575567553737506898e+01,-3.649283418317406813e+01,-5.068011172007816612e+01,-2.240041074514010333e+01,3.303764999528118551e+01,
-1.807145798973712969e+00,-2.035998518971571691e+00,-5.524726078940325191e-01,-6.317875633571738703e-02,-1.042495105903345021e+01,-3.608626781270078965e+00,
-1.739264056697584215e-01,5.265439474416443444e-01,-3.683710639116341556e-01,-4.640050902677160249e-01,-1.335666691372798276e+01,-1.438788103587939204e+01,
8.406964265865489727e-01,2.700416389966999418e-03,-3.492542110753602547e-01,2.357974199579685237e+00,9.158199786938896025e+00,6.107996337745714044e+00,
-1.964662273035342466e+00,-3.796539251052729380e+00,-6.660572290831917819e+00,-7.529758932792307569e+00,-5.037902244652632255e+00,2.159096792056997671e+00,
-1.822497957913101319e+00,-2.870576465322108195e+00,-2.212833520687407241e+00,-3.267143882068170413e+00,-2.606012206842096113e+00,-3.551252795170621646e+00,
7.945680398529887389e-01,1.826354464396493071e+00,1.927588117574001059e+00,2.654910018177128350e+00,8.388927138597557231e+00,7.706024991229781129e+00,
-3.199380617750580669e+01,-3.095078835864111966e+01,-2.982868191873033581e+01,-3.940526884087275050e+01,-2.283855882223206279e+01,1.793886881183630422e+01,
2.630873671514147194e+00,1.060547281176473078e+01,-1.840342364266966402e-01,-3.402184448046507437e-01,-1.381701007039322304e+00,3.768091345745202148e+01,
5.356475820480846473e+00,4.881532806220566734e+00,7.415173805425822273e+00,9.342839447705978628e+00,7.843351948123664208e+00,-3.577673003418140762e+00,
-2.943715305132706739e+00,-3.442801350479763212e+00,-3.158527698669268524e+00,-2.104592327407725616e+00,-1.931722894713956640e+00,-2.828437992974907278e+00,
-4.166668177066913614e+01,-6.684799260247561214e+00,6.841570074011842806e+00,-2.493068904525329188e+01,2.042203308876905865e+01,-1.805688896059873798e+02,
-1.823613776130328823e+00,5.674281418342826555e+01,4.094464066167942207e+01,-3.519963367511301300e+01,1.540596007041756366e+02,-2.114607687296625613e+02,
2.523962296633189162e+00,3.953123877739118441e+00,2.813125629963566521e+00,2.510633936712540759e+00,1.779271904734644805e+00,2.414233615391699672e+00,
-5.009178564690288660e+00,-8.419441969101406187e+00,-3.448869304928866564e-01,-5.476584456335179318e+00,-2.286679627042611429e+01,-1.653870683426138743e+00,
-2.186930294259326502e+00,1.307706175153862915e+01,5.615154884269186297e+00,7.075141794072438373e+00,2.784171860070848048e+00,1.977236902570384425e+00,
-1.976207438686505169e+00,-6.876730247002551977e+00,-7.219220119658412038e+00,-4.679654072548277810e+00,5.864073728159399090e-01,-9.937544452335401957e+00,
-3.957634641952648136e-01,-8.865528513650378528e+00,-3.019771028001665858e+00,-3.274192457804387502e+00,-1.540243444915650795e+00,4.672164073231957482e-02,
-3.930464341752545465e+01,1.311518849393776236e+02,8.348565644649690398e+01,8.149948480655339722e+01,-5.443665019297898766e+01,-2.354068246132282241e+02,
8.792870999170240509e+00,-7.730386762862011096e+01,-6.328707277891705019e+01,-4.390116631006085868e+01,-1.216680277950088707e+00,1.599233702542216804e+02,
-5.097468032784389536e+00,-1.315214272362103642e+00,-2.166148274048152356e+00,-2.935901418994279588e+00,-1.440930603568283175e+00,-1.701589776088432426e+00,
-2.814315661742997854e+00,-2.500361934039864398e+00,-3.004222021903023787e+00,-2.563484868323711030e+00,-2.022897671310874390e+00,-2.784488416858661886e+00,
4.841286114562417531e+00,5.663829547245379459e+00,4.612529307019592295e+00,3.978164402417244006e+00,-4.850163957770201595e-01,6.020386300392843282e+00,
2.961646173759292289e+00,2.303137451396281232e+00,1.620802437272940155e+00,2.947392256050088033e+00,1.722105195054169480e+00,2.881410743838289434e+00,
-9.440104357735371821e+00,8.795605171236542219e+01,7.567153993784005195e+01,5.819099147687847307e+01,4.119046078589619242e+01,-1.413044419361851283e+02,
6.986104992977693939e+01,9.887496708258174749e+01,8.246791708324020931e+01,8.293163557754547810e+01,-8.934098769764314341e+01,-4.124777200466074767e+00,
1.016442922295232920e+00,3.042291097199394834e+00,6.707069929387312612e-01,1.670328150901977393e+00,4.224231004216038698e+00,4.299553475085887477e+00,
4.421521003752724610e+00,3.943071707823574634e+00,5.638538039566967086e+00,5.180412921391283732e+00,5.436808162806697098e+00,-2.093570998767462665e+00,
2.114956005082416768e-01,2.902209771557385798e-01,1.349487518390802610e+00,-4.136303144965175482e-01,1.090908919623221074e+01,6.677115688381472403e+00,
8.227863069936555362e+00,6.255648397771685687e+00,1.031927540690158907e+01,1.508406073749121923e+01,6.637951108741684259e+00,-4.706377425655982272e+00,
-7.459804154682525557e+00,-2.554008602446391762e+01,-9.643434170105958714e+00,-1.077286915893992081e+01,-3.987354619016659107e+00,4.141262912675186314e+00,
1.787974104157251887e+01,1.856901039422494648e+01,1.706215365734096423e+01,1.484322828413507445e+01,-5.558146079054679944e+00,1.431219831252709129e-01,
-2.275949749703384928e+00,-4.358178589960865601e+00,-3.363448031249314241e+00,-4.257484958405420628e+00,-4.183845462235850299e+00,1.046069462447939635e+00,
1.167030285488814911e+01,1.148461923750088864e+01,1.220326135946953627e+01,8.743161403396712217e+00,-3.249556335940457341e+00,1.248549098946359681e+00,
-4.766061096873508873e+00,2.999536278564839120e-02,-1.952046038374357195e+00,-6.406011929317765308e+00,-2.539870586085628545e+00,-4.652451266443639710e+00,
-2.638308253590281982e+00,-3.695696406105332343e+00,-7.861711805960518440e-01,-2.923157970304149700e+00,-2.034306027504908077e+00,-2.598306841315432880e+00,
-9.062298976146297980e-01,3.908803126553178409e+00,5.913411778416771014e+00,1.154184389650212239e+01,4.685370751485907981e+00,3.419596063357196236e+00,
1.256340645446226256e+00,1.283930840868520606e+00,1.993384957803438384e+00,3.989594321964838319e-01,1.796923722559028713e-01,1.067621599977134395e+01,
-6.685167753040262895e+00,1.348934698928492049e+00,-6.869519225347386460e+00,-7.173920083305399764e+00,-6.046011359246989514e+00,-6.297172620413601374e-01,
2.159404134829379540e+00,8.450763018790686587e+00,-9.950146599559425153e-01,6.232126247374782935e+00,3.461991201749202496e+00,1.464537621066696493e+00,
-3.280528524320670325e+00,-1.801889933797496512e+00,-3.396563983403407594e+00,-4.048286714252402163e+00,-1.962050331081700572e+00,-2.015130086517735286e+00,
6.563211437731442111e-01,-2.788674467521616851e+00,-2.434910381262453960e+00,-3.959750706039891543e+00,-4.500631212403739312e+00,-2.331312672461346658e+00,
2.633259747833826214e+00,1.295630303173137765e+00,2.294409688789956991e+00,2.912155888790865621e+00,1.936786153290882773e+00,2.447337106733521672e+00,
1.681361399428124770e+01,2.175625773550640218e+01,2.266532356246541369e+01,1.564578604407076767e+01,7.923814750517008676e+00,-8.911339400721484338e+00,
2.196776548987096955e+00,2.982249897277100548e+00,5.750928111950597277e-01,3.789260978886886733e+00,1.745872881463063298e+00,2.374187478377031368e+00,
2.786399120892888348e+01,-1.146081386865914595e+02,-9.175392453904078138e+01,-1.013465923574409118e+02,2.264606959591816704e+01,2.185894868736716319e+02,
-1.310981555105345642e+00,-3.391324608146485176e+00,-2.125396297197231998e+00,5.620973588449597047e-01,-1.712997273040098190e+00,-1.079792707523678885e+01,
-1.955547586560839601e+00,-1.955210504646961889e+00,-1.530353352552421109e+00,-8.303716590019118993e-01,-3.877959006338928205e+00,-4.149507267332422700e+00,
-3.275387890903567012e+01,1.358897784437829337e+01,-9.888618625288076558e+00,1.997804757109019391e+01,-2.342343597822962664e+01,-8.134809071665638669e+01,
-7.139201953191411576e+01,-2.254751247874022813e+00,2.243798313865439908e+01,-1.042166981981440799e+01,2.050501226623672935e+01,-1.775396031671931496e+02,
6.100272561192918275e+00,4.844801751506585319e+00,6.507324500766565656e+00,5.485413415023312034e+00,-5.034370813648068044e-01,-5.701059005629883769e-01,
4.618850100454714891e+00,4.979166659294132380e+00,5.842742651948150900e+00,5.585173373067408242e+00,5.249256779024033648e+00,-2.385932870492685431e+00,
-2.505036149893882236e+00,6.811868543422722411e+00,8.892497839845431074e+00,3.782252855233256827e+00,3.565276590744284935e+00,5.754386136382832362e+00,
9.438152854721902685e+00,-9.811833439660732736e+00,-8.031716756946490676e+00,6.456270685955770361e+00,4.606572498436465679e+01,1.054434253746726284e+02,
8.078230206993815443e+01,8.848923241205559975e+01,5.725173430076073799e+01,5.698937294013777688e+01,-3.615143572572178243e+01,-1.062239203952778439e+02,
3.696604932875117155e-01,1.922768025910266632e+00,3.023045970240967328e-01,1.609932623426660880e+00,1.618797190297428967e+00,1.545572030151661025e+01,
-1.148756607568522048e+00,1.597574915272926388e+00,-1.076980022879837628e-01,8.641410491986668552e-01,1.535505562891317410e+01,1.354669749940073231e+01,
4.478639285429769856e+00,3.632344811716329502e+00,2.074657916990699569e+00,1.849738007354664593e-01,3.204152929797785987e+00,7.563274742572302145e+00,
-5.690029050583626180e+00,-6.414606856823015235e+00,-6.778115187180204337e+00,-8.481422657481211047e+00,-9.820873731674515383e+00,3.965654788007017206e+00,
1.336249695370540813e+01,6.465513834651225977e+00,1.028304184065122584e+01,-2.437945319087422291e+00,2.356875889841161253e+00,-5.434072917311942863e-01,
9.213876085906836266e+00,-7.384423753118900891e+01,-8.071658645573079127e+01,-3.888713796416544710e+01,-3.966406066810912989e+01,1.581564110113147308e+02,
7.970916250788103063e+00,4.037193540677090908e-01,5.324127594751493220e+00,8.291245500930202184e-01,2.283205598440214423e-01,2.646534276350041459e+00,
-9.250628923699638406e+00,1.377161473328286334e+01,-8.467448748245532952e-01,1.195227662497689280e+01,2.492795306053857018e+00,5.713461339591103894e+01,
-1.302641951883246163e+00,-7.238499687259719595e-02,-1.778017005165276165e+00,-2.189881586849627304e+00,-3.269929401988671991e+00,-8.382747718373421364e+00,
2.629219913981946100e+00,2.955704833748060700e+00,2.576028202447845139e+00,2.055271452853832947e+00,1.969565922312361606e+00,4.591050459443577481e+00,
1.069617182789009274e-01,-3.359318564850334976e+00,-2.866849683985980057e+00,1.173469777436259714e-01,-4.023119654742196794e+00,-1.276964090006835306e+01,
5.151977674368533044e+00,4.227558554184287942e+00,5.916440389759213048e+00,6.758084283366541101e+00,2.392652944641054713e+00,-1.758131167349901380e+00,
-3.053405311775879483e+00,-2.363053564292841635e+00,-2.615668997489367431e+00,-2.666849436035403365e+00,-2.316340120229898325e+00,-2.818178601986126797e+00,
1.884946857213522264e+01,3.561649836128737423e+00,5.465237836684298145e+01,4.763002533777290637e+01,4.928659189581565414e+01,-1.657040026372070827e+02,
-2.065383055265046952e+00,-5.439868869949560981e+00,-2.047625215082395034e+00,-8.781055737591519916e-01,-2.527750625868687262e+00,-4.323560523684876422e+00,
1.810049629933182247e-01,4.218826476256529290e+00,1.275796622282832304e+00,3.807001245396300693e+00,9.423328788947209489e+00,1.673663088733024162e+00,
1.360366314558084255e+01,-1.691028282680057870e+01,2.632911180079595681e+00,-1.796933255585355216e+00,3.852633218417820871e+01,-1.951987000344308001e+02,
-2.676433407644207119e+00,-2.690690488772076172e+00,-5.349071722506693938e+00,-9.858153269480366410e-01,-1.357502005592685412e+00,-1.954302684506417087e+00,
-1.620711722679209377e+00,-2.324416672832119168e+00,4.308892765985598672e+00,-7.549674082749986415e-01,-8.358330685556383699e+00,-9.418136925336335707e+01,
9.939545270549691836e+00,3.055389942312200802e+01,6.203743240045696439e+01,7.255082217548046231e+01,2.176708736460788884e+01,-2.672677195210704326e+02,
6.714873193044147648e+00,1.590121409192418289e+00,1.369305705055426481e+00,4.156678285011148333e-01,6.647839010664546855e+00,1.052685653369989094e+00,
-1.188619199176579322e+01,-1.223557932335076082e+01,-8.102293052821279318e+00,2.919095402526111549e+00,1.410173180261495851e-01,-3.045898259491613747e+00,
-3.270971747570131427e+00,-3.131526125781078917e+00,-2.894751591945814440e+00,-1.430721659524336831e+00,-2.313429089775408176e+00,-2.545596055438764882e+00,
-3.645790852997360165e+00,-1.681670987225000635e+00,-2.868081070871133953e+00,-3.035797821849963274e+00,-2.189190985838433967e+00,-2.017257656444595870e+00,
-1.036515605017205743e+00,-1.030159956122175835e+01,-9.288232017499726823e+00,-6.660797495094179510e+00,2.954632243387375290e+00,-1.041520926573221573e+01,
8.101580527193649184e-01,-5.919980093156573808e+00,-5.660033368292149980e+00,-5.811854023015872173e+00,-1.562267315979091409e+00,-3.880021824570915268e+00,
-1.628611049068716954e-01,2.373990268975668005e+00,7.348232347471907178e-02,-5.426646549502210926e-01,1.262479234190354660e+01,1.118120066410440216e+01,
2.262933049101126137e+00,1.513453037623816666e+00,2.836056688494492217e+00,3.153025571616922207e+00,2.120126380358927420e+00,2.692383667573711836e+00,
5.603170034322305648e-01,1.623005651580075703e+00,-6.025242199897338224e+00,-1.415500567685956490e+01,-4.366319360846773634e+00,-1.921968800917597031e+00,
-2.304642834242820904e+00,-1.422258706812960849e+00,-1.982685632495770234e+00,-2.796575110288301413e+00,-1.445041455236287131e+00,-2.283757357289815548e+00,
2.612488463120364912e+01,1.280366415626703613e+01,2.537603338755151938e+01,3.333058859411864461e+01,5.680291012323544386e+00,-1.063991700080377711e+01,
4.799643723660533823e+00,-8.908246912313471100e-01,-3.786878485807578354e+00,-1.675010919964903477e+00,2.099861615322616260e+01,8.616667027653764421e+01,
-2.458729831921471654e+00,-1.979142537498539856e+00,-3.018588604600556113e+00,-3.709842871218267391e+00,-2.062180027519399772e+00,-3.698855447055346080e+00,
-4.229846789454996703e+00,-8.567985986890901628e+00,-7.908689484477749332e+00,-7.597888080606492345e+00,-3.487838617583770784e+00,2.783046963850665634e+00,
-2.647017357182544828e+00,-1.246135647559664772e+00,-3.879258327746908819e+00,-3.449302018715128426e+00,-1.738752004006296925e+00,-2.407175630403345590e+00,
3.075168316449605310e+00,3.588798755986501554e+00,2.917853123631998891e+00,2.606388938327438343e+00,1.592165546498768292e+00,1.878415808614791516e+00,
3.267644592387950464e+00,8.570121398574378491e-01,3.542392773999219369e+00,1.608928776499885804e-01,1.128553703128270058e+01,8.990670277466305649e+00,
3.039033055443003395e+00,3.986142874195404695e-01,4.511306994912900770e+00,4.093907469029562485e+00,1.231837577009601281e+00,2.634374289068748709e+00,
-3.097388260081322731e+00,-2.990900785302722298e+00,-2.889896144803515643e+00,-3.428239983446678796e+00,-1.274181575805262590e+00,-2.336251816936499637e+00,
4.397462506864937559e+00,1.456406575905127898e+00,4.209103247096784628e+00,2.256090691586341013e+00,9.498660435988118822e-01,9.731840229446755419e-01,
6.764568301655943117e+01,5.870990837275350316e+01,6.124541890128826793e+01,6.350848596466813234e+01,-4.135216755019892076e+01,-9.094395065526288846e+00,
