2.818536501337647771e+00,2.129554842497991540e+00,3.134528258267449630e+00,4.612818280983230323e+00,4.086960763629542970e-01,-5.076503736727747684e-01,
-5.309669613337289817e+00,-6.471207025699728943e-01,-3.327621100249861907e+00,-1.072440358498706781e+00,-2.815922034704100074e+00,-1.618444674589650134e+01,
5.084949368082053667e+00,2.991891594960416789e+00,5.915090521661017675e+00,8.584867732086555847e+00,5.853003203655827491e+00,-2.840618919516564755e+00,
-3.188771868453139646e+00,-3.912752561321274136e+00,-2.699698128843504463e+00,4.398181541923556481e-01,-1.741805704319200343e+00,-2.215099212885334623e+00,
-1.750646930572658988e+01,-1.463183333986213164e+01,-1.555696759779515403e+01,-2.029758645929777217e+01,-3.150050156506542720e+01,3.359704509786550375e+01,
4.873081508186857036e+00,8.543537576718275295e-01,-1.682061014760353190e+00,9.640108406558484111e-01,1.021115205194493036e+01,2.581600418433976252e+00,
-1.117646541082247325e+01,-2.717312424565263385e+01,-2.887595687040572656e+01,-2.777439590794262614e+01,-6.541241687740766864e+00,5.454901033804225108e+01,
6.012755042115453108e+01,4.236458364017565970e+01,3.732771264377525711e+01,3.772951118153879690e+01,-3.282664817410952196e+01,-7.208721074989192346e+00,
-7.163723667502561177e-02,6.690398388032510191e+00,7.788889595230783058e+00,8.766065618313611196e+00,-1.889442031425764501e+00,5.262554486186963310e+00,
1.081178482363720050e+00,-3.337253008624081918e+00,-7.966856248076683578e-01,7.713406657848175252e-01,-3.008784588759483825e+01,-1.120866438708853430e+01,
1.416357278476086057e+00,3.108662288186509137e+00,2.257429395764285918e+00,2.038362462089332361e+00,8.084478675941733083e-01,2.580328611414050233e+00,
-1.003233976361567059e+01,-9.888970192537804849e+00,-5.876806774650106258e-01,7.850320437939799945e+00,1.163973684214853810e+00,-5.799047709155440344e+01,
2.058374732875830837e+00,1.740792165178982165e+00,2.386740799914946365e+00,2.856510491864183710e+00,8.430261173036478484e-01,1.492607532307081541e+00,
-1.777900533417317019e+00,3.204958557179778733e+00,4.088681267974632050e+00,7.365203233008275951e+00,6.733536705956793433e+00,5.156673319595102001e+00,
-3.966160391328647616e+00,-2.440259710912934032e+00,-2.052016672882056358e+00,-7.889003352836992944e-01,-1.922830716874585955e+00,-2.758131329709847979e+00,
4.957784123805205390e+00,5.314398456000047233e+00,7.147378434858976171e+00,7.375365123531900657e+00,-1.096285649511735016e+00,4.917073665248327785e+00,
-5.426623680908836178e+00,-2.012620374416990376e+00,3.622258449855877416e+00,-2.110854598987350172e+00,-1.962007760399212319e+00,-7.085484266690688315e+00,
-1.345081197008851648e-01,1.988333709597704946e-01,-2.667715609257540699e+00,-5.697449031086074811e-01,-6.005494766775812288e+00,-8.605824328971625192e+00,
3.824356534951950692e+01,2.334315961172155696e+01,4.059161107670654900e+01,3.799041777263200714e+01,-3.203039616153512270e+01,7.451366182840325258e+00,
2.553440669181496592e+00,8.007030823778217288e-01,3.097681941707192799e+00,3.373783226233119326e+00,1.370239783718247395e+00,2.355600976601272212e+00,
-9.501741316307215968e+00,-4.268029468890642164e+00,-9.690958221467715461e+00,-7.094188620606445284e+00,2.579157736537422529e+00,-6.839006709214958235e+00,
2.271516540019290264e+00,2.565975488644197111e-01,2.003224002380502800e+00,1.372968207664423401e+00,3.826436053838702556e+00,3.490324936379313403e+00,
-8.043220839964606128e+00,-6.537384780472209833e+00,-6.674907930016396485e+00,-5.992058580718933491e+00,-1.056971000197676647e+00,2.233117900220376484e+00,
-3.020976333323059926e+00,-7.658119792111570678e-01,-4.514901394132285972e+00,-2.241330019863107648e+00,-4.139854313475830466e-02,-2.731065769402779786e+00,
-2.721630347749390388e+00,5.411604243105686329e+00,6.722777764499528352e+00,5.502225728702789809e+00,3.545202856210474707e+00,4.462891901204805833e+00,
-2.933410863208250063e-01,1.171168812819957106e-01,1.130655812896045553e+00,8.628433500650576349e-01,6.153717824706528283e+00,4.858315674424453334e+00,
3.173664043639669252e+00,2.809677219415054328e+00,1.380487961084924109e+00,3.437098235149404601e+00,1.736970848229266728e+00,-7.919841658060901013e-01,
6.668940812841911425e-01,1.305917496191977056e+00,2.620237266028556444e+00,-7.306540235012233542e-02,5.017839192242236346e-02,1.982386752047886347e+01,
-1.332692813206359794e+01,-2.106799218489164183e+00,-1.144754099641934353e+01,-1.024297324933844244e+01,7.873333659530972639e+00,-3.794604058218655496e+01,
5.709115733939654547e+00,-2.156991010267038933e-01,3.619263595338695794e+00,6.185585780172859316e+00,7.961676359286781413e+00,-2.372364670093886296e+00,
2.210635680564276839e+00,2.906766288606652093e+00,1.996301015395123502e+00,2.755956993915647857e+00,1.117778262648585708e+00,2.177144673892750681e+00,
1.030878743423392052e+01,-2.948500628728170980e+01,-4.185777254811153369e+01,-2.162041652003760106e+01,1.058503715813436585e+01,8.746755670465698529e+01,
9.687081671342472333e-01,1.736730393867605970e+00,3.756962654704167015e+00,2.174524005608188926e+00,1.657343184436549599e+00,1.809907567090130565e+00,
9.381772497699132352e-01,-2.647295885592040321e+00,-3.288285676098939181e+00,-2.047308200754507646e-01,-6.294482981297272461e-01,-1.246111403951276486e+01,
-3.437109559561257299e+00,-9.041322585857867189e-01,-3.150406913976296241e+00,-2.020982643762307962e+00,-1.033385597977121373e+00,-2.842063047139465670e+00,
-4.637904506035904539e+00,-2.080320819397613707e+00,-3.111963654265322177e+00,-3.315581226924515068e+00,-5.787825757283067141e+00,1.801418902490193652e+00,
-5.812982758892427659e-01,-2.580424014784640896e+00,-2.977612877524699608e-01,2.407165789321258353e-01,-4.334666365607233729e+00,-7.978580801891171248e+00,
1.756564087415788933e+01,3.097250637459139000e+01,2.737628042805474493e+01,2.560430530775594704e+01,4.935754125831095074e+00,-6.467197391622275404e+01,
1.792663455614795787e+00,2.416059069223629729e-01,2.540386874045680088e+00,3.164728292926105579e-01,4.965152059680414953e-01,7.892253877338758272e+00,
-6.212583992952899203e-01,1.471015753373308144e+00,-4.000900183519372488e-01,1.824160184268247775e+00,1.048410746063840904e+01,1.757037959632700108e+01,
-1.301629792790830242e+00,1.222669648510238627e+00,3.561651326295264042e+00,2.493618320670759836e+00,8.771871451016325594e+00,8.364918664696876505e+00,
2.537262310751162708e+00,3.094440482465813158e+00,2.337717600594120260e+00,2.187286511798578470e+00,1.400477153663334251e+00,1.819999464461390382e+00,
1.247929258057316737e+01,1.517605734478226864e+01,1.645832530120617676e+01,2.067993340378554379e+01,4.431133433799855581e+00,-7.116208207020977561e+00,
-4.476998168255762467e-01,-1.784947117923375126e+00,-1.284157549376078622e+00,-5.674942468192659684e-01,-1.074029312642611345e+01,-1.988895463554596121e+00,
-2.146369523215624131e+00,-3.505774756596929720e+00,-3.665889412790315216e-01,-1.920523926707339513e+00,-1.389926749201257694e+00,-2.083404826509117402e+00,
2.062972263689796293e+01,1.715467859723858268e+01,1.622410616701382224e+01,1.601335899815061126e+01,-7.121167761557525289e+00,1.941541718733818644e+00,
-4.706477343370365496e+00,-4.651004030065126749e+00,-5.460864325564037891e+00,-4.940818364345105351e+00,3.016490502146624841e-01,-1.053598135701469818e-01,
5.024708359130086066e+00,1.520767924882754363e+00,1.995837393443911756e+00,1.996821155250841251e+00,8.874953603626937193e-01,1.712820693697244989e+00,
-2.689226391876305744e+00,9.775229170081866314e+00,-1.740971171096120429e+01,-5.221726461200249858e+00,-3.793270989846849517e+00,-9.845500897629629833e+01,
1.922300167340989407e+00,2.181043644481818422e+00,3.481775726580327746e+00,3.137006323007901276e+00,2.523788779027124285e+00,-9.588821846236306179e-01,
-1.168231708502285748e+01,-1.147427924252323628e+01,-1.122012571780342327e+01,-1.152100267744603457e+01,4.148120967605619214e+00,-6.446288181152428187e+00,
9.118891098978089360e+00,1.844612025647256814e+01,7.438136691052023686e+00,1.564963798778833315e+01,1.196281075522894888e+01,-6.919994293402200292e+00,
6.498311842441017561e+00,5.390329530254214241e+00,-1.119094690864886665e+01,1.383270294555661445e-02,-2.223944368991356058e+00,1.084960148619023101e+02,
1.008024200853183849e+01,-5.769009446695641685e+01,-1.534703084561058795e+01,-3.699770382706391558e+01,3.878202657292361266e+01,1.054233456125291042e+02,
-5.632262064663428269e+00,-2.447570337226811166e+00,-4.428740975262755342e+00,-6.583143983215814288e+00,-6.559881605656394221e+00,2.557437068938653191e+00,
-6.442618915315807548e+00,-8.337181777961967910e+00,-9.117569223462597350e+00,-4.740706218724283438e+00,1.131654850950973401e+00,-1.055633961843121638e+00,
-4.480996978895160687e+00,-3.840761849820628182e+00,-3.887376755844854426e+00,-3.819915509182985058e+00,-2.671143909898239244e+00,1.301788018251178958e+00,
-1.420754903911828571e+01,-3.944136413353971360e+00,-7.750667543840463303e+00,-1.621171208745456482e+01,-2.551371807678080028e+00,4.216203473109968236e+00,
-2.758794422778315436e+00,-1.125008247497341296e+00,-1.120150424184620519e+00,-5.311608424854338040e+00,-2.637858021161074706e+00,-1.441447417009328102e+00,
2.592829328496811137e+00,1.752075132536801361e+00,1.485130209853516625e+00,3.213854318290047196e+00,1.025918670013329370e+00,2.010430188155703846e+00,
-1.449240666423029955e+00,-1.903786581456858862e-01,-1.282915706113177512e+00,-1.261192427179879116e+00,-1.511352395069930576e+00,-9.609756655471700881e+00,
-4.988474784208445811e+00,-4.004926848198745226e+00,-6.184008663400355488e+00,-9.848845087266084874e+00,-4.528737412130803719e+00,2.941004685956531084e+00,
4.251710450160013366e+00,3.188918861070268562e+00,3.107157591627837334e+00,2.600010256784087925e+00,5.451147300712833044e+00,-1.832797784123315621e+00,
-7.057396094615559612e+00,-7.250422663981440863e+00,-6.646843601710496152e+00,-6.768814777747099498e+00,-4.775306835328606780e+00,3.161015491945165401e+00,
-2.436752815776968895e+00,-1.033574074251000230e+00,-4.331483057493607625e+00,-7.061049668959709535e+00,-4.347669429403454799e+00,1.716088426494795760e+00,
1.156424303652392183e-01,1.200667445166378577e+00,-5.928232328388909345e-01,-2.638055645481090505e-01,1.950292128285341775e+01,1.962693299851417450e+01,
-2.925126032502129991e+00,-8.321355414767264147e-01,-2.916914689108466963e+00,-1.264682941396581217e+00,-1.205098816185619315e+00,-1.812023798769785143e+00,
1.356646256685945184e+00,5.612954710527468194e+00,8.916002797222203347e-01,3.313533773995235965e+00,1.185475845220761926e+01,2.017822026201371577e-01,
-1.963209496520716524e+00,-2.753583803550004649e+00,-3.070024432382973512e+00,-3.087788388596247824e+00,-2.804005728313130330e+00,1.048474976042324869e+00,
-1.167486300595360404e+00,5.401589916740260344e-01,-1.069501438186510889e+00,1.165450079360753843e+00,-1.148566529234453792e+00,-5.017259354136193394e+01,
-5.087523551755430695e-01,-9.576097990604820476e-01,-2.165065414904562835e-02,-6.049002135008586800e-02,-8.754409693746451282e+00,-6.373274876550807377e+00,
-2.845053912664772255e+00,-5.707697985708965582e+00,-3.969119303892648443e+00,-2.388401284418077974e+00,1.242586773442315273e+00,-2.011436179626083032e+01,
6.296131265631686347e+00,1.077449811595429985e+01,-6.185135285503583269e+00,-1.238398653258752646e-01,1.485511381484993798e+01,6.886709580743151093e+00,
1.257674455266137192e+00,-3.509905879823012498e+01,-4.225342788764740476e+01,-2.463362381102092868e+01,-1.802467365648698205e+01,9.659586560301904967e+01,
3.154814816538234479e-01,1.082777449139454440e+01,2.558509921519279029e+00,5.487450774558138455e+00,7.773406224687805732e+00,-1.585859885035405537e+00,
-6.899196367608177560e+00,-3.685547358743214374e+00,-4.738857969595529518e+00,-7.482308599384549730e+00,-7.444716035357552997e+00,3.191893251670514964e+00,
1.457320211992858106e+01,1.756233075967049828e+01,-3.502769318690764244e+00,4.604364307837653492e+00,-4.439580727579905783e+01,3.420969119742591857e+01,
4.699702590548248793e+00,2.115276565565083811e+00,2.050733324134532243e+00,2.690296180351802846e+00,5.912626364715167782e+00,5.570451443784537382e+00,
-2.050009287017857318e+01,-3.379371305384187707e+01,-2.880976738533912140e+01,-3.660218184206376435e+01,-1.404783210982453490e+01,2.228735777544887142e+01,
-1.768755284790230808e+00,3.801064453609517724e+00,-1.295131198292214458e+00,1.444698530944712545e+01,1.100367723107784990e+01,-4.341176599021772664e-01,
-2.783755979293525140e+00,-3.541704553415143231e+00,-6.192889941773107587e-01,-1.806351236619680334e+00,-3.650594074601356986e+00,1.175071893967042813e+00,
1.876283302444278434e+01,9.050775560588988355e+00,1.935094870415608170e+01,2.593283129955299771e+01,1.010557027528796503e+01,-9.292571395964181136e+00,
4.865493697019648067e+00,5.434064544325281965e+00,4.147139610972256030e+00,3.559522558052123919e+00,-5.960381934629866985e-01,1.497804323753849420e+00,
-2.372763856874797295e+00,-2.774813816134595323e-01,-4.445573864817969900e-01,3.970557860034272246e-01,-8.072069227713651429e+00,-7.464899577852790458e+00,
4.392713102660021462e+00,4.154876726275536392e+00,4.121497803595050691e+00,3.855486255157809516e+00,1.881070883789155879e+00,-1.213233281776701977e+00,
-1.404603138128313589e+01,-1.106291098188736122e+01,-1.613580040390485593e+01,-2.192338882157724811e+01,-9.042429391740013145e+00,7.887919784925525590e+00,
7.433577856595052324e+00,-5.604200144540117945e-01,2.384396687545991877e+00,-3.035887132175390413e+00,5.043050672390558375e+00,3.971477453466976471e+01,
-1.501001928320415013e+00,-2.937625344827424767e-01,-1.158687424778099828e+00,-1.225401679410189626e+00,-5.074514484040140161e+00,-3.476418742157873165e+00,
-3.994009268692559900e+00,-6.635736090711621848e+00,-1.518208672246520230e+01,-2.223496458648824614e+01,-3.742921688135653113e+01,2.798731723174257979e+01,
-2.506259608368541780e+00,4.373712079839299771e-01,-2.761847762879960033e+00,-3.524922371206041127e+00,-3.970604279652630630e+00,-6.839223045522197175e+00,
4.510994006713628934e+00,1.928581010663013240e+00,4.415320230174658356e+00,3.400320684219092726e+00,2.497138686993712664e+00,-1.166553679880381500e+00,
2.875159508509819606e+00,1.813071852594985156e+00,3.254662033510204111e+00,3.794269268580042986e+00,2.441057133159802550e+00,-1.012977369108272407e+00,
-3.037132465034941387e+00,-1.176486735507253689e+00,-3.691855840158303703e+00,-7.914314361144402232e-01,-1.450102087133048334e+00,-2.615818880100357013e+00,
2.637203449589800641e+01,9.252446748223606576e+00,2.103929086126466785e+01,3.113697173893698178e+01,5.833611965673152433e+00,-1.541394999285089540e+01,
2.856387671058857602e+00,3.734067253114510709e+00,2.675586547260135895e+00,1.804034201063968057e+00,1.069959269159565185e+00,1.243679607814077936e+00,
-2.467432871792650584e+00,-1.122632184946521949e+00,-1.345033950227973785e+00,-1.782673514874109078e+00,-5.766949594674812829e+00,-1.599639455000496646e+00,
6.373813747579277766e-01,2.035398330350857155e-01,1.645476451708155707e+00,1.998828561487123512e+00,4.911768294901836529e-01,5.484531742490291073e+00,
2.985499931718664166e-02,-2.278849652426154559e+00,9.386741025371398983e-01,-1.290956901619052077e+00,-6.564129749568216710e+00,-8.921048774257346992e+00,
-3.730999617793751000e+00,-1.826281795041285516e+00,-2.868250233962173379e+00,-2.260861059667000461e+00,-1.175981369594825132e+00,-2.650088177506899623e+00,
3.319763420131213394e+00,2.930968660039532381e+00,9.128758883512814171e-01,2.641981145546517418e+00,2.418529168000129737e+00,-3.431822087315036796e-01,
5.756136022995642643e-01,-2.575586741283746761e+00,-4.112166339853839503e+00,-8.487229759329984802e+00,-2.437098302153259066e+00,-1.763496770363978339e+00,
2.268230181758682740e+00,2.750158944130258742e+00,2.437079118097058128e+00,2.364283984488373846e+00,1.340644414580275834e+00,2.008133604406953321e+00,
-3.351128885223477738e+00,6.166874690041379559e+00,-9.188833498331057115e+00,-5.810441480181658847e+00,-2.020139527434525739e+00,-1.811696897237272808e+01,
4.744719383872808116e+00,-1.045297084199578741e+01,5.357419076875559405e+00,1.922620916498360799e+01,4.438041402192270668e-02,3.833601074116541696e+01,
-1.022664161585011389e+00,-4.059606746896080587e+00,-2.669388931817372690e+00,-4.026425213303076234e+00,-8.622808998069316999e+00,2.352734101351457330e+00,
-1.225528908362133240e+00,-1.458245103498048811e+00,2.647952237462205746e-02,5.145401392882262837e-01,-1.021443148028519587e+01,-2.881386475040976336e+00,
4.975428985389627329e-02,7.492609380926738005e-01,-1.459094964867332089e-01,-2.362780918833962684e-01,-1.337281726655305647e+01,-1.428988998368050112e+01,
8.851305003493039614e-01,4.681326366769932024e-02,-3.053055213639500609e-01,2.401627987176575107e+00,9.184655687707053318e+00,6.159880370068485433e+00,
-1.948419909137354855e+00,-3.780024677565866131e+00,-6.644353372751108822e+00,-7.513218609615755383e+00,-5.001686393653706375e+00,2.324510097097065575e+00,
-1.387837810710865982e+00,-2.435362020760833079e+00,-1.777584598716648090e+00,-2.833552029769147218e+00,-2.049953728703488576e+00,-3.142278214796561553e+00,
7.932520812778354191e-01,1.825043510193627982e+00,1.926278988619591903e+00,2.653609472878231568e+00,8.387804666157986588e+00,7.704609718903607352e+00,
-1.789536670846267441e+00,-1.164177315951782088e+00,-2.073169455999130939e+00,-1.435242301008347265e+00,-2.125880797687274448e+00,-2.383690106922795593e+00,
2.581907792862640605e+00,1.060319172897176188e+01,-3.028941124478647939e-01,-4.590811877866500801e-01,-1.505040589255092653e+00,3.767166396733150435e+01,
5.339021471351815151e+00,4.863792493119275306e+00,7.397123081684831014e+00,9.324564825158233816e+00,7.807687137022921497e+00,-3.743519147781352974e+00,
1.265737159999106520e+00,8.129027874823344657e-01,1.092737481361343299e+00,1.947273289795566020e+00,4.874473598530191798e-01,6.811967035945000859e+00,
-7.133168128445301903e+00,2.481297987884609313e+01,2.791260451990519442e+01,2.702993875655907985e+01,1.962683244171322627e+01,-8.394853522129737655e+01,
-8.309842636614328981e+00,1.342764949006903841e+01,-8.647684623660062186e+00,8.731008947845118884e-02,2.593395626845274649e+01,-1.478446420490649302e+02,
2.113752547239930113e+00,3.541675198910586353e+00,2.401466434134527095e+00,2.100306766436276451e+00,1.208838317384585137e+00,2.046357410000147592e+00,
7.577385259737943191e-01,-6.704033947644763458e+00,9.155842363152714158e-01,-4.205438075893637162e+00,-2.290669864579958670e+01,3.005319109754386542e+00,
-2.291584245444917123e+00,1.307667613340718660e+01,5.602260078129878806e+00,7.062246911286701234e+00,2.725189144350129489e+00,1.968997625737500368e+00,
-1.911751299271422289e+00,-6.873262838248095363e+00,-7.215766213064188861e+00,-4.676200840530266412e+00,7.589385023991445101e-01,-9.914604839910511558e+00,
-4.602751350874546010e-01,-9.029416025368810494e+00,-3.184989092322684012e+00,-3.438432760848587844e+00,-1.473913544299143119e+00,-1.022695439000742279e-01,
8.370959339696005586e+00,2.178756932779117150e+01,1.877377773952269280e+01,1.813009610135630112e+01,1.522633408385588538e+01,-6.374547025566193525e+01,
-2.349797205323266525e+01,-2.605197090319557063e+01,-2.800974375971151176e+01,-1.902632969168032417e+01,-3.548218442507149906e+00,7.187216122617603276e+01,
-4.765132062868189244e+00,-9.819476968993701149e-01,-1.832698317899372098e+00,-2.603553542690185907e+00,-9.895014341217912568e-01,-1.398924923691062805e+00,
-2.402312089235288273e+00,-2.087424978965802147e+00,-2.591130352647129875e+00,-2.151765727203109435e+00,-1.462944032427507146e+00,-2.409562398345480361e+00,
4.783000846548841167e+00,5.609786424530970983e+00,4.558803737467181705e+00,3.924453123878279381e+00,-9.068298245722534734e-01,5.991936876132201384e+00,
-2.598528429042820775e+00,-3.164104108982117136e+00,-4.731935591292478094e+00,-2.745922694997817270e+00,-5.114428739890051201e-01,5.901948477511863578e-01,
7.612571548634300411e-01,2.885703748931068446e+01,2.397885082661750999e+01,2.454496188488851161e+01,5.633551187387662473e+00,-7.102404450595858521e+01,
2.774693545626762159e+01,3.065988633647808115e+01,2.941135940038202889e+01,3.157229732377077625e+01,-1.441516275974403882e+01,-6.311404785415716034e+00,
6.243133489610963593e-01,2.651523988744502791e+00,2.805701889891590861e-01,1.282154722092579080e+00,3.883890987946957196e+00,3.869304858196673358e+00,
4.411612668193130027e+00,3.932940813539827829e+00,5.628318024616955739e+00,5.169773453175262823e+00,5.408120755461337303e+00,-2.230082441109614955e+00,
1.112122865293019153e-01,1.917757657950341366e-01,1.298075655958524477e+00,-5.277728849269143208e-01,1.088775832481334938e+01,6.611061528242022867e+00,
8.210284716910521752e+00,6.237771618554631026e+00,1.030105345173835651e+01,1.506591224909028170e+01,6.602032769214345009e+00,-4.872930478102358798e+00,
-7.460254643156082111e+00,-2.554009694845408163e+01,-9.643898326333090409e+00,-1.077333331499452207e+01,-3.988226718650681679e+00,4.138460227700143435e+00,
1.781523337673085550e+01,1.856831515856531922e+01,1.706146040640721040e+01,1.484254448584924724e+01,-5.716382277940664558e+00,1.210240815562640404e-01,
-2.062463460149854821e+00,-4.145117430617005105e+00,-3.149972984303080370e+00,-4.048333823249850916e+00,-4.078281583874902694e+00,1.311637368721729979e+00,
1.160228816957624254e+01,1.148482351689349734e+01,1.220352089018153130e+01,8.743544870453545670e+00,-3.406509454336561493e+00,1.229418045583561492e+00,
-4.738018500698892410e+00,5.808005795028714502e-02,-1.923886138151081893e+00,-6.377937607934723196e+00,-2.497585816782443402e+00,-4.628410458732123089e+00,
-2.285648303028318118e+00,-3.342454678769912313e+00,-4.328603265676949086e-01,-2.571080750731830733e+00,-1.577847413974105883e+00,-2.268421322569779797e+00,
-9.061951673622005154e-01,3.908855602120862915e+00,5.913464250344247830e+00,1.154190018698417219e+01,4.685424939443285197e+00,3.419658470973141462e+00,
1.044101985886159323e+00,1.147615442121458385e+00,1.836149360717133749e+00,2.787220861240282122e-01,1.249835475695609599e+00,1.155626091617917695e+01,
-6.686496266985424874e+00,1.330149046039185157e+00,-6.869674672618772959e+00,-7.174115586322765026e+00,-6.047147238462700081e+00,-6.421185554824601072e-01,
-7.904261854222957573e-02,8.254050474958782857e+00,-3.233273736283680755e+00,5.954240267312809642e+00,2.603480596890561216e+00,7.855702532056542120e-01,
-2.854911559794988563e+00,-1.375440464613861380e+00,-2.969989711254131581e+00,-3.623552866736041267e+00,-1.418166451991808907e+00,-1.609223102008472850e+00,
3.694844360804137584e-01,-3.079389160185277419e+00,-2.725378348197366574e+00,-4.249448994050518458e+00,-4.733997399304167963e+00,-2.668379496194658529e+00,
-1.332571603316952791e+00,-2.627796498699606520e+00,-2.366867661006944790e+00,-1.632765204566614559e+00,-1.023576421721957619e+00,-1.558025937591162480e+00,
1.679353696907227089e+01,2.173577177142511729e+01,2.264439894917881801e+01,1.562465306855779090e+01,7.882700774529013188e+00,-9.103625296468065287e+00,
1.952140454412466308e+00,2.737109638069334494e+00,3.298616752491760340e-01,3.544821413894541973e+00,1.417827374147767827e+00,2.152788479392259369e+00,
-1.604267948872735161e+01,-7.044660230854756833e+01,-2.221589541070496310e+01,-4.167414880304236391e+01,3.073080376803499547e+01,1.420959903249690228e+02,
-1.130376782025599436e+00,-3.207473719980494575e+00,-1.941149117688922399e+00,7.468631636250281369e-01,-1.172040797559323888e+00,-1.066130630684967784e+01,
-1.610074563424979122e+00,-1.610809004589865312e+00,-1.186466955966195558e+00,-4.881106707318938476e-01,-3.565455468288938778e+00,-3.774646253487749625e+00,
-2.038998480899685362e+01,1.372833947030919255e+01,-1.029841806468075660e+01,1.733441844369469109e+01,-1.291353768994083850e+01,-7.945131815786163543e+01,
1.489154792437433628e+01,3.234647147258408495e+01,3.321998685762893899e+01,8.582553062757996898e+00,8.058567703646884794e+00,-7.309064348005556155e+01,
6.047921729168352911e+00,4.833370696026942248e+00,6.496173492515212367e+00,5.474641233056631862e+00,-7.081204474167087648e-01,-5.730606808869801450e-01,
4.603306008520644532e+00,4.963369475248132545e+00,5.826795107659853201e+00,5.568916225430552203e+00,5.216990094064207106e+00,-2.535175871058764407e+00,
-2.482295893264839570e+00,6.815328715527008363e+00,8.895184034840559306e+00,3.786781277946612345e+00,3.570459170376285574e+00,5.756599538256637949e+00,
-9.581293247668808633e+00,-2.998695697702593677e+01,-3.024158272532528002e+01,-3.134499869113718873e+01,2.105155608464750472e+01,7.241068265083367805e+01,
3.992990950530653294e+01,5.517501788274304886e+01,3.960061290408614809e+01,4.471633986814529038e+01,-3.469572322710796186e+01,-6.749091916310497652e+01,
6.509479066089297883e-02,2.348028018999933852e+00,-7.888055267138618931e-02,1.212814204939374862e+00,1.559959973508717956e+00,1.535130630896523485e+01,
-1.148734153310677186e+00,1.597572413485466969e+00,-1.076613749928247987e-01,8.641778560081955218e-01,1.535505622799503556e+01,1.354670881896035972e+01,
4.467228258774055938e+00,3.620873763646825783e+00,2.063174302708183472e+00,1.735034637845165872e-01,3.184415225194751287e+00,7.554479150424820766e+00,
-5.669825654862624020e+00,-6.394053752628830800e+00,-6.757177322964904143e+00,-8.460230786514706836e+00,-9.779558084387462102e+00,4.158127369216242819e+00,
1.336245961359400347e+01,6.465476487212956869e+00,1.028300454982798229e+01,-2.437936243025771166e+00,2.356845590405708624e+00,-5.434324416235157829e-01,
-7.911891266181286575e+00,-4.747539121603946199e+01,-6.973787641334698861e+00,-1.753401841831105656e+01,-1.207263173453335270e+01,4.392085163897990441e+01,
8.111337522858672600e+00,5.456544910577140195e-01,5.467057377416966624e+00,9.720337263681270157e-01,1.102313040754815260e-01,2.757406286552718466e+00,
-5.313743881563851801e+00,8.282997065592249797e+00,2.554844183529603185e-01,1.351810915991693562e+01,-2.127061251311759271e+00,5.479589252460852578e+01,
-1.155795032342771700e+00,7.528839542347069702e-02,-1.630185066838456764e+00,-2.041505039490728812e+00,-2.941114353007709514e+00,-8.204626296961142984e+00,
2.234898955381838359e+00,2.559353137823511037e+00,2.179238148109411632e+00,1.658875495162684288e+00,1.299068882614987874e+00,4.284938051703432116e+00,
1.100154985075129516e-01,-3.356224160616010810e+00,-2.863748528300922747e+00,1.204645250833321080e-01,-4.015022107399873974e+00,-1.276703952777024753e+01,
5.134261579040196644e+00,4.209498226440796742e+00,5.898742683353026983e+00,6.740658145911188726e+00,2.354472993554813876e+00,-1.931115245243853362e+00,
-2.622693373501745029e+00,-1.931745652468531693e+00,-2.184303128349037948e+00,-2.237170117274796421e+00,-1.771925060406173369e+00,-2.408948466014844580e+00,
2.449424893624313881e+01,1.925437215824767279e+01,3.756397378987652758e+01,2.830979963553548373e+01,2.273086611303624771e+00,-8.270506541477490714e+01,
-1.639681504216069285e+00,-5.012922742262471587e+00,-1.620476942701359890e+00,-4.521239029384039876e-01,-1.904897363719974424e+00,-3.953589308439497074e+00,
2.381076352019552700e-01,4.275938998325328200e+00,1.332878575368377838e+00,3.863792262461289706e+00,9.452030664900938461e+00,1.757150860948558213e+00,
1.885999426405527757e+01,1.925237419430532526e+01,1.879217198728073157e+01,1.710598873378691920e+01,1.706677608266015156e+01,-4.824064464136936436e+01,
-2.318715061737470773e+00,-2.331434136035651861e+00,-4.989524768809017630e+00,-6.272860375675501921e-01,-8.497323512772666509e-01,-1.641811367461289750e+00,
5.802560532220213396e-01,-2.854489788645564019e+00,1.415769414641552704e+00,1.161874123061451325e+00,-4.602780420131153072e+00,-5.504113168593006122e+01,
4.004499443967638683e+00,2.361065631892578409e+01,-3.846138213470236433e+00,-1.453574749646248776e+00,1.918548589090222833e+01,-1.674995621619352448e+02,
6.398892735191829217e+00,1.274205368015515871e+00,1.053524531564867139e+00,1.014213965781231297e-01,6.483113398387336801e+00,5.936760418350708335e-01,
-5.752428216371689551e+00,-7.659879214278015880e+00,-3.465393046488015827e+00,2.300044043488268741e+00,-1.266885040517803596e+00,-3.250531276552812709e+00,
-2.854979012030002927e+00,-2.715073082699434703e+00,-2.478271721665827876e+00,-1.015956125018241840e+00,-1.805988046477171594e+00,-2.141949084800997660e+00,
-3.238954776130603452e+00,-1.274434731147804811e+00,-2.460834899238503848e+00,-2.630393078603392887e+00,-1.711386154690210049e+00,-1.611658861730228320e+00,
3.124314944167064123e+00,2.412742440258919707e+00,2.425217514136619901e+00,4.590664251862645706e+00,4.228416142207557016e+00,-1.413352403085851750e+00,
8.786690200874844869e-01,-5.924861870532653896e+00,-5.664919133502857918e+00,-5.816731797083541267e+00,-1.386723856775057273e+00,-3.858683695483048126e+00,
-2.089054903289877807e-01,2.373582055457566842e+00,2.894411848747781291e-02,-5.862381118132971025e-01,1.262275262082747673e+01,1.117272061926133198e+01,
1.912019425614214008e+00,1.162062875078034185e+00,2.484623819116303700e+00,2.802859737881149726e+00,1.674304121736176931e+00,2.361157590149196128e+00,
8.499934818963135186e-01,1.665317325818952199e+00,-5.970838621669633639e+00,-1.415471552073802997e+01,-4.328001225742905689e+00,-1.923490210602172290e+00,
-2.273142130958637264e+00,-1.390579819800618067e+00,-1.950904483995702154e+00,-2.764669200832575058e+00,-1.386034458776064238e+00,-2.271803216297608508e+00,
2.609991637568231582e+01,1.277814803254981690e+01,2.534992403672317707e+01,3.330429114772906729e+01,5.629122043834257738e+00,-1.087952503303322338e+01,
-1.465409205952941640e+01,-8.381136812462235852e+00,-1.422371402075518354e+01,-1.821076053456391364e+01,-4.401900925609885107e+00,4.273594457531559243e+01,
-2.034297454282111062e+00,-1.553154515607903186e+00,-2.592290876789657972e+00,-3.284565643731386153e+00,-1.417024549467602812e+00,-3.341012008108886988e+00,
-4.213900197653555502e+00,-8.551209914696421777e+00,-7.892475650143747856e+00,-7.581237183849050432e+00,-3.455209173962689118e+00,2.934957277653072349e+00,
-2.260391108480449329e+00,-8.584417602684502047e-01,-3.491372528749074000e+00,-3.062663266272859897e+00,-1.203782023888296360e+00,-2.059816301818949924e+00,
-3.120630505271820621e+00,-6.161139405845511563e-01,-3.216833300296739750e+00,-3.466247062284690816e+00,-3.056144988490343550e-01,4.052732813473348128e-01,
3.267599479449554423e+00,8.569671850202126295e-01,3.542347872839923806e+00,1.608482789278735392e-01,1.128549872778279806e+01,8.990621535656439178e+00,
-1.706102924807431531e+00,-3.589602325113881331e+00,-1.328830477031857304e+00,-1.717633530248005247e+00,-5.764933133693873613e-01,-1.986925682071522203e+00,
-2.676548952380020996e+00,-2.567712982133601773e+00,-2.466261865579461254e+00,-3.005551045106534147e+00,-6.530114512069834509e-01,-1.988551484119502888e+00,
4.103019601516352921e+00,1.160910928081237525e+00,3.913353844015862393e+00,1.961262758079650448e+00,5.536133561970628669e-01,7.075615835877931969e-01,
3.479793826208268825e+00,2.691854367320371644e+00,2.250926453801036509e+00,2.597620266481313056e+00,1.705103024962774938e-01,1.065570085719103721e+00,
