3.044791651237393815e+00,7.738952128956836596e+00,2.139303561980224089e+00,1.938026339740220294e+01,4.381205378525036664e+00,1.006237680072782048e+01,
-5.310780366878811165e+00,-6.482434747108829498e-01,-3.328746605983862850e+00,-1.073569469518350639e+00,-2.818526274232143081e+00,-1.618504483421079598e+01,
5.101947771192020475e+00,3.009145790490800554e+00,5.932627097854386022e+00,8.602295395230859398e+00,5.887940542044452386e+00,-2.679839248732781343e+00,
-3.617566794623269022e+00,-4.342181446357893826e+00,-3.129201748688055229e+00,1.201782178934901989e-02,-2.282866077706232844e+00,-2.623693531490407516e+00,
-1.358908060084184743e+00,2.714669941581757584e+01,-1.686023464016406237e+01,-8.043112770337426554e+00,-2.611214625018774527e+01,1.558868727546499429e+02,
4.691263595982270829e+00,7.730600815750361399e-01,-1.763196545110152780e+00,8.837615949843788954e-01,1.014941903374406884e+01,2.349012097419917566e+00,
-5.843312199452419264e+01,-5.402527396177714536e+01,-6.629832395621183139e+01,-5.687540081931594926e+01,1.275474158692973958e+01,1.245227350814361102e+02,
8.131466284490608132e+01,6.585104383352110347e+01,6.366326178973626071e+01,7.060503383909778563e+01,-4.468722014303338597e+01,9.240473699241093186e+00,
7.048705717797520265e+01,6.153428525264282456e+01,6.305197221177888878e+01,6.753099734778847107e+01,-3.413977353724917663e+01,-2.809843884735761321e+01,
1.084935479795561708e+00,-3.337239319090302025e+00,-7.929354943905682074e-01,7.750864823618757171e-01,-3.008774727447627839e+01,-1.120806751875499963e+01,
-3.526242658271056207e+00,-3.064250387999425396e-01,-2.365996165270008333e+00,-2.577778111525569571e+00,-1.916177119097824511e+00,-2.117858134378685087e+00,
4.934184874464710546e+00,4.618163384177577768e+00,-9.390065336912657656e+00,-2.940357859061930035e-01,3.600150346921089550e+01,-2.122205025996034067e+02,
-4.265682472769811717e+00,-3.940241337296615853e+00,-3.758402123686171770e+00,-3.210544201916803786e+00,1.193157882395264463e-01,-5.012983867363630885e+00,
-1.558473233355528009e+00,3.247926900217620982e+00,4.131649816398796915e+00,7.365677236270162354e+00,6.764069756510919795e+00,5.163264325125118681e+00,
-4.448308917634040682e+00,-2.923156607617593661e+00,-2.535014371746486361e+00,-1.270000442040376321e+00,-2.544066676476322897e+00,-3.211065800685363403e+00,
5.016862190875302829e+00,5.325028767181920308e+00,7.157943986578340301e+00,7.385913433639625936e+00,-9.032454290367247784e-01,4.939006379988759576e+00,
-5.799380656336809103e+00,-2.302802553541019481e+00,3.523671457453687594e+00,-2.208965563689188283e+00,-2.720111017360778316e+00,-7.387382611712040692e+00,
-1.600396383396725519e-01,1.735723756843040866e-01,-2.692914595379051867e+00,-5.947279966001771667e-01,-6.030126751425657794e+00,-8.640939604225135184e+00,
9.006635337912434203e-01,1.906298510548680980e+01,-6.365649807242188540e-01,-2.920755503441565093e+00,-2.752503006120767282e+01,1.902100901982506116e+02,
2.978634791326951525e+00,1.227011567839418005e+00,3.524191935936572317e+00,3.798875079277888034e+00,1.959898367361427640e+00,2.737793749784873221e+00,
-9.559049526582448664e+00,-4.324762783990832915e+00,-9.747256887600151742e+00,-7.150332440517417787e+00,2.178562497922015950e+00,-6.866513993078102729e+00,
2.682216615829599249e+00,6.661675366278697608e-01,2.412337356776056652e+00,1.779925206342667598e+00,4.190465097598134570e+00,3.936708465452807282e+00,
-8.061385887569731068e+00,-6.556541154003524774e+00,-6.693320582611266722e+00,-6.011205924810510304e+00,-1.095890981889067195e+00,2.061255209057391458e+00,
-3.463195933278676808e+00,-1.195751709812225005e+00,-4.941637321464183330e+00,-2.663961700333189686e+00,5.894773451643182671e-01,-2.813191864736669157e+00,
-1.726738082667472529e+00,5.798167873336931954e+00,7.137010151126372826e+00,6.757120330268320707e+00,3.822845353439815241e+00,5.316825070521185026e+00,
-4.316990500033618616e+00,-2.729267810308607434e+00,-4.506098137603572695e+00,6.390341397973291204e-02,9.248757025220095684e+00,3.715441638492554155e+00,
-2.479802197943447695e+00,-4.767161121736059048e-02,-5.846769049223902392e+00,1.821537345972599864e+00,-2.016793204008207940e+00,-2.093806835249631959e+01,
1.750563505985379908e+00,-9.941561178784616981e-01,-3.253160947555736726e+01,-6.767145631897178326e+00,1.522657427232891436e+01,1.600631156987644772e+02,
-4.620567815595945405e+01,-1.069974129104659610e+01,3.085008760793077442e+01,1.127614018410523400e+01,-1.749721013988732210e+01,-1.650122294386236206e+02,
2.126928253801943836e+00,1.648632336978333557e+00,9.027343330700164925e-01,4.266346634268774807e+00,7.453205975830694108e+00,3.666462915635571029e-01,
2.639100993596779077e+00,3.336639843768610891e+00,2.426434931033158104e+00,3.184827638742003586e+00,1.729534953258011321e+00,2.553479614967583355e+00,
3.232555337935102102e+01,-9.250772470109372136e+01,-7.895997952483814686e+01,-7.411688758792755038e+01,-6.878125563733379977e+01,1.589444436190131853e+02,
1.249169300654163539e+00,2.017514845402454959e+00,4.037761526240815968e+00,2.454250393115213758e+00,1.993540776143450044e+00,2.082525884601051036e+00,
1.222401667086095545e+00,-4.447880478390577430e+00,-4.796838782781198240e+00,-3.749445774936639442e+00,-8.312274811344604331e-01,-1.214032898144803596e+01,
-3.832815944646293715e+00,-1.301486902121545608e+00,-3.548129518700503304e+00,-2.417925746136241116e+00,-1.649851627383268626e+00,-3.166387873441452339e+00,
2.588426502918201422e+00,1.025660370269614496e+01,8.377745447480879903e+00,6.011395253436090158e+00,-1.779984140427805528e+01,5.551272679738982418e+01,
-6.616134622869636051e-01,-2.656016256361565908e+00,-3.758180367497296337e-01,1.635893470195057819e-01,-4.453600374509660398e+00,-8.167239079693182191e+00,
4.043668539207724955e+00,-9.247409073764657705e+00,2.311436757302914913e+01,-2.452649683661130808e+01,3.780101573182200525e+01,-1.960129648894727836e+02,
-3.821874375624936260e-01,-3.385850203214927578e+00,7.622114240565466270e-01,-9.422562952620364030e+00,-6.850477544053924284e+00,-1.848627762293318000e+01,
-6.213448993264223397e-01,1.470999717104291005e+00,-4.001067367635899319e-01,1.824160105691772005e+00,1.048409660733867454e+01,1.757037948132223804e+01,
-1.347965576356474182e+00,1.215183506484968756e+00,3.554161264829256428e+00,2.495473988236530438e+00,8.766814585862050535e+00,8.365602641776369808e+00,
2.973305055172611677e+00,3.531387279638670940e+00,2.774804693082286722e+00,2.622694023463911339e+00,1.968924452605606890e+00,2.229180995199658621e+00,
1.250015572477665771e+01,1.519730265732309782e+01,1.647998934791318604e+01,2.070182675939121708e+01,4.473814793813581936e+00,-6.917037142304577557e+00,
-7.628507565468045648e-01,-2.099852845597492301e+00,-1.598795895850588344e+00,-8.814341926699388319e-01,-1.085075552634705964e+01,-2.430498776449262710e+00,
2.327185017038813974e+00,4.811939254020857759e-01,3.782319805860532291e+00,3.034884695547602540e+00,1.885202872570306276e+00,2.497171295535879132e+00,
6.180187958961414552e+01,6.527262013948168828e+01,6.404339026137029123e+01,6.364560984257563803e+01,-9.328181436048392072e+01,2.301566823422892938e+01,
-4.744462887224550229e+00,-4.645867371139474677e+00,-5.455517434763368811e+00,-4.935376541832371622e+00,9.225543639496708304e-02,-1.037650436375933544e-01,
5.434179702866637207e+00,1.931667492580412038e+00,2.407044958823231884e+00,2.406849146554166818e+00,1.472924134278905006e+00,2.070386974980329420e+00,
-2.679094552031970444e+00,9.785361010251168778e+00,-1.740922054717872314e+01,-5.216696628197392549e+00,-3.791847256775530361e+00,-9.845468914177261865e+01,
1.899345875784911897e+01,1.603920709367358910e+01,2.171749572659564365e+01,2.112255498027391099e+01,1.853818571458215203e+01,-1.125240016629386730e+01,
-1.174779345823148802e+01,-1.148318941362966328e+01,-1.122893946773219653e+01,-1.152976023423720520e+01,3.949107964031907780e+00,-6.469416948466611750e+00,
9.126153932713343409e+00,1.845353385543189972e+01,7.445709390334831923e+00,1.565728350210329012e+01,1.197768453946390821e+01,-6.850416841886571184e+00,
-1.025975470632229403e+01,1.196269002408880056e+01,-7.139385689141498403e+00,1.918940069360980161e+01,-4.508976531811998001e+01,2.337884171477304847e+02,
-8.105801339428422736e+00,-9.821461649311649467e+01,-5.525173765663115688e+01,-3.911239929210950805e+01,-8.491188225489915808e+00,1.981051651607500617e+02,
-5.647239309125094309e+00,-2.462825375237751580e+00,-4.444310469292973131e+00,-6.599041578561603671e+00,-6.596533977971683171e+00,2.386961450225427495e+00,
-6.505516821519014670e+00,-8.341605868709486060e+00,-9.121956935131191102e+00,-4.745057498569094534e+00,9.602878785009777429e-01,-1.077016023683114554e+00,
-4.321234382129087948e+00,-3.684015323596590896e+00,-3.728071692420996452e+00,-3.663499115172072607e+00,-2.605163785438836310e+00,1.203773544414335150e+00,
-1.422998148801254281e+01,-3.966787123698109152e+00,-7.774542396972742964e+00,-1.621982449420118755e+01,-2.596359070181856410e+00,4.052491070602385115e+00,
-6.118774873809403658e+00,-1.740083193590686150e+01,-1.535393626383558363e+01,-1.941697203589774645e+01,-3.324016814407973808e+00,-1.345706287368160226e+01,
2.971722206949518164e+00,2.132089906866089901e+00,1.865374441241750558e+00,3.593027300119190581e+00,1.563615437535003094e+00,2.343092119890796354e+00,
-1.482165865417942374e+00,-1.812591851695133094e-01,-1.258401300026797509e+00,-1.196930697000049282e+00,-8.074373340315529890e-02,-8.246715258288354278e+00,
2.971185255647994072e+00,6.211992345473176691e+00,-3.528810149301130128e+00,2.004559377730603109e-01,-1.446329893050016357e+00,6.266848463196465246e+01,
4.183273135171380552e+00,3.120931488457954650e+00,3.039443789524021167e+00,2.533672866644741895e+00,5.475086227829805807e+00,-1.706523331454362413e+00,
-7.073953156903860950e+00,-7.267267185039480992e+00,-6.663932457090441019e+00,-6.786145538281701306e+00,-4.809128258031162950e+00,3.004006577283119483e+00,
-2.423743837454541250e+00,-1.019415753338805075e+00,-4.319277962655711178e+00,-7.056863790881661380e+00,-4.377976452432403853e+00,1.584257825037514555e+00,
1.156424447422097629e-01,1.200667421855046380e+00,-5.928232173787655324e-01,-2.638055510226248734e-01,1.950292128309679640e+01,1.962693300538968089e+01,
1.996242795999408237e+00,2.982371856756608874e+00,1.995674546684841122e+00,2.509242812074426787e+00,1.911201171494801176e+00,3.238131519521985524e+00,
1.318477862828377534e+00,5.574702321895105506e+00,8.533577979334349140e-01,3.275489431760085335e+00,1.184141477336869031e+01,1.353395090012974311e-01,
-2.863188243001900091e+01,-3.103869005889997013e+01,-3.246931112624319127e+01,-3.408414042350966611e+01,-4.720073859191911936e+01,4.976465536406562506e+01,
-1.163920135656264510e+00,5.452817281215674994e-01,-1.065882397481493049e+00,1.176442550075304849e+00,-1.144041904447240077e+00,-5.017206065778561452e+01,
-7.201175228558199803e-01,-1.162906511428791756e+00,-2.292427833992875807e-01,-2.669739750565836567e-01,-8.868493394625701853e+00,-6.620770666980572372e+00,
-1.102293047762994682e+01,-5.752948523490037935e+00,1.209175919598652271e+01,6.359523384695701331e+00,4.825435714537803022e+01,-1.905218538201380056e+02,
6.330028050738729206e+00,1.080417879502050837e+01,-6.069034132581928809e+00,-7.788375929090469649e-03,1.486765567244763453e+01,6.908941124166219083e+00,
8.637081567528413473e+01,1.371657722017827474e+01,-1.029049314643878787e+01,1.462418406867713827e+01,-2.659569273732463657e+01,1.915737920659375675e+02,
3.126315324730926659e-01,1.082492360684484822e+01,2.555656700333864162e+00,5.484621616414765199e+00,7.771989940466712987e+00,-1.590638380653093709e+00,
-6.915100140092347303e+00,-3.701716193332388549e+00,-4.755320519101874588e+00,-7.498968260405555419e+00,-7.477395062210360877e+00,3.040065886946872631e+00,
8.191114832638191956e+01,5.556766778325695100e+01,5.063832882061281460e+00,1.440736976678342707e+01,-1.128204073596618713e+02,9.081126968272639033e+01,
4.701975247207673902e+00,2.117546000264452832e+00,2.053001603326324975e+00,2.692548907913980383e+00,5.914774734373126286e+00,5.572898834200324281e+00,
-2.334828045381287609e+01,-3.575215220152585971e+01,-3.065823394821294556e+01,-3.861324210853459959e+01,-1.434071465725980765e+01,1.571549849028038892e+01,
6.843935908229314968e+00,3.502514730636723250e+00,7.258136963862131807e+00,1.445688887364795505e+01,1.377705745846025920e+01,6.264453388341799212e+00,
2.708329494814622485e-01,-1.349702223167172033e+00,6.165460328888387131e+00,-2.792454448887055296e+00,7.346158684474058731e+00,6.093991547586633573e+01,
1.878796077585134938e+01,9.076446498456004264e+00,1.937720681265122025e+01,2.595931366960425990e+01,1.015705912848510373e+01,-9.051466361241578440e+00,
4.912585388440104062e+00,5.467843856392033075e+00,4.180489772130084880e+00,3.592685280457552643e+00,-1.826609373984647566e-01,1.505666956189505079e+00,
-2.399109571425066534e+00,-2.993071403250471829e-01,-4.669660235976256790e-01,3.755763508824445651e-01,-8.091342240836821631e+00,-7.495839984856797145e+00,
4.318285613047496696e+00,4.084407527986891218e+00,4.046861844431657751e+00,3.782764564069628133e+00,1.848908253606965646e+00,-1.080144107540644383e+00,
-1.407053982964896477e+01,-1.108791043170771573e+01,-1.616133384027589415e+01,-2.194917323911718299e+01,-9.092610135826712181e+00,7.653301797068852608e+00,
7.433307855700761024e+00,-6.326351612803842173e-01,2.312689487462316063e+00,-3.107612620170407514e+00,5.032886256455461726e+00,3.971249238776731261e+01,
-1.771836966664932511e+00,-5.635007360080793726e-01,-1.427895647049093331e+00,-1.493464692953888617e+00,-5.255783057771468592e+00,-3.786260464314655128e+00,
-1.618526061123789717e+01,-1.933750245062152828e+01,-2.819663576898939539e+01,-4.811183242799004489e+01,-8.191250774371350474e+01,5.980655843333057931e+01,
-2.537442285541802178e+00,4.066399090744158840e-01,-2.792994694577432657e+00,-3.555951934718397212e+00,-4.010988873291640999e+00,-6.868453078537748446e+00,
4.314739418070491439e+00,1.735461407014986523e+00,4.214642806299695010e+00,3.210180812564293884e+00,2.426516897474688239e+00,-1.072992758761529108e+00,
-2.118675048301728481e+00,-3.761788190335324522e+00,-2.630794419730639877e+00,-1.847966160484828313e+00,-1.181633203697393553e+00,-2.223646483753083380e+00,
-3.475466378454786120e+00,-1.615854943263501431e+00,-4.131413173013474882e+00,-1.229651397610793673e+00,-2.058295336322961688e+00,-3.009227483537673109e+00,
5.406116452962514529e+01,3.013583418723315077e+01,5.244578979423711473e+01,7.108983190820147513e+01,2.427534438456518018e+01,-3.809567816898645987e+01,
3.280640876159665709e+00,4.159454999450425738e+00,3.101163472009964117e+00,2.227999286447905014e+00,1.628644850203272876e+00,1.640511064968826815e+00,
-2.825447105649682378e+00,-1.480135186714830686e+00,-1.702231833961771246e+00,-2.138206649692038663e+00,-5.977055667404221673e+00,-2.064464088593959357e+00,
-9.076022056824488971e+01,-3.323765182820317676e+01,-7.507574270201305922e+01,-1.649747297622728937e+01,1.271755552926028230e+02,1.372389656603407104e+02,
1.687402264865480632e-03,-2.300280843748036208e+00,9.095113091944503347e-01,-1.319579954449865200e+00,-6.585218339640773522e+00,-8.956930409097573431e+00,
-4.147580775869804448e+00,-2.244456277913029041e+00,-3.286766541474210435e+00,-2.678293167335025871e+00,-1.804758004056688847e+00,-3.001920592887988182e+00,
-4.981213599819390048e+00,-5.773481395815172945e+00,-6.052584013507766869e+00,-6.510667797087001496e+00,1.046568877151044408e+00,-5.519617711469929411e+00,
5.940037163482557725e-01,-2.526800462671642933e+00,-4.063373608404344139e+00,-8.432916374189437292e+00,-2.382919525996400001e+00,-1.706075933375810871e+00,
2.686559708888408782e+00,3.169474647319240557e+00,2.856557891722345754e+00,2.782288316221213531e+00,1.902145503196019494e+00,2.392537473905420597e+00,
-3.362872650697734223e+00,6.228249779002086761e+00,-9.182601680290549240e+00,-5.805040704634174098e+00,-2.010325134835611482e+00,-1.810536343822764138e+01,
4.886352747994716417e+00,-1.032049108829151685e+01,5.424787255534156749e+00,1.924543917653349467e+01,6.643258737987864371e-02,3.833929020765498308e+01,
-4.175508412690287940e+01,-4.680727364638972432e+01,-3.575822127880351076e+01,-5.086344586614903562e+01,-2.278225492604195068e+01,3.289391935602595396e+01,
-1.816354834385103700e+00,-2.045185817436138365e+00,-5.616485178446602999e-01,-7.233157952468954877e-02,-1.042886751483349528e+01,-3.620393717470517636e+00,
-1.739214685608763966e-01,5.265489601508862583e-01,-3.683669212868287968e-01,-4.640010337117203010e-01,-1.335666650382987797e+01,-1.438788078942640070e+01,
8.377009114449879279e-01,-2.728767397102555264e-04,-3.522169789510790072e-01,2.355045238129840790e+00,9.156481847775856053e+00,6.104492543003954275e+00,
-1.964903034303586704e+00,-3.796785570836838986e+00,-6.660811061304822367e+00,-7.530007376568568667e+00,-5.038559559956151013e+00,2.156036358153659460e+00,
-1.833778183751612723e+00,-2.881873399370054045e+00,-2.224134221214522089e+00,-3.278399975871896466e+00,-2.620684698494393672e+00,-3.561712986735273034e+00,
7.946465372491455792e-01,1.826432656136595556e+00,1.927666212133205326e+00,2.654987589545177773e+00,8.388994526334967006e+00,7.706109729539203812e+00,
-3.199458427971589813e+01,-3.095158716500031204e+01,-2.982950278735460259e+01,-3.940609332220061134e+01,-2.284015710388624854e+01,1.793134893493686022e+01,
2.631156937629232306e+00,1.060550844288960626e+01,-1.837233692755241565e-01,-3.399073853548963409e-01,-1.380569497250772271e+00,3.768099806829794574e+01,
5.356785149681241087e+00,4.881847447876270785e+00,7.415494166234023687e+00,9.343163491621721661e+00,7.843984549709107412e+00,-3.574729981627980280e+00,
-2.961506496481626449e+00,-3.460643456286986108e+00,-3.176382334639249461e+00,-2.122387872766481554e+00,-1.957128424821003021e+00,-2.844133891506991585e+00,
-4.166885253522901422e+01,-6.686969379455010021e+00,6.839420960850642217e+00,-2.493283277953695531e+01,2.040630310985452667e+01,-1.805700697690296863e+02,
-1.300991253973981632e+00,5.668482958572568009e+01,3.977081868361913308e+01,-3.929427491521808946e+01,1.577910692240359367e+02,-2.170228407651567011e+02,
2.534710433591099932e+00,3.963902018556368922e+00,2.823911025402185082e+00,2.521382686394864514e+00,1.794429003936638845e+00,2.423815375092980062e+00,
-5.009178546634047713e+00,-8.419441950995867785e+00,-3.448869123984850127e-01,-5.476584438370617036e+00,-2.286679626438724000e+01,-1.653870649683593541e+00,
-2.185361612448741386e+00,1.307706554352025741e+01,5.615352202442272400e+00,7.075339134224138071e+00,2.784960766395077059e+00,1.977345913673092870e+00,
-1.976238496445084536e+00,-6.876759971842414387e+00,-7.219249714441390076e+00,-4.679683764044779259e+00,5.861431575731389509e-01,-9.937559735624972745e+00,
-3.817121282107565072e-01,-8.851719042150191896e+00,-3.005682873016702672e+00,-3.260184713979523696e+00,-1.524149379984861552e+00,6.318157580301320131e-02,
-4.386801044746509604e+01,1.286451409502754188e+02,8.760676083813869752e+01,7.990483452738232018e+01,-5.503153126692912878e+01,-2.459881536186751987e+02,
6.581692703472858952e-01,-8.339333327256007067e+01,-6.741479747780117293e+01,-4.807429710110523047e+01,-1.447498062488984605e+00,1.606296050338010559e+02,
-5.104672789848340386e+00,-1.322439781027023198e+00,-2.173378869274870340e+00,-2.943108774637888114e+00,-1.451062590687092646e+00,-1.708037336177986143e+00,
-2.824934704853682810e+00,-2.511005871367476772e+00,-3.014871998230368444e+00,-2.574097888036339654e+00,-2.037519403499506332e+00,-2.794050105580110355e+00,
4.841577616783479421e+00,5.664116758602462554e+00,4.612814127297987454e+00,3.978450442936315667e+00,-4.815099161284229767e-01,6.020483861326721531e+00,
2.984621757922539587e+00,2.326180243153482152e+00,1.643862584381748482e+00,2.970391562621322201e+00,1.755759951455200696e+00,2.901163756300492835e+00,
-1.155586967248175512e+01,9.013988290918294410e+01,7.942231043242988164e+01,5.967036153234851525e+01,3.846868351615643888e+01,-1.419768578497575504e+02,
7.150403089996538597e+01,1.007920033863132545e+02,8.409118921831914406e+01,8.516236276393560445e+01,-8.982039679568084978e+01,-3.966607555047742650e+00,
1.026034985021798907e+00,3.051856335118693142e+00,6.802622897142995839e-01,1.679834591967280799e+00,4.233138230358431287e+00,4.309709969807612673e+00,
4.421561974477095092e+00,3.943117933758131244e+00,5.638585882112049141e+00,5.180472623183746350e+00,5.437366339065517806e+00,-2.090738098281306634e+00,
2.146930546827182651e-01,2.934224640435508791e-01,1.352009204104093198e+00,-4.102371669709864999e-01,1.091012699412789821e+01,6.680042428833669277e+00,
8.228179502897031483e+00,6.255970419674639516e+00,1.031960398270590673e+01,1.508438559249552924e+01,6.638597786239195386e+00,-4.703382915363669703e+00,
-7.459775527089484548e+00,-2.554008533009273663e+01,-9.643404673957565620e+00,-1.077283966279904170e+01,-3.987299198904840303e+00,4.141441017967639304e+00,
1.787971351230140371e+01,1.856898143893403486e+01,1.706212468625352585e+01,1.484319887521350445e+01,-5.558374549864470993e+00,1.430891930105817333e-01,
-2.283628131211461021e+00,-4.365861565041067038e+00,-3.371130566660001993e+00,-4.265052856495965550e+00,-4.188298116848433672e+00,1.034636845402807426e+00,
1.166999584575412108e+01,1.148431072083609905e+01,1.220295239844237400e+01,8.742846857782529568e+00,-3.252083574980410230e+00,1.248160430604941640e+00,
-4.767740726491823899e+00,2.830923680784762711e-02,-1.953733822650460139e+00,-6.407694996414381450e+00,-2.542463149278535450e+00,-4.653856910681721359e+00,
-2.646391879950327652e+00,-3.703795346249295850e+00,-7.942737165330107096e-01,-2.931232330788241303e+00,-2.045038581982448367e+00,-2.605712886486811986e+00,
-9.062330772826325820e-01,3.908799744832945677e+00,5.913408396788615740e+00,1.154184049360831388e+01,4.685367302100156728e+00,3.419592267510958905e+00,
1.061333410416076317e+00,1.066079361242058487e+00,1.774278594206227133e+00,1.618025334062536680e-01,5.090593233045691973e-02,1.018705545370656651e+01,
-6.685089470628594377e+00,1.349294482259659089e+00,-6.869437726418195389e+00,-7.173839374599959129e+00,-6.045928400276067372e+00,-6.295154365288171405e-01,
2.158398589233109455e+00,8.449784766330209251e+00,-9.960201301515926309e-01,6.231155372202468179e+00,3.461018296594521537e+00,1.463440143234242541e+00,
-3.291639979575500696e+00,-1.813023756742999204e+00,-3.407702752552019820e+00,-4.059376907276017299e+00,-1.976488794942703908e+00,-2.025657681258446807e+00,
6.975449227959997778e-01,-2.746767423267865382e+00,-2.393036726648279267e+00,-3.917950457498000638e+00,-4.468241889772980535e+00,-2.281808839053945714e+00,
2.633698008494755438e+00,1.296072785455977483e+00,2.294853240605485567e+00,2.912603216738750778e+00,1.937646004225250795e+00,2.447460174721845849e+00,
1.681395409376702688e+01,2.175660498408626253e+01,2.266567843678518557e+01,1.564614427993504897e+01,7.924511428700600213e+00,-8.908079152789193600e+00,
2.194686550842539496e+00,2.980158936603690911e+00,5.730019161374697578e-01,3.787182523912325571e+00,1.743381034963791709e+00,2.371994795903045627e+00,
3.029200155444354081e+01,-1.180581898709525603e+02,-8.698915703489717544e+01,-1.002565779368083980e+02,2.153477427759515450e+01,2.213611475347077260e+02,
-1.321532571809763912e+00,-3.401989160256800648e+00,-2.136096226020805844e+00,5.513466560415279938e-01,-1.738448567253140231e+00,-1.080412569033983594e+01,
-1.962745926814133401e+00,-1.962392001043200995e+00,-1.537528169423810320e+00,-8.375135663235113714e-01,-3.884913943013309279e+00,-4.156974973518269501e+00,
-3.275387854610268334e+01,1.358908859263766900e+01,-9.888498608798087730e+00,1.997817974766967097e+01,-2.342342965332054661e+01,-8.134805404394856509e+01,
-7.145500749732683232e+01,-2.317716023869806019e+00,2.237553052068030013e+01,-1.048398640782754221e+01,2.005336673970943906e+01,-1.775734884869020789e+02,
6.099139384921411278e+00,4.843664096213473158e+00,6.506182806078211200e+00,5.484254966145156729e+00,-5.099628748209596996e-01,-5.716101912786710759e-01,
4.619122664379938570e+00,4.979444238670851952e+00,5.843022640612029583e+00,5.585459208693131394e+00,5.249839730818414374e+00,-2.383225554555850056e+00,
-2.507792747901851804e+00,6.811449250942565037e+00,8.892122036537230656e+00,3.781854627891648057e+00,3.564664740072610805e+00,5.754172185439913711e+00,
9.438030651986320407e+00,-9.811955642396345212e+00,-8.031838959682103152e+00,6.456270248621143182e+00,4.606570784547736963e+01,1.054434215170636833e+02,
7.731972893967531490e+01,9.298844677714164675e+01,6.132970464371006614e+01,5.160895031532186294e+01,-3.587525625397835682e+01,-1.086108577682474703e+02,
3.752405181116914012e-01,1.928483336737800480e+00,3.080653077309277732e-01,1.615809493922378826e+00,1.641477209037544238e+00,1.546090393662451845e+01,
-1.148757675416626212e+00,1.597574974125689717e+00,-1.076998602225068408e-01,8.641392909116536458e-01,1.535505563580262844e+01,1.354669686509581794e+01,
4.479388798536893646e+00,3.633098374224756455e+00,2.075412572395693100e+00,1.857278392119918742e-01,3.205474194847929947e+00,7.563826883498505183e+00,
-5.690376057382068531e+00,-6.414960139021668617e+00,-6.778475345796135976e+00,-8.481786946830940366e+00,-9.821584262270356191e+00,3.962342808065378641e+00,
1.336249939242368967e+01,6.465516274821176523e+00,1.028304427873600702e+01,-2.437944851203198038e+00,2.356878125303851323e+00,-5.434052909376598794e-01,
1.004055585408012341e+01,-7.820741233851909158e+01,-8.678843399733793262e+01,-3.668990652299817867e+01,-3.928253122640603578e+01,1.626474857615781104e+02,
7.954352121066161629e+00,3.870035661562840623e-01,5.307367941782323406e+00,8.123684494242425780e-01,2.047005815198887912e-01,2.634831875303668802e+00,
-9.253844201993604912e+00,1.377125701798785151e+01,-8.470661225797169180e-01,1.195195704030515493e+01,2.492244087650218098e+00,5.713438642377602150e+01,
-1.312960885581205384e+00,-8.275289350939914190e-02,-1.788400210896749387e+00,-2.200280454602035363e+00,-3.289599634123210770e+00,-8.391364673290356180e+00,
2.640023773850993738e+00,2.966560274416766507e+00,2.586897320590839655e+00,2.066126476158351100e+00,1.987751551962372076e+00,4.599351289961131073e+00,
1.066538920014193509e-01,-3.359629389941350741e+00,-2.867161359098705731e+00,1.170341369051036834e-01,-4.023822254928424158e+00,-1.276984487382265954e+01,
5.152257913378735843e+00,4.227846342093948273e+00,5.916719073623413649e+00,6.758353694470709883e+00,2.393328801735606692e+00,-1.754919675248652666e+00,
-3.064367123641251300e+00,-2.374032672170312885e+00,-2.626652018520474474e+00,-2.677788007538937975e+00,-2.330462692877747877e+00,-2.828461445809942632e+00,
2.158016914003854581e+01,4.367870867370839072e+00,5.514705228463385822e+01,4.628580070159285498e+01,5.522312112951466645e+01,-1.710114953513125329e+02,
-2.076664294542207134e+00,-5.451182278062075781e+00,-2.058946847117129053e+00,-8.893938828427716548e-01,-2.544232514658969713e+00,-4.333270174156086618e+00,
1.768257028909112072e-01,4.214646293693875556e+00,1.271618409009824813e+00,3.802843741459933646e+00,9.421286150686393412e+00,1.667499290709098414e+00,
1.361306371033533225e+01,-1.693346835473236567e+01,2.607751553973042924e+00,-1.815993056883551171e+00,3.883623529191989121e+01,-1.951347760984322122e+02,
-2.685077550636613353e+00,-2.699363776100277779e+00,-5.357752568764758472e+00,-9.944715631182312610e-01,-1.370241538961236571e+00,-1.961760509064633728e+00,
-1.620711695951103204e+00,-2.324416672736658640e+00,4.308892792713720610e+00,-7.549673815468702642e-01,-8.358330681807819573e+00,-9.418136925251992864e+01,
1.206764336124763481e+01,4.089801483617688405e+01,5.652623799397002813e+01,7.108075080660506728e+01,3.744845485710679611e+01,-2.702012669680804038e+02,
6.723628736153628438e+00,1.598877515392732374e+00,1.378058284334874761e+00,4.243747546335492893e-01,6.652777809659824015e+00,1.065110011409925006e+00,
-1.188619357375891639e+01,-1.223558093383969059e+01,-8.102294673677890913e+00,2.919093838937685259e+00,1.410197530638492014e-01,-3.045899590215609631e+00,
-3.281623367168375438e+00,-3.142191977907942135e+00,-2.905420535369970914e+00,-1.441345376824712865e+00,-2.326744756107036238e+00,-2.555783242672674760e+00,
-3.656143842482732165e+00,-1.692036521842130936e+00,-2.878448974054818255e+00,-3.046118320369787469e+00,-2.201712659461807942e+00,-2.027424464251058822e+00,
-9.308218896648428053e-01,-1.025769130890737380e+01,-9.244454193934393160e+00,-6.624270383740779700e+00,2.389186366000425998e+00,-1.134201585523392453e+01,
8.105075725401839071e-01,-5.919626223188452663e+00,-5.659679069260420192e+00,-5.811500277319988861e+00,-1.561658862119123414e+00,-3.879754838295269348e+00,
-1.612371734322329553e-01,2.374008866741724511e+00,7.504318363270046088e-02,-5.411452268415157807e-01,1.262486959527300456e+01,1.118151703264992136e+01,
2.270686569359844142e+00,1.521219408103247961e+00,2.843825961458214202e+00,3.160767239574448162e+00,2.130259627614297546e+00,2.699534161819546085e+00,
5.595567202523356043e-01,1.623206147523041265e+00,-6.025273313101252803e+00,-1.415497098810789289e+01,-4.366340050980628718e+00,-1.921648648928215408e+00,
-2.229233247024387410e+00,-1.346698062852695221e+00,-1.907087490366075500e+00,-2.721213023377266893e+00,-1.341795665244977176e+00,-2.214308810141740747e+00,
2.612525514134544125e+01,1.280404298889009773e+01,2.537642122881683804e+01,3.333097883973131559e+01,5.681050503409228014e+00,-1.063635937255458863e+01,
4.799643723657441186e+00,-8.908246912349410129e-01,-3.786878485812455342e+00,-1.675010919969781131e+00,2.099861615322553021e+01,8.616667027653761579e+01,
-2.469847132127636513e+00,-1.990298547465272794e+00,-3.029754350344623592e+00,-3.720979031882124755e+00,-2.079034981316240760e+00,-3.708201713236602082e+00,
-4.230136748890447329e+00,-8.568297866395319318e+00,-7.908983761338058471e+00,-7.598191016022472155e+00,-3.488433094510701160e+00,2.780263822785719263e+00,
-2.656919774033872361e+00,-1.256064861378205499e+00,-3.889194048349031263e+00,-3.459204995886512979e+00,-1.752697709031403317e+00,-2.415981051071980801e+00,
3.087523516464655060e+00,3.601187575544918751e+00,2.930249933969693465e+00,2.618741316022315413e+00,1.609284117187084640e+00,1.889626227842384543e+00,
3.267647287350140317e+00,8.570148251077198687e-01,3.542395456391354891e+00,1.608955415247262100e-01,1.128553932706717866e+01,8.990673205529821743e+00,
3.051926259754302428e+00,4.115669420716600579e-01,4.524274896005167079e+00,4.106849789641958459e+00,1.252698852434621424e+00,2.644654036332013458e+00,
-3.108101281005261285e+00,-3.001658963527258361e+00,-2.900665768245158205e+00,-3.438984047203592187e+00,-1.290964848696680933e+00,-2.345064930649432444e+00,
4.400923092471579423e+00,1.459879871219140313e+00,4.212579845529145217e+00,2.259558911726851971e+00,9.552251824148777493e-01,9.761355127473223536e-01,
7.019011962156798745e+01,6.192298594077023921e+01,6.471946725552221835e+01,6.761323919606304855e+01,-4.781379742299519364e+01,-1.198234934639113014e+01,
