3.044791651309019631e+00,7.738952129029966542e+00,2.139303562052193186e+00,1.938026339746884474e+01,4.381205378651890747e+00,1.006237680077732932e+01,
-5.310514044157800484e+00,-6.479743446527082007e-01,-3.328476798446291074e+00,-1.073298792535423818e+00,-2.817906754176266126e+00,-1.618490272264049068e+01,
5.101544325790749568e+00,3.008735850493917674e+00,5.932209913681289137e+00,8.601911509454689408e+00,5.887061305284247759e+00,-2.683795667570747945e+00,
-3.572961978536492111e+00,-4.297509305456337358e+00,-3.084519330720551178e+00,5.651104239772198473e-02,-2.226511166329091740e+00,-2.581081121350736307e+00,
-8.938170166262443317e+00,1.971357689904493071e+01,-2.825600268256745906e+01,-2.001508462184500559e+01,-2.947409312924196811e+01,1.505770872563985563e+02,
4.758579620576063540e+00,8.356405311042799378e-01,-1.700672505575929971e+00,9.461244696392527853e-01,1.017397305760794879e+01,2.440991430514264593e+00,
-5.268372017284301734e+01,-5.270591872930072697e+01,-6.124781482062680737e+01,-5.441787015222912771e+01,1.061040394857996105e+01,1.158477595662116073e+02,
8.063499238262166102e+01,6.505817585125745950e+01,6.239271308623248302e+01,6.850287665076427857e+01,-4.479301595737931052e+01,-2.128774449765738375e+00,
6.298598782692617704e+01,5.670694226898588397e+01,5.905540729496702568e+01,6.257593685609442957e+01,-3.122303307692502372e+01,-2.599021716542035421e+01,
1.084060715261657259e+00,-3.337242507043850281e+00,-7.938086451051163950e-01,7.742143454443326522e-01,-3.008777024257254240e+01,-1.120820649961255100e+01,
1.374555277566559708e+00,3.064806130413903151e+00,2.213797513881790469e+00,1.995103450142851287e+00,8.093462409918401601e-01,2.509610555513761998e+00,
4.598639634860740344e+00,4.493235925605212344e+00,-9.535213042620322099e+00,-4.390201219920860098e-01,3.588652024851451472e+01,-2.122442403618031790e+02,
-4.263953973162782241e+00,-3.938678278496452467e+00,-3.756871888856200492e+00,-3.209012061906741931e+00,1.660863292198398455e-01,-5.012858534874876426e+00,
-1.561315447097610720e+00,3.247416867978842880e+00,4.131139750472477168e+00,7.365728404402489105e+00,6.763719232925903491e+00,5.163241276148875514e+00,
-4.400192588479749034e+00,-2.874965790516860853e+00,-2.486811599276410156e+00,-1.222003116178796089e+00,-2.482457767401629489e+00,-3.165521574462655696e+00,
5.013895530488056806e+00,5.324008328072370233e+00,7.156927073836531150e+00,7.384897941538614674e+00,-9.152371987730472114e-01,4.937887637695457244e+00,
-5.744504977711269333e+00,-2.247622945651861937e+00,3.578915774123784921e+00,-2.153678026238998289e+00,-2.614572373897292579e+00,-7.343238959603534788e+00,
-1.542313967597869206e-01,1.793222502121164796e-01,-2.687182834881800986e+00,-5.890407862325737209e-01,-6.024365576966947522e+00,-8.633414738057501481e+00,
-6.925609203919555590e+00,4.295071409805991003e+00,-6.703067564050612326e+00,-2.182512952706235865e+01,-4.034328690082453761e+01,1.706980553940270795e+02,
2.934204988495524358e+00,1.182470683376477316e+00,3.479629822783594228e+00,3.754473722320466944e+00,1.898689370176704250e+00,2.697461644752020327e+00,
-9.555075265698926401e+00,-4.320812149116287415e+00,-9.743322778965678665e+00,-7.146408880888429849e+00,2.205437076306725253e+00,-6.864827811023325843e+00,
2.638938141987078101e+00,6.229895176033353188e-01,2.369198949421182032e+00,1.737024418221488675e+00,4.150591703222786144e+00,3.890342412981486753e+00,
-8.060876791164471200e+00,-6.555939563082298527e+00,-6.692821152685073827e+00,-6.010656437902736293e+00,-1.094665690969625960e+00,2.066288727599467023e+00,
-2.882104134109059856e+00,-6.212702834483539993e-01,-4.369672310864049614e+00,-2.096386330643555951e+00,-3.825288530791796093e-01,-2.582196243198007668e+00,
-1.726723203987284183e+00,5.798196247496210098e+00,7.137038530592687557e+00,6.757151937355224014e+00,3.822883144429745972e+00,5.316855659306076731e+00,
-2.567650032787958114e-01,1.506771861178889949e-01,1.164059700990021540e+00,8.956666620968167791e-01,6.172196628947166808e+00,4.860656996089334214e+00,
-2.480158119943597139e+00,-4.803258341546681048e-02,-5.847131296240827503e+00,1.821172795720764404e+00,-2.017782470532407224e+00,-2.093829199961205845e+01,
-9.498629456013992112e+00,-3.938444134585616752e+01,-3.658938253119690387e+01,-3.890080963623340438e+01,-2.364502843461585968e+01,1.107797487815188902e+02,
-4.620766710783635034e+01,-1.070173024292365405e+01,3.084671978403482129e+01,1.127277223264625050e+01,-1.749768400551328540e+01,-1.650123360958617127e+02,
5.166135133792516321e+00,-7.697678608228193387e-01,3.078085990103432756e+00,5.717261239169015852e+00,7.949339631118502503e+00,-2.538704570061364851e+00,
2.596229794148884107e+00,3.293641504735107972e+00,2.383411032485850178e+00,3.141943234878734614e+00,1.668523920913490555e+00,2.515402722248176737e+00,
5.106488102224958681e+01,-7.113388075096725061e+01,-7.037624491984254860e+01,-4.901411278549026207e+01,-3.479024096992755943e+01,1.709810749269958023e+02,
1.244081445517680518e+00,2.012412215015696670e+00,4.032655348351940283e+00,2.449149701843460925e+00,1.986489512163122306e+00,2.078383891407977746e+00,
1.221511669497538310e+00,-4.452764185020648746e+00,-4.801547160400749803e+00,-3.754617168281135342e+00,-8.381420953394538298e-01,-1.214256750687262709e+01,
-3.792004583861511513e+00,-1.260516166338532251e+00,-3.507123337539959973e+00,-2.377013484723316861e+00,-1.586565368841361900e+00,-3.132453897409968047e+00,
-4.312029660375941376e+00,-1.754858548139265562e+00,-2.787484879463213439e+00,-2.997321649909659769e+00,-5.779946111489646654e+00,1.820528988975835150e+00,
-6.386316295138757537e-01,-2.633629903409538731e+00,-3.531342881047516147e-01,1.861158061956668108e-01,-4.420771374614554716e+00,-8.129556643825251783e+00,
9.335889807969923737e+00,-9.955723341913808255e+00,1.112233859831464855e+01,-1.651218884734078785e+01,4.054112457743657671e+01,-1.896840715280243899e+02,
-3.821874587511440158e-01,-3.385850224936651109e+00,7.622114022877634065e-01,-9.422562977303067910e+00,-6.850477593646264296e+00,-1.848627763746786101e+01,
-6.213415125215863144e-01,1.471000090964458273e+00,-4.001061360433074143e-01,1.824160095589079322e+00,1.048409673851513801e+01,1.757037900165073552e+01,
-1.346062531723408062e+00,1.215182027004467535e+00,3.554160679813826995e+00,2.495017101154653361e+00,8.766749603827234338e+00,8.365169069760172604e+00,
2.928476823052651667e+00,3.486468914122779594e+00,2.729870677341389218e+00,2.577944965382760856e+00,1.910516142861837352e+00,2.186875108647440058e+00,
1.249972725593656975e+01,1.519686602907981410e+01,1.647954377779733903e+01,2.070137838037693712e+01,4.472937941463829503e+00,-6.921126563603860582e+00,
-7.332622801740725782e-01,-2.070286127938720355e+00,-1.569251316312873623e+00,-8.519630520538250540e-01,-1.083978312976901215e+01,-2.388946711805809642e+00,
2.288940563804830575e+00,4.428779289438588562e-01,3.743991275320288192e+00,2.996682243989818861e+00,1.834518527208234051e+00,2.462082257238101590e+00,
6.361116927363095641e+01,5.850674401995214424e+01,5.591855657584920181e+01,5.713497481637573117e+01,-6.431928413139777945e+01,-1.142009269176845976e+00,
-4.746710910526631189e+00,-4.649966275111622416e+00,-5.459634732174071914e+00,-4.939505367157253524e+00,9.792966309555237170e-02,-1.081146462534762070e-01,
5.393039801062065486e+00,1.890393416593217468e+00,2.365741871521382045e+00,2.365675774592863601e+00,1.413564399611136224e+00,2.034101446257719381e+00,
-2.679100611814511090e+00,9.785354950466945922e+00,-1.740922153655613513e+01,-5.216698803161424536e+00,-3.791848524693079536e+00,-9.845468933306297288e+01,
1.899291981393456297e+01,1.603865512899836077e+01,2.171692980036122123e+01,2.112198539476340997e+01,1.853708000079458884e+01,-1.125759051024932944e+01,
-1.174511988677869034e+01,-1.148274436695484901e+01,-1.122849933347485418e+01,-1.152932667561977276e+01,3.957293683868301493e+00,-6.468628121165437506e+00,
9.125874786185125487e+00,1.845324838864366512e+01,7.445417898638026166e+00,1.565698939996762640e+01,1.197711261955236850e+01,-6.853095009789702985e+00,
-1.539884665454538570e+01,6.894619444748145476e+00,-1.181192555818842393e+01,2.136141921424488643e+01,-4.545025301675367757e+01,2.232522301639575346e+02,
-6.303241514625387509e+00,-1.203668695783098315e+02,-6.287195024189313131e+01,-5.856290808151140226e+01,-9.287783091033926297e+00,1.618178860424376069e+02,
-5.647566543440956544e+00,-2.463146535169516760e+00,-4.444623480910308899e+00,-6.599328927315771587e+00,-6.595916484822167192e+00,2.390048849474099235e+00,
-6.502898872581792666e+00,-8.341366536533442400e+00,-9.121719676988437442e+00,-4.744825720699590299e+00,9.674862321879382776e-01,-1.076293675828428276e+00,
-4.373508595664634235e+00,-3.735344469472555051e+00,-3.780402325259785368e+00,-3.715083120476772027e+00,-2.636861230889206098e+00,1.172760735914164965e+00,
-1.422826048901189644e+01,-3.965054405104197599e+00,-7.772693016313358072e+00,-1.621964228056036461e+01,-2.592933289653648554e+00,4.063628429141173726e+00,
-6.118774873809403658e+00,-1.740083193590686150e+01,-1.535393626383558363e+01,-1.941697203589774645e+01,-3.324016814407973808e+00,-1.345706287368160226e+01,
2.948055771314320950e+00,2.108353109813871029e+00,1.841621881815419082e+00,3.569340180782515137e+00,1.529455682859764742e+00,2.322536635879325129e+00,
-1.908468104572397017e+00,-6.296274960508909668e-01,-1.719430939211966658e+00,-1.682779334059879117e+00,-7.604237038617935873e-01,-9.113617926737068942e+00,
2.971685820322795824e+00,6.212001708609924400e+00,-3.528301601451143910e+00,2.009645273335925186e-01,-1.446016922912387370e+00,6.266851733757886933e+01,
4.215917496389812058e+00,3.153541159131270533e+00,3.072074182487387173e+00,2.565940312395849077e+00,5.483392155460808937e+00,-1.673656093896049635e+00,
-7.073568765429474325e+00,-7.266872895530761767e+00,-6.663536446348111042e+00,-6.785743163882692386e+00,-4.808340628548224416e+00,3.007658668948233860e+00,
-2.431678240342272979e+00,-1.027358534350817587e+00,-4.327134244475068670e+00,-7.061587288231299553e+00,-4.378730090315790413e+00,1.582499520327532494e+00,
1.156424423770356646e-01,1.200667427621890493e+00,-5.928232200695719989e-01,-2.638055532710534279e-01,1.950292128319566132e+01,1.962693300399184437e+01,
1.935131183787684561e+00,2.921097582211067856e+00,1.934368889676687298e+00,2.448102328767836955e+00,1.823341461003210373e+00,3.184504121126050524e+00,
1.328138851035195689e+00,5.584384770045060620e+00,8.630379579271324486e-01,3.285119690567194883e+00,1.184476929807396850e+01,1.521799541094932540e-01,
-2.855838922625488863e+01,-2.966279281500868592e+01,-2.809869694612014612e+01,-3.317959787716432629e+01,-5.212740896205943386e+01,2.842744682054366478e+01,
-1.164159122505474597e+00,5.450415814581721641e-01,-1.066089222899970990e+00,1.176201956166743390e+00,-1.144221573594694119e+00,-5.017209882944935373e+01,
-6.901325530551642995e-01,-1.133303519180792973e+00,-1.996880541788926267e-01,-2.375651429396584691e-01,-8.850821602539170385e+00,-6.585489156132984689e+00,
1.204427102340909883e+00,2.112808221464668179e+01,3.056965993916317714e+01,3.708990679257320977e+01,2.076773220557139155e+01,-1.721115190421784575e+02,
6.326155904428727439e+00,1.080082125569975204e+01,-6.082202544735798355e+00,-2.094765287079836114e-02,1.486623158281836510e+01,6.906418061524902896e+00,
7.762805404695507150e+01,4.155719361274686108e+00,-1.982370137631208706e+01,4.537625475375395290e+00,-3.794530621151368877e+01,1.911228852219844327e+02,
3.132861818349055860e-01,1.082557844560443705e+01,2.556312122573989765e+00,5.485271513587838932e+00,7.772314798537441227e+00,-1.589538758112253314e+00,
-6.914735716424440071e+00,-3.701345085745257446e+00,-4.754942023930917472e+00,-7.498585950187643512e+00,-7.476608894655980109e+00,3.043715401838330781e+00,
7.331232888673079628e+01,5.146842457500770962e+01,6.612928771462344812e+00,1.403927801691870769e+01,-1.039015248355518537e+02,8.340027132579868407e+01,
4.701465234380769687e+00,2.117036691268422643e+00,2.052492536911203480e+00,2.692043348703392791e+00,5.914290096577914824e+00,5.572349351932260220e+00,
-2.334798123393021640e+01,-3.575184551414178458e+01,-3.065791927100847403e+01,-3.861292560868954382e+01,-1.434010053030846699e+01,1.571838344490453387e+01,
6.843935908233218512e+00,3.502514730640609031e+00,7.258136963866035352e+00,1.445688887364834763e+01,1.377705745846025920e+01,6.264453388345767593e+00,
2.737988356500660192e-01,-1.346736337000533190e+00,6.165470921349784916e+00,-2.789489238471422716e+00,7.347406577703849528e+00,6.094000910085363643e+01,
1.878752211073233269e+01,9.075998097739494952e+00,1.937674789927046248e+01,2.595885124056009374e+01,1.015616002382553518e+01,-9.055678384162932915e+00,
4.913192235559034060e+00,5.468977083861487287e+00,4.181648492978471410e+00,3.593862271449353774e+00,-2.043709159928806252e-01,1.508435463532273424e+00,
-2.393522801671116085e+00,-2.937763661428841044e-01,-4.614636236996586538e-01,3.810430635374569275e-01,-8.087119268942272399e+00,-7.489137803665672166e+00,
4.342368779776018428e+00,4.107676907262765909e+00,4.071076262420493919e+00,3.806633379818257445e+00,1.868315109104294436e+00,-1.064959523940074870e+00,
-1.407007172223844549e+01,-1.108743263298388904e+01,-1.616084551336448527e+01,-2.194868069629180951e+01,-9.091651396142598429e+00,7.657786347631053481e+00,
7.433307842890931383e+00,-6.326351742426601366e-01,2.312689474449927118e+00,-3.107612633275345981e+00,5.032886219737660483e+00,3.971249237942924992e+01,
-1.760086465801215860e+00,-5.517871101242816101e-01,-1.416202008365133436e+00,-1.481811639889478949e+00,-5.247678972092919558e+00,-3.773526783646902860e+00,
-1.814506946430373446e+01,-1.472422532918043814e+01,-2.449171860829994429e+01,-4.849119869395799753e+01,-8.378098155300135375e+01,5.049619594604779849e+01,
-2.530674474683924924e+00,4.134123527756864980e-01,-2.786220282898236977e+00,-3.549202867813324058e+00,-4.002086910919818052e+00,-6.862174039700015271e+00,
4.385565336235608846e+00,1.805270982031204952e+00,4.287354331516950445e+00,3.279207010518772947e+00,2.461473678696268763e+00,-1.047549898412772462e+00,
-2.053238606051813075e+00,-3.696065876442534037e+00,-2.565018198764486446e+00,-1.782324291577412900e+00,-1.081388068488256415e+00,-2.169079192179330651e+00,
-3.433477019892742454e+00,-1.573768914395024643e+00,-4.089308490669654184e+00,-1.187688010453302967e+00,-2.000437808645490811e+00,-2.971305856423212433e+00,
5.440786717117750726e+01,3.013782651778398147e+01,5.243473281557694321e+01,7.107607163136803763e+01,2.301294653692229986e+01,-3.781154976888155517e+01,
3.236705543669284868e+00,4.115412480909513171e+00,3.057100793211608103e+00,2.184114622177319109e+00,1.570391636299759419e+00,1.599202473018565218e+00,
-2.789561685229820398e+00,-1.444303142457039835e+00,-1.666428321301299365e+00,-2.102585006296762149e+00,-5.954396577486282816e+00,-2.018787362694248078e+00,
-8.084031887658247229e+01,-2.720383050287138360e+01,-6.528046511058954593e+01,-1.873394543731129858e+01,1.093655058449140398e+02,1.267818038808342180e+02,
7.586572900604645307e-03,-2.295326839828182308e+00,9.156932471573737686e-01,-1.313518809973914347e+00,-6.580282370925968571e+00,-8.949316103855510462e+00,
-4.102746906523621284e+00,-2.199462624982184256e+00,-3.241738233651313639e+00,-2.633397653115616244e+00,-1.737762377880175180e+00,-2.963357371170234345e+00,
-4.975644635098577240e+00,-5.770161937423472942e+00,-6.049274643344140223e+00,-6.507361536256436096e+00,1.075271501252338613e+00,-5.517361636105381884e+00,
5.809923820725535482e-01,-2.540418266119301105e+00,-4.076993620622929804e+00,-8.446298664224471509e+00,-2.398275010589466572e+00,-1.720559904567240617e+00,
2.643731540746381725e+00,3.126549992739029893e+00,2.813615632009220935e+00,2.739508408532234984e+00,1.844742861022115044e+00,2.352938930275706220e+00,
-3.362517807935743619e+00,6.227941267423518390e+00,-9.182879823136850916e+00,-5.805156359011385270e+00,-2.010826454004748243e+00,-1.810550485547598143e+01,
4.881282604450345453e+00,-1.032531006172722599e+01,5.419727053370917425e+00,1.924543926982773101e+01,6.547732900476685436e-02,3.833912500602951212e+01,
-3.971625630242002103e+01,-4.825462917280233199e+01,-3.691315986179286313e+01,-5.019433439695714583e+01,-2.461883708045080965e+01,2.657853041529428140e+01,
-1.778179386470599255e+00,-2.007100124709834343e+00,-5.236121534841445824e-01,-3.439284309049693567e-02,-1.041266409563727535e+01,-3.571674257106827177e+00,
-1.739391210604869231e-01,5.265310172730106597e-01,-3.683818530910578648e-01,-4.640154520275763805e-01,-1.335666777303139519e+01,-1.438788133820202653e+01,
8.496982735583413771e-01,1.163631805233793053e-02,-3.403523869833852689e-01,2.366798839664446596e+00,9.163458909762656646e+00,6.118510061174242232e+00,
-1.964807426384961309e+00,-3.796679415020668191e+00,-6.660752075182275966e+00,-7.529927511864547007e+00,-5.037665085210885074e+00,2.160248887028515696e+00,
-1.787368415303026925e+00,-2.835402103814847141e+00,-2.177655888011534646e+00,-3.232111880059556075e+00,-2.561469892618208455e+00,-3.517932039640141895e+00,
7.943363614298130093e-01,1.826123668040844361e+00,1.927357641252180231e+00,2.654681068672305688e+00,8.388728937662516927e+00,7.705775378601968484e+00,
-3.199359136533059100e+01,-3.095056782027903353e+01,-2.982845527924494533e+01,-3.940504121309813712e+01,-2.283811757119961072e+01,1.794094498157952344e+01,
2.628388606574759923e+00,1.060522890381665029e+01,-1.867695867705980450e-01,-3.429542517103116306e-01,-1.391366618198903060e+00,3.768018908302948944e+01,
5.356386074301259015e+00,4.881441510861833422e+00,7.415081275116149229e+00,9.342746599958880793e+00,7.843166941320091290e+00,-3.578526029156314348e+00,
-2.883804731688626166e+00,-3.382727113607011393e+00,-3.098423827825925514e+00,-2.044697158026158590e+00,-1.847855769253776703e+00,-2.774454722446119792e+00,
-4.164847571032022699e+01,-6.666599058186653437e+00,6.859596856271973131e+00,-2.491270787716751656e+01,2.055379655561574381e+01,-1.805590038727725641e+02,
-3.519984967588911218e+00,5.577194492959186789e+01,3.732230291290125024e+01,-3.028478478264084828e+01,1.448881267774501964e+02,-1.977242039689230069e+02,
2.491041788894049258e+00,3.920115226462506985e+00,2.780101279444917139e+00,2.477727874534565888e+00,1.733867147281194177e+00,2.384277670108922109e+00,
-5.009178617610325901e+00,-8.419442022172905382e+00,-3.448869835252221239e-01,-5.476584508982041299e+00,-2.286679628812324339e+01,-1.653870782425329145e+00,
-2.188859175305470028e+00,1.307705835508835257e+01,5.614930728548998218e+00,7.074917565198948211e+00,2.782918839797738908e+00,1.977066102975307826e+00,
-1.973454199026291267e+00,-6.876454638454571722e+00,-7.218945167293447263e+00,-4.679379040196805839e+00,5.944642945124885003e-01,-9.936544618052057132e+00,
-4.266148058533940080e-01,-8.901776849088431476e+00,-3.056519281419197931e+00,-3.310723777166486581e+00,-1.566727753807834356e+00,6.608963018740398807e-03,
-3.461162244322671455e+01,1.059957054631952644e+02,7.082843710272547355e+01,7.551681027311090588e+01,-2.415364325261117884e+01,-2.323273996354518260e+02,
-5.723552823822986468e+00,-7.786025589488338028e+01,-5.927126594005749638e+01,-5.094969926571921093e+01,4.741300969305626722e+00,1.480762331900686775e+02,
-5.077072994787129367e+00,-1.294763779381169044e+00,-2.145686744927548517e+00,-2.915508785081925680e+00,-1.412855436461836645e+00,-1.683030512873898044e+00,
-2.782046916043352525e+00,-2.468023321552637483e+00,-2.971872142173953790e+00,-2.531253407415777090e+00,-1.979478260676187373e+00,-2.754783380326421671e+00,
4.837758264322943980e+00,5.660455101558509838e+00,4.609166067072366424e+00,3.974800848618476490e+00,-5.132636935352944407e-01,6.018738087800872272e+00,
2.880670944103674636e+00,2.221937878280838330e+00,1.539564059476500546e+00,2.866381516224367321e+00,1.606023608002524306e+00,2.809652941719924080e+00,
-1.442325414284090712e+01,8.747394331273096668e+01,7.261565837273195712e+01,5.973417138137255478e+01,3.943983143053445417e+01,-1.347707602848830106e+02,
6.715313356608379536e+01,9.542914682121330827e+01,7.984141982961770623e+01,7.878126396812859866e+01,-8.378922943198858775e+01,-4.368866875254576065e+00,
9.874037474173051887e-01,3.013338293321544459e+00,6.417925588117979752e-01,1.641564899994596871e+00,4.197987910159259428e+00,4.268368957499847127e+00,
4.422354979121934093e+00,3.943903570394216906e+00,5.639381285340577143e+00,5.181232988620482871e+00,5.437057511800081677e+00,-2.093207904030925715e+00,
2.019154932515848933e-01,2.806139911528578446e-01,1.342278660901586429e+00,-4.238927977416088733e-01,1.090610602398140117e+01,6.668745631891897396e+00,
8.227750812698841898e+00,6.255534471636432059e+00,1.031915810149493673e+01,1.508396947989971970e+01,6.637723212869411249e+00,-4.707360772833282248e+00,
-7.459889063026099443e+00,-2.554008808522382168e+01,-9.643521654550220035e+00,-1.077295664338227965e+01,-3.987518993080013896e+00,4.140734654981467422e+00,
1.787716448479567077e+01,1.856904026748989622e+01,1.706218362302973546e+01,1.484325949928646260e+01,-5.564142644971924234e+00,1.422859093441745659e-01,
-2.252163795837122340e+00,-4.334380192638966456e+00,-3.339647982263327375e+00,-4.234053567487808145e+00,-4.170039492765240219e+00,1.082018972936115153e+00,
1.166802661155384868e+01,1.148518579716217047e+01,1.220383055110787573e+01,8.743746761916570520e+00,-3.251414822446490049e+00,1.248498483901270939e+00,
-4.761273913884610742e+00,3.480016699897806043e-02,-1.947237258851432173e+00,-6.401217607954852618e+00,-2.532622027136595566e+00,-4.648353909582271903e+00,
-2.615068817962258318e+00,-3.672417356686520140e+00,-7.628867787942238410e-01,-2.899958488941143830e+00,-2.004149937501456424e+00,-2.576586251035826169e+00,
-9.062201823490111385e-01,3.908813310226999072e+00,5.913421961516646341e+00,1.154185410999460792e+01,4.685381071511049100e+00,3.419607479774694259e+00,
1.535100367908460939e+00,1.570230337062763937e+00,2.281088440081935786e+00,6.905258127613865815e-01,6.783018696521881941e-01,1.092301858303288675e+01,
-6.685397597750036169e+00,1.348741753391243581e+00,-6.869743516583048049e+00,-7.174142673772378132e+00,-6.046202733592428658e+00,-6.300034742407979449e-01,
2.162400549049077636e+00,8.453666904949788119e+00,-9.920187788796579476e-01,6.235007939196232307e+00,3.464857039297303931e+00,1.467805161050294682e+00,
-3.245634408182300756e+00,-1.766930527349508173e+00,-3.361594711743419062e+00,-4.013475715142896583e+00,-1.917652191571101783e+00,-1.981553050491764001e+00,
5.656970816864087537e-01,-2.879694672701768265e+00,-2.525850811771189530e+00,-4.050258051889999322e+00,-4.572138337712628342e+00,-2.437623668681769828e+00,
2.630578932317817031e+00,1.292935482301297512e+00,2.291709799648028678e+00,2.909449003503204345e+00,1.932334345147593613e+00,2.445816126285755843e+00,
1.681352090264643095e+01,2.175616265393729876e+01,2.266522669113654587e+01,1.564568795255041245e+01,7.923624060656158541e+00,-8.912231225857906836e+00,
2.201799530948778560e+00,2.987272499428118788e+00,5.801113288689557779e-01,3.794244231961770630e+00,1.751266827319543085e+00,2.379932687789154677e+00,
3.166255394019770364e+01,-9.248718845431774582e+01,-7.279940457141262300e+01,-7.441848653443943817e+01,-1.108643846080319051e+01,2.358358836131421299e+02,
-1.288577505180115379e+00,-3.368599362547231024e+00,-2.102608102648876987e+00,5.850395020029947046e-01,-1.651136847467583824e+00,-1.078242272469247709e+01,
-1.934894177430443563e+00,-1.934609334379488343e+00,-1.509776941196033118e+00,-8.098918730922045617e-01,-3.858548378564245152e+00,-4.127772396274819400e+00,
-3.275387972339314757e+01,1.358872902635141067e+01,-9.888867808792790370e+00,1.997776252388986862e+01,-2.342345576597929480e+01,-8.134817101112282955e+01,
-1.828180241085166458e+01,3.802545476221710175e+01,5.965329853359489931e+01,3.695432065138477640e+01,1.370332927189340566e+01,-1.609339687508471854e+02,
6.099094065422081989e+00,4.845415261688596154e+00,6.507954708144819023e+00,5.486093107991983686e+00,-5.077182146228476078e-01,-5.677571553664676474e-01,
4.618810508138453841e+00,4.979123353436046173e+00,5.842707077099521307e+00,5.585129506797258614e+00,5.249076966335533001e+00,-2.386794570014218575e+00,
-2.498936201573428217e+00,6.812787561069748143e+00,8.893339301510435391e+00,3.783143491046789819e+00,3.566681427036076268e+00,5.754870255172510163e+00,
9.438441748633110251e+00,-9.811544545749439905e+00,-8.031427863035197845e+00,6.456271719618978722e+00,4.606576550161216232e+01,1.054434344942760902e+02,
7.455397139492735903e+01,8.014732500525494174e+01,5.060326669640794961e+01,6.408622620856336027e+01,-4.883735021270307186e+01,-1.033839271632183880e+02,
3.770097152205096891e-01,1.929783955409728247e+00,3.092651432835811787e-01,1.616562707162460866e+00,1.588561626379591862e+00,1.544858529625704691e+01,
-1.148752091970673739e+00,1.597574805404957665e+00,-1.076915850529610724e-01,8.641471295827349852e-01,1.535505578445031460e+01,1.354669958327657042e+01,
4.476619550395295022e+00,3.630314405208340922e+00,2.072625186730432389e+00,1.829432234056663220e-01,3.200643578280485624e+00,7.561726789759557477e+00,
-5.689935218307056175e+00,-6.414511297627814024e+00,-6.778017767853131481e+00,-8.481324121189242504e+00,-9.820678826765650626e+00,3.966561144376517412e+00,
1.336248991631331684e+01,6.465506793742974878e+00,1.028303480671895720e+01,-2.437946146579080597e+00,2.356869605269598100e+00,-5.434129063156269979e-01,
-2.278487189529858625e+00,-9.798876817602500466e+01,-5.562270091586499632e+01,-4.316276460569586959e+01,-1.445466718503428716e+01,1.414839894652903922e+02,
8.005009804941845886e+00,4.381869646554011344e-01,5.358709301328503649e+00,8.637003984637999787e-01,2.324083764734121982e-01,2.672596531580217150e+00,
-9.232738818591140983e+00,1.377401445296141702e+01,-8.445262929889112424e-01,1.195448803719456343e+01,2.496529217329779282e+00,5.713587644482355188e+01,
-1.279753340118598537e+00,-4.937949820886389923e-02,-1.755002384141040706e+00,-2.166823767140277912e+00,-3.223833124429432040e+00,-8.358716600608286029e+00,
2.596962711485014452e+00,2.923296269623025800e+00,2.543588218434944981e+00,2.022879618757898346e+00,1.916084753713928057e+00,4.565350959144298670e+00,
1.075655097105008839e-01,-3.358707440045568315e+00,-2.866237212117733080e+00,1.179625251753982640e-01,-4.021586636249967484e+00,-1.276915932749459337e+01,
5.151959856220964973e+00,4.227528556510175228e+00,5.916453704504077926e+00,6.758150925820411103e+00,2.392283992868343478e+00,-1.760064083999389961e+00,
-3.019579385347884948e+00,-2.329180668909506036e+00,-2.581791248523354287e+00,-2.633114865212434541e+00,-2.273794122837518472e+00,-2.785818155732857626e+00,
3.229924212853104848e+01,3.125475180238067807e+01,5.564347565634401604e+01,4.840415489295832430e+01,1.624399778411211770e+01,-1.468616914421081674e+02,
-2.030365332638748299e+00,-5.404757729202232852e+00,-2.012498169025718209e+00,-8.430897294655022023e-01,-2.477723409765777873e+00,-4.292547162894635449e+00,
1.928131166003929642e-01,4.230637190694415573e+00,1.287601322791203318e+00,3.818745700278969757e+00,9.429176563105832187e+00,1.691024217778859251e+00,
1.355411598397286177e+01,-1.661945314008274366e+01,2.940747814324668585e+00,-1.509151731907742322e+00,3.795713563738524243e+01,-1.953086557479622343e+02,
-2.651432188836652326e+00,-2.665603931592996911e+00,-5.323967818565485288e+00,-9.607870086086239825e-01,-1.321560198900239014e+00,-1.932285875087994320e+00,
-1.620711787319446984e+00,-2.324416681317413857e+00,4.308892684293279984e+00,-7.549674899673423090e-01,-8.358330697013609978e+00,-9.418136925594150455e+01,
1.057049272791226002e+01,3.492610577583153741e+01,6.248930000709987809e+01,6.567843246872826057e+01,4.024095373266278131e+01,-2.520290326984597584e+02,
6.687183518486341072e+00,1.562429193251295922e+00,1.341625778058676444e+00,3.881338983574176282e-01,6.632254939629848245e+00,1.013372438021930888e+00,
-1.188619280516179089e+01,-1.223558004089782436e+01,-8.102293737173232202e+00,2.919094595603529463e+00,1.409738124949827531e-01,-3.045897230075789608e+00,
-3.238285652204761167e+00,-3.098802379291463183e+00,-2.862025009555129618e+00,-1.398139386987968358e+00,-2.273529876501092506e+00,-2.513772526707645838e+00,
-3.614119063826265243e+00,-1.649966004234451056e+00,-2.836374387783071604e+00,-3.004240972981839342e+00,-2.151737007176172778e+00,-1.985689357311415604e+00,
-2.262837846468275682e+00,-1.008589450780419305e+01,-9.069813954067909023e+00,-6.447887895436251071e+00,8.811033403062231706e-01,-9.576646970738213582e+00,
8.120699713202106373e-01,-5.920947741603412418e+00,-5.661002303932749058e+00,-5.812821148967878493e+00,-1.556706153465768239e+00,-3.879786456111026016e+00,
-1.678102016310780709e-01,2.373933470727179973e+00,6.872714523098036321e-02,-5.472935365826129273e-01,1.262455247473391040e+01,1.118024299392636678e+01,
2.240756089722718336e+00,1.491243601219499837e+00,2.813843648236088235e+00,3.130895070565746785e+00,2.091804901335035716e+00,2.671529909205514919e+00,
5.620264083312022096e-01,1.622978178381552006e+00,-6.025264930357880466e+00,-1.415511125507329737e+01,-4.366305745356759083e+00,-1.922684267588903984e+00,
-2.408240741396007412e+00,-1.526031214130848745e+00,-2.086468572379164943e+00,-2.899982026393471912e+00,-1.580365115531768616e+00,-2.383301238799075072e+00,
2.612478278512742591e+01,1.280356004145106397e+01,2.537592669562683412e+01,3.333048323517426326e+01,5.680082354853451143e+00,-1.064088883540897079e+01,
4.799644375298016463e+00,-8.908240395908842979e-01,-3.786876492845458131e+00,-1.675008927002777037e+00,2.099861643273828093e+01,8.616667033944933962e+01,
-2.424429699932745930e+00,-1.944727796040240042e+00,-2.984151875490952843e+00,-3.675504084644583447e+00,-2.011209347547539217e+00,-3.669246855542546815e+00,
-4.229792145523544100e+00,-8.567867879431997125e+00,-7.908650207157556622e+00,-7.597832536717334939e+00,-3.487716784345477716e+00,2.783702037284297770e+00,
-2.617485052537424028e+00,-1.216527637110516924e+00,-3.849636890587928129e+00,-3.419783654941629614e+00,-1.698097972066943351e+00,-2.380349528625925970e+00,
3.036625350216770158e+00,3.550154886517307151e+00,2.879191304331904178e+00,2.567872394594909569e+00,1.539994433395234674e+00,1.842782168649169883e+00,
3.267636627979250807e+00,8.570042033215613531e-01,3.542384846913967600e+00,1.608850045060338241e-01,1.128553025240631058e+01,8.990661654719898976e+00,
2.999312830149692299e+00,3.587056523316714540e-01,4.471358908083057138e+00,4.054044861775139452e+00,1.169499572429418377e+00,2.601888894410991249e+00,
-3.065077958989268492e+00,-2.958451529858434625e+00,-2.857418372190246192e+00,-3.395845152076245821e+00,-1.225014744247013176e+00,-2.309042787249797168e+00,
4.388167196734099385e+00,1.447078073653583763e+00,4.199766442664301103e+00,2.246776383896523122e+00,9.353940255745901711e-01,9.652513350261641145e-01,
6.496141387405027956e+01,5.526303043749077659e+01,5.751239307913461829e+01,5.880160599844674607e+01,-3.787115624512673406e+01,-7.399165630516854719e+00,
