3.044791651405535760e+00,7.738952129126757562e+00,2.139303562148935356e+00,1.938026339755948868e+01,4.381205378822906837e+00,1.006237680084481489e+01,
-5.310192057300890944e+00,-6.476487169529369092e-01,-3.328150436472528728e+00,-1.072971333753054202e+00,-2.817136198137591752e+00,-1.618472556484482539e+01,
5.099469018968309619e+00,3.006629048512820646e+00,5.930067969729508448e+00,8.599794700124412827e+00,5.882761929497995368e+00,-2.703551499094394295e+00,
-3.487488213158240757e+00,-4.211912407470577158e+00,-2.998912821024474873e+00,1.417518861617606818e-01,-2.119695437234530022e+00,-2.498440368331158012e+00,
-3.977621528284112884e+01,-3.373300063213050493e+01,-4.486893653240191782e+01,-4.063747458609947927e+01,-8.697180778834727732e+00,8.562617688534824367e+01,
4.809393791955574926e+00,8.682424925787802783e-01,-1.668112909479492645e+00,9.784648409136972314e-01,1.019180207574368779e+01,2.507914155731337580e+00,
-3.177713125935232696e+01,-4.119702582165528781e+01,-4.343511908661569976e+01,-4.067029225583249286e+01,-6.442774603677764667e+00,1.067830311868602848e+02,
7.796597757894605252e+01,6.231356712283024279e+01,5.920040255534104290e+01,6.402112809981946384e+01,-4.268283089433003141e+01,2.385600992477925342e+00,
3.019239194119151293e+01,4.408890327742707882e+01,4.534304543167344548e+01,4.713297603549962389e+01,-3.028598515326825336e+01,-6.658728885313626833e+00,
1.082932418573362865e+00,-3.337246617203136090e+00,-7.949349071680271717e-01,7.730893615274797570e-01,-3.008779984417719078e+01,-1.120838573474692978e+01,
1.524749664754014633e+00,3.217388646697422860e+00,2.366295231769791840e+00,2.147165573653549320e+00,9.982288668508221274e-01,2.658934582944997516e+00,
-7.483854889279613065e-01,-1.101060256803131843e+01,-3.398317865712570995e+00,-2.247891685564467323e+01,4.582811693212600090e+01,-1.825105030675702551e+02,
-4.253038567538534487e+00,-3.928890331344013997e+00,-3.747176168215348380e+00,-3.199312557283457537e+00,2.871278149661616874e-01,-5.008630794663567087e+00,
-1.700341175858279152e+00,3.220103916362092367e+00,4.103826747647999262e+00,7.365318339992388275e+00,6.744288451425854980e+00,5.158946576852463828e+00,
-4.309931084254133182e+00,-2.784570313364190142e+00,-2.396404476356748692e+00,-1.131984129483443180e+00,-2.367906635604748455e+00,-3.079134154996635786e+00,
4.994294143194125013e+00,5.321755841075939131e+00,7.154686006268581089e+00,7.382660426222805938e+00,-9.732338327534029165e-01,4.930817285293025876e+00,
-5.666258477742403876e+00,-2.179975888129760619e+00,3.613343103434732306e+00,-2.119314914281527518e+00,-2.455831873338521376e+00,-7.271882432390052386e+00,
-1.466707582668710930e-01,1.868016175875177043e-01,-2.679725920405749751e+00,-5.816498203106277298e-01,-6.017462638646836837e+00,-8.622468814972835460e+00,
-4.361836135214430499e+01,-4.775998535438488091e+01,-3.531007869697307200e+01,-4.290861515630612644e+01,-3.036857154007133630e+01,1.097733791076683190e+02,
2.849980325925453695e+00,1.098033775144920510e+00,3.395161873477705594e+00,3.670313378637841684e+00,1.783364326742770345e+00,2.620144994616458778e+00,
-9.545966541317049803e+00,-4.311892706111985163e+00,-9.734463643770515873e+00,-7.137575454403888742e+00,2.267991866027775583e+00,-6.860663434640613012e+00,
2.554088707649524448e+00,5.383542505071097217e-01,2.284653724598223690e+00,1.652942194325838443e+00,4.074607713668181752e+00,3.798254578786321112e+00,
-8.058410111014104871e+00,-6.553311613980410399e+00,-6.690322304449427548e+00,-6.008051480662033761e+00,-1.089323759229604560e+00,2.089776120159726691e+00,
-3.006898489445218203e+00,-7.494811854947692753e-01,-4.498191056858842352e+00,-2.224690138104209680e+00,-3.561442541882864909e-01,-2.700471430288443830e+00,
-1.727079421619894806e+00,5.798159959654126894e+00,7.137002242158104082e+00,6.757192663942955591e+00,3.822879868088562283e+00,5.316884714925942390e+00,
-1.867875162590242055e-01,2.230617075989200504e-01,1.236425393655143923e+00,9.683935626210385950e-01,6.207869093674998062e+00,4.964418156179389641e+00,
-2.472150917092945654e+00,-3.959926547325553353e-02,-5.839424846465544050e+00,1.880595504357647663e+00,-1.993765006631692094e+00,-2.093658882097079044e+01,
-2.692210607521836607e+01,-3.064540625761936710e+01,-2.303366221874651742e+01,-3.057468118404652202e+01,-4.275317210064763174e+00,6.818774132967627111e+01,
5.883712638481899404e+00,1.726519321653109884e+01,5.247148256432303270e+01,2.938698532869495850e+01,3.914338779442319094e+01,-1.178610440738181637e+02,
5.531697414097630272e+00,-4.025950115704199361e-01,3.443161546981552412e+00,6.031134436182690628e+00,7.994172044952239986e+00,-2.258639960421735093e+00,
2.513044349433635194e+00,3.210192369405128865e+00,2.299921301338816004e+00,3.058726773643932972e+00,1.550816987160519744e+00,2.440667043633140132e+00,
3.990895682487956719e+01,-5.706409413657554097e+01,-7.874863688573476850e+01,-1.864268261927044179e+01,-2.447318567230912123e+01,1.358019016857397503e+02,
1.196402526916538811e+00,1.964665583215460920e+00,3.984903902977669166e+00,2.401579162357422970e+00,1.928538492481530309e+00,2.032334697337149443e+00,
1.404110138302001154e+00,-4.436117189723718823e+00,-4.777244652884193421e+00,-3.753191705915791765e+00,-7.756535962835359177e-01,-1.213423184781440511e+01,
-3.713681836136010439e+00,-1.181881671531985312e+00,-3.428430435920768460e+00,-2.298503294621016213e+00,-1.465434582826599108e+00,-3.066399610833334677e+00,
-4.505123886096183305e+00,-1.947900366349043288e+00,-2.980191208095720246e+00,-3.186650934177655436e+00,-5.808434441347581689e+00,1.692068288373793417e+00,
-6.237527279781555078e-01,-2.619892238138809226e+00,-3.388990132927585108e-01,2.000875041531822995e-01,-4.400070695255353215e+00,-8.077259138162949270e+00,
-2.430945545864087265e+01,3.734522063797442559e+00,1.355334774044881208e+01,-1.585220521592788856e+01,2.870954748436919246e+01,-1.516852570273149752e+02,
3.123388149435504246e+00,2.146679598055691862e+00,3.348384527018081869e+00,2.047650214629349819e+00,1.659923030371508901e+00,2.518166804646074119e+00,
-6.212689671740464492e-01,1.471014084872939165e+00,-4.000918699550068403e-01,1.824160395488716668e+00,1.048410659911741938e+01,1.757038046688237998e+01,
-1.305269006872959103e+00,1.222698102505874962e+00,3.561678006277135378e+00,2.494523543019183887e+00,8.772016669305697789e+00,8.365776983658417265e+00,
2.842425378711153527e+00,3.400243833431382701e+00,2.643623988231527999e+00,2.492055416207721308e+00,1.799322293280239737e+00,2.104851610934897810e+00,
1.249737395434005727e+01,1.519446953434657388e+01,1.647709993757143465e+01,2.069890946788737551e+01,4.468123534850570344e+00,-6.943591369303947936e+00,
-6.683057330506584348e-01,-2.005378442348418666e+00,-1.504394039725340804e+00,-7.872598423592919170e-01,-1.081618828397350995e+01,-2.297935723292369836e+00,
2.161795779528079553e+00,3.155174029909078581e-01,3.616599615464458406e+00,2.869730334720266285e+00,1.668686063405083519e+00,2.342613011528220213e+00,
4.912634584951434391e+01,4.201365028208713426e+01,4.027869340109612040e+01,4.008789514403346743e+01,-4.619700209381467459e+01,-6.809158322980474187e-01,
-4.734723018963394203e+00,-4.653614893413900333e+00,-5.463324110930417810e+00,-4.943215599698939755e+00,1.499397779156374788e-01,-1.084353926527448359e-01,
5.311919077201067374e+00,1.809005304087875521e+00,2.284303732606189907e+00,2.284495774946897040e+00,1.297296468341756714e+00,1.961835216614025601e+00,
-2.687174145620413235e+00,9.777281416509303824e+00,-1.740940665311943292e+01,-5.221052489430406673e+00,-3.792981402810416292e+00,-9.845494419247773976e+01,
1.898973570897616625e+01,1.603539540163668775e+01,2.171358889210360132e+01,2.111862172323817077e+01,1.853054869654502923e+01,-1.128823729839025169e+01,
-1.172375657829202744e+01,-1.148108456134815114e+01,-1.122685591645350378e+01,-1.152769534718611766e+01,4.016267418770389064e+00,-6.461234025642668577e+00,
9.124364445754720165e+00,1.845170641588985205e+01,7.443842748977998802e+00,1.565539927066552295e+01,1.197401935364344361e+01,-6.867566798636896230e+00,
-4.887961734328400532e+00,4.316533200203146459e-01,-1.197247041021622316e+01,5.917813947613655756e+00,-4.305718429977380879e+01,1.952544452855938459e+02,
5.802699948882448222e-01,-1.049026791226476405e+02,-5.261468463515473815e+01,-4.501911362583204834e+01,-7.524012576252563811e+00,1.643413706060228208e+02,
-5.646063483452172349e+00,-2.461606737090762387e+00,-4.443040774033840457e+00,-6.597686931781551856e+00,-6.591178744473232598e+00,2.412254593653226031e+00,
-6.480821042028829915e+00,-8.340415200257126571e+00,-9.120774964149617858e+00,-4.743889987167958289e+00,1.024883436158380956e+00,-1.068798946449568632e+00,
-4.425922914294638133e+00,-3.787121700864437113e+00,-3.832721610462572315e+00,-3.766637736344607745e+00,-2.665234423146759735e+00,1.165587509245515241e+00,
-1.422563975460703389e+01,-3.962410433956762734e+00,-7.769896488753050612e+00,-1.621887860052008534e+01,-2.587688526027211111e+00,4.082157909666766393e+00,
-6.118774873809403658e+00,-1.740083193590686150e+01,-1.535393626383558363e+01,-1.941697203589774645e+01,-3.324016814407973808e+00,-1.345706287368160226e+01,
2.883121505264333528e+00,2.043228387887305431e+00,1.776463250389881843e+00,3.504376544651474745e+00,1.437358718962642445e+00,2.264729345059703913e+00,
-1.600258577447212449e+00,-3.327476429226499666e-01,-1.423720023604699403e+00,-1.395048852032373388e+00,-7.948765133334503297e-01,-9.351283346591468870e+00,
-4.991294951467953211e+00,-4.007790211692078941e+00,-6.186940028199897412e+00,-9.851415452055956479e+00,-4.534470795834190326e+00,2.915582876867043982e+00,
4.236055713056797067e+00,3.173635785892872541e+00,3.092133250653122722e+00,2.585723104455046606e+00,5.484645682055309557e+00,-1.672340529845280921e+00,
-7.071594360531268109e+00,-7.264863083649273356e+00,-6.661498706012093152e+00,-6.783676543802342529e+00,-4.804306364922519279e+00,3.026384467526523903e+00,
-2.435913768605973750e+00,-1.031582144506754561e+00,-4.331262549128162220e+00,-7.063782767308533828e+00,-4.376113348483744225e+00,1.594776249302214843e+00,
1.156424369400379654e-01,1.200667434541361933e+00,-5.928232258756473971e-01,-2.638055584492149386e-01,1.950292128292428373e+01,1.962693300152773190e+01,
1.763588286785862547e+00,2.749070935088465006e+00,1.762277948389677773e+00,2.276461966249518909e+00,1.576493246954467242e+00,3.031282898206109522e+00,
1.340181402064364757e+00,5.596453965947268294e+00,8.751040841660250313e-01,3.297123250230061586e+00,1.184896548813749995e+01,1.731568801851366413e-01,
-2.177262744335570233e+01,-2.124180958595158586e+01,-1.733514538453885123e+01,-2.246737455265305883e+01,-4.202496072069234856e+01,3.173832322851083987e+01,
-1.165503158064329581e+00,5.435346162722189955e-01,-1.067221013108780481e+00,1.171549782430303832e+00,-1.146267028133650445e+00,-5.017231466634720505e+01,
-6.345661392658823452e-01,-1.078629922069567204e+00,-1.449633629031458759e-01,-1.831014943625687841e-01,-8.819753781707774465e+00,-6.520896850406687761e+00,
2.877316187156343830e+01,3.362651335706724609e+01,4.280857904387444535e+01,3.366857130542585708e+01,9.118259503333971949e+00,-9.813885563621070673e+01,
6.317894545998028022e+00,1.079362100081742604e+01,-6.110376075293403098e+00,-4.910528762461787572e-02,1.486318959184129973e+01,6.901013731473391033e+00,
3.213280626923626215e+01,-4.702287886771549807e+01,-8.134283296131961549e+01,-5.477350624735055362e+01,-1.589658315914396347e+01,1.479475808148420413e+02,
3.141698169940011498e-01,1.082646236847753229e+01,2.557196791884488452e+00,5.486148702467849247e+00,7.772752322057193020e+00,-1.588054442292401669e+00,
-6.912752741693319436e+00,-3.699328730739257942e+00,-4.752888665908250765e+00,-7.496508174158270421e+00,-7.472510201741545011e+00,3.062756913773646339e+00,
6.211205363019042380e+01,4.572456736086912343e+01,5.751346257322238031e+00,1.249384687358670476e+01,-9.013324870779297271e+01,7.245764215455082535e+01,
4.700753664612927984e+00,2.116326114452527829e+00,2.051782321464366454e+00,2.691338027582327541e+00,5.913618291131310656e+00,5.571581138988721094e+00,
-2.334637377063887342e+01,-3.575019849062970678e+01,-3.065622988123116954e+01,-3.861122593939908398e+01,-1.433680188514901310e+01,1.573387426302216419e+01,
6.843935908238546695e+00,3.502514730645915453e+00,7.258136963871363534e+00,1.445688887364853059e+01,1.377705745846025920e+01,6.264453388351183705e+00,
3.265079580049338182e-01,-1.294026810922409121e+00,6.165659169780520088e+00,-2.740724224000884224e+00,7.356005074066485072e+00,6.094167303492500309e+01,
1.878517522101808268e+01,9.073600413069078385e+00,1.937429530695500191e+01,2.595637783987426062e+01,1.015135099427573451e+01,-9.078197792619432605e+00,
4.907013107264853957e+00,5.467174184847341856e+00,4.179908236852660330e+00,3.592157102539112135e+00,-2.653665999653443408e-01,1.509354356491094951e+00,
-2.384940819810445589e+00,-2.863863478307267507e-01,-4.537721789092451496e-01,3.883258166180607596e-01,-8.080904691907166537e+00,-7.479060466967036191e+00,
4.367678996859771345e+00,4.132164879050851169e+00,4.096435801162895629e+00,3.831555515439739601e+00,1.884792840265757441e+00,-1.073719248754024136e+00,
-1.406733078881752341e+01,-1.108463676074295456e+01,-1.615798988679996739e+01,-2.194579717057811052e+01,-9.086039353246921024e+00,7.684025030087486385e+00,
7.433315632378366900e+00,-6.321832060615134585e-01,2.313088468851782764e+00,-3.107179768335376568e+00,5.032968172379946203e+00,3.971250791188185048e+01,
-1.708215985989537611e+00,-5.001152262279224825e-01,-1.364622639435114193e+00,-1.430456609683363078e+00,-5.211970603718859785e+00,-3.714869723190052486e+00,
-1.749717240375018434e+01,-1.328059026393807684e+01,-2.339493624528510907e+01,-3.498567995303145750e+01,-7.271202825810232184e+01,5.072544049085726670e+01,
-2.521370073591326477e+00,4.225257724488060140e-01,-2.776935462737822213e+00,-3.539954338491687391e+00,-3.990162331021635200e+00,-6.853271742692816026e+00,
4.446601775200783813e+00,1.865675836558682299e+00,4.349216038634935444e+00,3.338778386455525382e+00,2.490986697693828411e+00,-1.036717338660382071e+00,
1.737410843376653746e+00,6.859711412812007358e-01,2.112891925093803636e+00,2.746727425579893467e+00,2.208438361861068788e+00,-7.547082613504630944e-01,
-3.350514646900013105e+00,-1.490619324699147041e+00,-4.006133355613198610e+00,-1.104796517648571008e+00,-1.887052305577745281e+00,-2.895205737214992414e+00,
5.369473124212398574e+01,2.835205206271875511e+01,4.827580094163156588e+01,6.366495064890575861e+01,1.577768830854761717e+01,-3.898398565057308929e+01,
3.151770559052764931e+00,4.030255255880340393e+00,2.971911532377819576e+00,2.099271184495555165e+00,1.458690894160969753e+00,1.518645372987184938e+00,
-2.714842374122438340e+00,-1.369692682901562986e+00,-1.591878546379659864e+00,-2.028400488158561110e+00,-5.908592610562002356e+00,-1.923038098479973312e+00,
-6.277394584755550255e+01,-1.625283303618348540e+01,-4.787951595806789129e+01,-1.395263722947949425e+01,8.737372199076324364e+01,9.482962088831742165e+01,
1.541537279834121268e-02,-2.288984167014848303e+00,9.242220973638679560e-01,-1.305098168085397248e+00,-6.574455369621494683e+00,-8.938165626204318315e+00,
-4.020205783958074264e+00,-2.116621450354366107e+00,-3.158841399230433833e+00,-2.550746270341842425e+00,-1.614609545979566851e+00,-2.891743660729876986e+00,
-4.943239575531848118e+00,-5.762475023649642480e+00,-6.041626815346860191e+00,-6.499724075852618910e+00,1.189241143087159225e+00,-5.505188379594522452e+00,
5.959726619854012197e-01,-2.551491311224835190e+00,-4.088068393610825524e+00,-8.463011688596203896e+00,-2.411427566141599588e+00,-1.737715957849511161e+00,
2.560497988330338259e+00,3.043125397486886374e+00,2.730165729938176078e+00,2.656376958931576659e+00,1.734087569166811615e+00,2.275097762487483521e+00,
-3.358199752009368932e+00,6.205710884015509521e+00,-9.185273416904273347e+00,-5.807254573280797416e+00,-2.014291115979959912e+00,-1.810965328717371747e+01,
4.867276255892798886e+00,-1.033469722621257247e+01,5.413249818515758705e+00,1.924405801817039929e+01,6.389340412536162472e-02,3.833937199803010998e+01,
-3.095194206086504707e+01,-3.648272305897316414e+01,-3.046243599119094370e+01,-4.151083035451652847e+01,-2.042653400018609133e+01,3.186953426031073278e+01,
-1.697257416422354392e+00,-1.926370092355491170e+00,-4.429881844905573796e-01,4.604006278967667787e-02,-1.037952698264317597e+01,-3.468730650366369517e+00,
-1.739624516090607365e-01,5.265069706025328200e-01,-3.684014656410288246e-01,-4.640337057479590466e-01,-1.335666893542218325e+01,-1.438788119431567836e+01,
8.643779858914493186e-01,2.621065003379505556e-02,-3.258317486830534238e-01,2.381221278632702720e+00,9.172027797483540468e+00,6.135552673357359765e+00,
-1.962867647152051864e+00,-3.794701588516750324e+00,-6.658823740075244579e+00,-7.527945815296203769e+00,-5.032817019274658854e+00,2.182605238172561801e+00,
-1.700386736692399037e+00,-2.748312495043984782e+00,-2.090565823519991984e+00,-3.145382849837025319e+00,-2.451780122167265485e+00,-3.434622224263135681e+00,
7.938964567637899483e-01,1.825685429995850928e+00,1.926920009829464320e+00,2.654246314852228394e+00,8.388354237745133446e+00,7.705301407727013441e+00,
-3.198584964523790575e+01,-3.094262118698383546e+01,-2.982029022007260721e+01,-3.939683926026911820e+01,-2.282221656510637686e+01,1.801574898374116529e+01,
2.620564716831497609e+00,1.060469510794530024e+01,-1.987740699863547178e-01,-3.549595939964730329e-01,-1.417935378689587855e+00,3.767819704705944162e+01,
5.354282419266855442e+00,4.879303242499883453e+00,7.412905552847478319e+00,9.340544483490672789e+00,7.838867099211613620e+00,-3.598517490797272345e+00,
-2.684156788284343786e+00,-3.182486412195008274e+00,-2.898088331100907578e+00,-1.845013781393131325e+00,-1.565022630036844387e+00,-2.595225832799192389e+00,
-3.224293530013348885e+01,9.948563255986274001e+00,2.102699473217781190e+01,1.488906324069333920e+01,2.263303904939760258e+01,-1.535509299012831548e+02,
-2.332318747035539541e+00,4.139115062650535748e+01,3.180362430501878990e+01,-3.480439241232723191e+01,1.242017742600653349e+02,-1.718691897418007954e+02,
2.407420117781944757e+00,3.836249075842845802e+00,2.696199915806444913e+00,2.394125496616017479e+00,1.618623895320646211e+00,2.307762538079072723e+00,
-5.009178715174670060e+00,-8.419442120004886121e+00,-3.448870812913211181e-01,-5.476584606036438707e+00,-2.286679632073906276e+01,-1.653870964904316399e+00,
-2.277975067562385547e+00,1.307673181848153909e+01,5.603779546440027737e+00,7.063766624559756124e+00,2.735517564168085780e+00,1.970430211570568524e+00,
-1.952256039846610669e+00,-6.875627696147370571e+00,-7.218120448696851987e+00,-4.678554333388109221e+00,6.496815604393459953e-01,-9.929057708856841913e+00,
-4.411488853714705116e-01,-8.955983948043586551e+00,-3.111166012010168291e+00,-3.365040360793037255e+00,-1.526995969483742721e+00,-4.096414518264922949e-02,
-2.565455197656451247e+01,8.709872634570767502e+01,5.253234846512777523e+01,5.374000449195863638e+01,-3.809941102087051235e+01,-1.682846817209459402e+02,
-1.547330299010789112e+01,-6.752004593400781118e+01,-6.024957227020977513e+01,-4.618828373663802722e+01,1.039802591605846693e+01,1.141652794285155892e+02,
-5.010401641428138042e+00,-1.227911967168733076e+00,-2.078802723802090302e+00,-2.848856709783992081e+00,-1.321890715911932412e+00,-1.621656342484052438e+00,
-2.698880337389414574e+00,-2.384674777920198885e+00,-2.888500275510707205e+00,-2.448186373575282015e+00,-1.867846842737242552e+00,-2.677615862481629527e+00,
4.828222053753667531e+00,5.652315185503323569e+00,4.601070173683515563e+00,3.966706292302179637e+00,-5.822362927961747259e-01,6.014323187277918592e+00,
-1.857598772921955188e+00,-2.358815217678299270e+00,-3.816333684912375013e+00,-1.925875792812312248e+00,-3.143975093762051976e-01,3.541191904182925398e-01,
-3.314367386366976120e+01,6.938434668908361402e+01,6.359604080852281527e+01,4.015809353241603219e+01,3.365883453661250968e+01,-1.233086497437947031e+02,
5.880694520492078681e+01,6.664772596423303241e+01,6.550247261967965073e+01,6.187976967624156543e+01,-7.827049064831308556e+01,-2.004617341793310459e+01,
9.067462491717970252e-01,2.932938960586132460e+00,5.615109545725528450e-01,1.561702682850347079e+00,4.127080195740410851e+00,4.180397299236982001e+00,
4.421528404431413151e+00,3.943041187012578330e+00,5.638506977303179291e+00,5.180280299620022788e+00,5.432807893177229452e+00,-2.114164193926892477e+00,
1.770874663275420202e-01,2.567726135190848691e-01,1.325246257086289292e+00,-4.501310832091616754e-01,1.089920393101034080e+01,6.648869920199445005e+00,
8.225577610266332940e+00,6.253324360705529550e+00,1.031690463451022310e+01,1.508173672096787676e+01,6.633283238647234015e+00,-4.727916716245325723e+00,
-7.460039346151789985e+00,-2.554009172986710752e+01,-9.643676497241024492e+00,-1.077311148602275104e+01,-3.987809925889863827e+00,4.139799676917237825e+00,
1.785363071782316169e+01,1.856876277400740349e+01,1.706190649853017050e+01,1.484298494924597556e+01,-5.622022827305904080e+00,1.341881735808548026e-01,
-2.193369869144218498e+00,-4.275585233886983971e+00,-3.280827338272675142e+00,-4.176263361022148679e+00,-4.137741408668944132e+00,1.167121162194667328e+00,
1.164436907546892996e+01,1.148560550699545146e+01,1.220426011287761803e+01,8.744208389597099895e+00,-3.304748616110555037e+00,1.241576520295809338e+00,
-4.752270100566994948e+00,4.381163810641108131e-02,-1.938196727940819875e+00,-6.392205149266168895e+00,-2.519059726601729388e+00,-4.640567653995000263e+00,
-2.544316055344574945e+00,-3.601547675726857189e+00,-6.920066103417863435e-01,-2.829342096902716541e+00,-1.913105949920459681e+00,-2.509592221885656116e+00,
-9.062205906700135927e-01,3.908828077238941656e+00,5.913436727446163665e+00,1.154187238202014854e+01,4.685397067920241909e+00,3.419627429036984800e+00,
1.227042450427497711e+00,1.311644148933168497e+00,1.997608494492665754e+00,4.284663504946548684e-01,5.402519512719945460e-01,1.114649347032896820e+01,
-6.685801570208464994e+00,1.352455436263367616e+00,-6.869605948895380898e+00,-7.174024983860920024e+00,-6.045960607517403496e+00,-6.307025815847638883e-01,
2.167675414189176308e+00,8.458790227690327512e+00,-9.867449227891424979e-01,6.240091924053377426e+00,3.469894050365344373e+00,1.473578887089704859e+00,
-3.158613981098032042e+00,-1.679743682755287404e+00,-3.274387092071051164e+00,-3.926662651305949492e+00,-1.807217426784897496e+00,-1.897435953423846966e+00,
4.678722781680261789e-01,-2.981021910037403799e+00,-2.627091557905999686e+00,-4.151743372862439330e+00,-4.653100403043931799e+00,-2.556032010653749076e+00,
2.563844130144575573e+00,1.226099482765721449e+00,2.224860247815527714e+00,2.842820795503761211e+00,1.846754795075532085e+00,2.383454529808775035e+00,
1.681112040278077302e+01,2.175371314488749874e+01,2.266272470453580823e+01,1.564316107073677209e+01,7.918708183692778846e+00,-8.935223106618355615e+00,
2.163955628706041967e+00,2.949339613238298075e+00,5.421588498369401821e-01,3.756402136936801472e+00,1.699344173402278280e+00,2.346420437435398298e+00,
2.033112133909589403e+01,-1.151415861650170172e+02,-7.528137525106060934e+01,-8.177278987875277494e+01,2.045970151483487598e+01,2.021291420741989384e+02,
-1.254569081168995126e+00,-3.333884176628220786e+00,-2.067820840579317032e+00,6.200092754280146501e-01,-1.535738100584365107e+00,-1.075286014716533600e+01,
-1.866171562629019398e+00,-1.866081766368069328e+00,-1.441341754688278298e+00,-7.417893692238680670e-01,-3.795676286983244996e+00,-4.053741270134629815e+00,
-2.745862505626746852e+01,1.338740355864771736e+01,-1.047108157115293459e+01,1.910727912544355434e+01,-1.880345775411322151e+01,-8.076741696382565294e+01,
2.376881016717373285e+01,4.695898417462523611e+01,5.984217423013670611e+01,4.340212913717168419e+01,2.644912643549218245e+01,-1.134073791147120147e+02,
6.083982787047380825e+00,4.845349011719322085e+00,6.507941635593682328e+00,5.486178935075399110e+00,-5.524568580275823759e-01,-5.682959695768412534e-01,
4.617011456656789470e+00,4.977293456911865199e+00,5.840861777636673580e+00,5.583245822309127249e+00,5.245270782963144640e+00,-2.404434557189071509e+00,
-2.496207100889377806e+00,6.813257784017275220e+00,8.893279408528057317e+00,3.784669346373954024e+00,3.567166898048317769e+00,5.755459716426453376e+00,
9.438915674266761258e+00,-9.810987135102049450e+00,-8.030882727944558042e+00,6.456347846500363197e+00,4.606583989491615228e+01,1.054434538732252378e+02,
6.805100894533838130e+01,7.276304727956279805e+01,4.852791870773581451e+01,6.359210303477063775e+01,-3.273818993855115878e+01,-9.723015791948452602e+01,
4.179623346674024575e-01,1.970127515866177292e+00,3.496136273378944170e-01,1.656360212955728883e+00,1.579877750397538083e+00,1.544601326266781172e+01,
-1.148753467292146890e+00,1.597572787269424088e+00,-1.076822471485997385e-01,8.641578254513144763e-01,1.535505480841631432e+01,1.354670284312639517e+01,
4.472975162716765318e+00,3.626650622834655557e+00,2.068957866464515849e+00,1.792804641834079560e-01,3.194328173507444912e+00,7.558864481170520122e+00,
-5.687392986936824713e+00,-6.411924938610726876e+00,-6.775382875691969176e+00,-8.478657380336274585e+00,-9.815477022694539144e+00,3.990792345854270007e+00,
1.336247808175827245e+01,6.465494957125840436e+00,1.028302299600633063e+01,-2.437937772892577293e+00,2.356861186698107069e+00,-5.434189906770582335e-01,
-1.799435768203034058e+01,-8.144599357191312095e+01,-3.467961625527924951e+01,-6.039512630750179056e+01,1.411413155395096020e+01,9.953808806099780782e+01,
8.055036175667956044e+00,4.886453855628818954e-01,5.409525078056121039e+00,9.145044554056481756e-01,2.195230522204857926e-01,2.711938339956060151e+00,
-9.137489635129812271e+00,1.378041354722933676e+01,-8.394290874188818918e-01,1.195951615823790526e+01,2.506176086629274380e+00,5.714261362585825310e+01,
-1.247681547648283651e+00,-1.711888176732934141e-02,-1.722752602299578051e+00,-2.134470401261673533e+00,-3.149679638860920505e+00,-8.312752198671963910e+00,
2.519312533798089504e+00,2.845267115424047866e+00,2.465491575980839567e+00,1.944896854794557095e+00,1.786395801301915442e+00,4.502703386668206242e+00,
1.083024598026056939e-01,-3.357957412708801659e+00,-2.865486077182364699e+00,1.187190737275192892e-01,-4.019331613189708996e+00,-1.276839207896763639e+01,
5.149666795694088250e+00,4.225183174979465051e+00,5.914169673448937736e+00,6.755936572902693449e+00,2.387024303234383193e+00,-1.784413529747803873e+00,
-2.933273812780893497e+00,-2.242757748809733442e+00,-2.495362051611826004e+00,-2.547050599880639865e+00,-2.165822665715912976e+00,-2.702573938745044480e+00,
5.340496494384680659e+01,3.852064950719834258e+01,5.459900080123598087e+01,5.524985260979041612e+01,1.685693889133237633e+01,-1.160605166373529471e+02,
-1.946424120491984988e+00,-5.320588554869678966e+00,-1.928299572769395454e+00,-7.591580690132447851e-01,-2.357702488582284595e+00,-4.217453923432620932e+00,
2.123911421312567605e-01,4.250219299157140362e+00,1.307173324398244185e+00,3.838218311248187131e+00,9.438925385766530951e+00,1.719725609242622744e+00,
1.165012094286062627e+01,-4.516313052804994399e+00,-7.636277320686647663e+00,-4.196992940982986475e+00,3.574180165865580250e+01,-1.730055694547105247e+02,
-2.578779856418191851e+00,-2.592634664782274445e+00,-5.250950825879541206e+00,-8.879922457397640967e-01,-1.217618321039301010e+00,-1.867766686170174939e+00,
-1.620748305301207726e+00,-2.324424563074427130e+00,4.308708899028134809e+00,-7.551512752325966193e-01,-8.358356472836922180e+00,-9.418137505753787764e+01,
3.445351338221334458e+01,6.686474245946246242e+01,6.883125184080626013e+01,5.617770025226779751e+01,1.241592975021703538e+01,-2.214026152721890526e+02,
6.616740459362977944e+00,1.491980616212455368e+00,1.271207657764771293e+00,3.180740723948358162e-01,6.593829795405092398e+00,9.124857396532610743e-01,
-1.188623231488977261e+01,-1.223561936420228413e+01,-8.102333001492857179e+00,2.918820582451656431e+00,1.407631803206837728e-01,-3.045905205097358959e+00,
-3.153515291734408699e+00,-3.013937878546619764e+00,-2.777158817869307406e+00,-1.313647020657338294e+00,-2.170783307979484711e+00,-2.430552615025979080e+00,
-3.530427789550537376e+00,-1.566190146096763547e+00,-2.752598553001067927e+00,-2.920861256402665695e+00,-2.053564232501182918e+00,-1.901630085186614139e+00,
1.856564178017635847e+00,-9.085649902164917080e+00,-8.349551051284871406e+00,-5.728147613076252753e+00,1.649683730189850595e+00,-8.890116557167401012e+00,
8.363357627617441503e-01,-5.922316822938424430e+00,-5.662369814467749229e+00,-5.814187620041994187e+00,-1.494867300578267999e+00,-3.872103111695622157e+00,
-1.801737765612813347e-01,2.373805334911556209e+00,5.680039310804579217e-02,-5.589373087680944430e-01,1.262396898338011830e+01,1.117793007409682637e+01,
2.171156180665126723e+00,1.421546845083309307e+00,2.744141396387627552e+00,3.061458566408334470e+00,2.003805742245912125e+00,2.605129622311594950e+00,
7.201879061554646855e-01,1.653244181964141024e+00,-5.994833480732352449e+00,-1.415475174140616055e+01,-4.344583049141333753e+00,-1.919341007786864894e+00,
-2.431047970129246671e+00,-1.548836344295290379e+00,-2.109237078886236016e+00,-2.922591916154110514e+00,-1.603726158456798334e+00,-2.411249539002314979e+00,
2.612206701188991076e+01,1.280078465282660716e+01,2.537308668989624039e+01,3.332762391382988909e+01,5.674516783043296542e+00,-1.066694786047796484e+01,
4.804633065801987790e+00,-8.770831956149689468e-01,-3.766790009690773378e+00,-1.654922465966397693e+00,2.100139661364053012e+01,8.616732184228142444e+01,
-2.340931553226942352e+00,-1.860940399233942832e+00,-2.900317010698705289e+00,-3.591905631951604061e+00,-1.886736757130216269e+00,-3.596676328532457223e+00,
-4.227827325751746912e+00,-8.565776609478982451e+00,-7.906656671054758334e+00,-7.595781687619618694e+00,-3.483692027951418968e+00,2.802479585601938883e+00,
-2.538430562912203925e+00,-1.137259518105562472e+00,-3.770337330071067417e+00,-3.340760672701398537e+00,-1.589519233941936394e+00,-2.308003223479420107e+00,
2.930255899458563906e+00,3.443476788702998004e+00,2.772467822779911550e+00,2.461544607245646166e+00,1.396090917483655991e+00,1.744057169876487068e+00,
3.267621519279669595e+00,8.569891471800582528e-01,3.542369808484624905e+00,1.608700676305114818e-01,1.128551742521286450e+01,8.990645310152874714e+00,
2.888108556588167897e+00,2.468290076906105857e-01,4.359360678550039836e+00,3.942277983825141163e+00,9.950082671055644479e-01,2.510785581664193966e+00,
-2.981703076674918851e+00,-2.874628782092584878e+00,-2.773524248711095375e+00,-3.312162929478490447e+00,-1.098269129980967707e+00,-2.238549340852387548e+00,
4.334322490031962793e+00,1.393041184912595432e+00,4.145688662473837383e+00,2.192865851946132150e+00,8.590130980601566879e-01,9.168280843712804939e-01,
5.676853855872482768e+01,4.605992742311146060e+01,4.784779668729833446e+01,4.716618117287269740e+01,-3.506914167770180768e+01,5.255315154191106508e+00,
